drug,z0,z1,z2,z3,z4,z5,z6,z7,z8,z9,z10,z11,z12,z13,z14,z15,z16,z17,z18,z19,z20,z21,z22,z23,z24,z25,z26,z27,z28,z29,z30,z31,z32,z33,z34,z35,z36,z37,z38,z39,z40,z41,z42,z43,z44,z45,z46,z47,z48,z49,z50,z51,z52,z53,z54,z55,z56,z57,z58,z59,z60,z61,z62,z63,z64,z65,z66,z67,z68,z69,z70,z71,z72,z73,z74,z75,z76,z77,z78,z79,z80,z81,z82,z83,z84,z85,z86,z87,z88,z89,z90,z91,z92,z93,z94,z95,z96,z97,z98,z99,z100,z101,z102,z103,z104,z105,z106,z107,z108,z109,z110,z111,z112,z113,z114,z115,z116,z117,z118,z119,z120,z121,z122,z123,z124,z125,z126,z127
5-Fluorocytosine,0.034799277782440186,-0.06785088777542114,-0.04616039991378784,0.08607813715934753,0.024821937084197998,0.016903728246688843,-0.004224300384521484,-0.00019690394401550293,0.032539043575525284,0.07707121968269348,-0.04959049075841904,0.02942436933517456,0.05722606182098389,0.00473552942276001,0.07191094011068344,-0.05156517028808594,-0.007563769817352295,0.017442047595977783,-0.010496944189071655,0.04443703591823578,-0.0360199511051178,0.029230177402496338,-0.024088189005851746,-0.04156176745891571,-0.01607614755630493,0.030643373727798462,0.047328606247901917,0.017893671989440918,0.02740919589996338,0.0049029141664505005,-0.014682650566101074,0.029574155807495117,-0.8618311285972595,0.04712100327014923,0.02276057004928589,-0.12086930871009827,0.04435865581035614,0.003920912742614746,0.03776368498802185,0.03856195509433746,-0.05860432982444763,-0.10059802234172821,-0.005303047597408295,0.026583552360534668,-0.010418474674224854,0.021457910537719727,-0.004762440919876099,0.08806103467941284,-0.037119150161743164,-0.0701378583908081,0.0006132125854492188,-0.02741168439388275,-0.07206109166145325,-0.019015222787857056,0.03784461319446564,-0.05651332437992096,0.04878148436546326,0.07366524636745453,-0.046585530042648315,0.02815939486026764,0.08225089311599731,-0.047898679971694946,-0.0323590487241745,0.009936079382896423,0.017162173986434937,0.04193776845932007,-0.030021175742149353,-0.007357299327850342,0.012373775243759155,0.031220264732837677,0.03649361431598663,-0.01916736364364624,0.08794474601745605,-0.02345290780067444,0.06713394820690155,0.031023502349853516,-0.04303911328315735,0.15019863843917847,0.05722445249557495,0.008090153336524963,0.0074621886014938354,-0.01150570809841156,0.059942349791526794,-0.08405154943466187,-0.03519207239151001,-0.012491941452026367,-0.03481411933898926,-0.0776921883225441,0.045499756932258606,-0.07773041725158691,0.007927089929580688,0.0035436898469924927,-0.07171568274497986,0.024890244007110596,-0.052690744400024414,0.04373222589492798,-0.050206273794174194,-0.03527383506298065,0.013702362775802612,-0.033222585916519165,0.012995779514312744,-0.0273953378200531,0.022828470915555954,-0.0440669059753418,-0.02222694456577301,0.08902381360530853,-0.020334795117378235,-0.04021573066711426,-0.04644554853439331,-0.009121298789978027,-0.04840707778930664,0.12104834616184235,0.044080644845962524,0.011406779289245605,0.012393921613693237,0.001476585865020752,-0.08616548031568527,0.010847285389900208,-0.017407476902008057,0.025157436728477478,0.19371256232261658,0.013754129409790039,-0.030610233545303345,0.015409544110298157,-0.07504290342330933,-0.04144451022148132,-0.003995299339294434,-0.03642342984676361
Amikacin,0.07520641386508942,-0.17983940243721008,-0.0735490620136261,0.171718567609787,0.0734090805053711,0.03088921308517456,0.040059566497802734,-0.016890108585357666,0.11652964353561401,0.18145346641540527,-0.10760501772165298,0.07847854495048523,0.13686589896678925,-0.049688905477523804,0.17954903841018677,-0.13139250874519348,-0.02621600031852722,0.022343575954437256,-0.016122490167617798,0.08636584877967834,-0.07136577367782593,0.09710776805877686,-0.05201321840286255,-0.12477544695138931,-0.029843837022781372,0.05400872230529785,0.1266385316848755,0.050650835037231445,0.06605851650238037,-0.017032288014888763,-0.08471253514289856,0.041724175214767456,-0.19196897745132446,0.1278936117887497,0.07765662670135498,-0.30586427450180054,0.09347093105316162,-0.007908865809440613,0.11756089329719543,0.0759817510843277,-0.11561457812786102,-0.23057693243026733,-0.03816282004117966,0.04438197612762451,-0.0266302227973938,0.0664387047290802,-0.039220333099365234,0.22197672724723816,-0.07027727365493774,-0.14268524944782257,0.002011537551879883,-0.0347798615694046,-0.16950316727161407,0.003287695348262787,0.07169201970100403,-0.12846018373966217,0.15237975120544434,0.1861347258090973,-0.07893452048301697,0.0561506450176239,0.17564065754413605,-0.06697721779346466,-0.10988202691078186,0.07940100133419037,-0.014657959342002869,0.11434635519981384,-0.09110472351312637,-0.0793725848197937,-0.012425661087036133,0.10879391431808472,0.04294019937515259,-0.07573391497135162,0.2009623646736145,-0.0819171816110611,0.12377507984638214,0.043049633502960205,-0.09724391996860504,0.34582602977752686,0.119222491979599,-0.007618024945259094,-0.003218241035938263,-0.04247693717479706,0.14132928848266602,-0.13881513476371765,-0.08763903379440308,-0.07248574495315552,-0.0784679651260376,-0.14872479438781738,0.1225336343050003,-0.1473669558763504,0.05387398600578308,-0.04845702648162842,-0.16110539436340332,0.07396405935287476,-0.09724724292755127,0.1085067093372345,-0.1382138729095459,-0.08984726667404175,-0.013003967702388763,-0.08016255497932434,0.04512208700180054,-0.07804405689239502,0.06094527989625931,-0.09217372536659241,-0.014353260397911072,0.17328640818595886,-0.039662063121795654,-0.11845667660236359,-0.11481600999832153,-0.016029924154281616,-0.12122255563735962,0.27465420961380005,0.07566016912460327,0.03625708818435669,-0.0030368566513061523,-0.01673668622970581,-0.1790405958890915,0.008073598146438599,-0.0560295432806015,0.07477802038192749,-0.2889552712440491,0.03267514705657959,-0.11494150757789612,0.05146247148513794,-0.11038818955421448,-0.08850964903831482,-0.021450042724609375,-0.09695244580507278
Amoxicillin,0.039779603481292725,-0.11689645051956177,-0.07428950071334839,0.12734821438789368,0.042981624603271484,0.010360091924667358,0.012474238872528076,-0.007274702191352844,0.056629493832588196,0.12473487854003906,-0.08344267308712006,0.0654221773147583,0.09033447504043579,-0.009731918573379517,0.13012704253196716,-0.08609947562217712,-0.010504007339477539,0.032282739877700806,-0.016209691762924194,0.07035399973392487,-0.04108792543411255,0.047623515129089355,-0.038985103368759155,-0.07423874735832214,-0.013946563005447388,0.033832162618637085,0.08715393394231796,0.03260505199432373,0.04329100251197815,0.0028647929430007935,-0.04787394404411316,0.036337584257125854,-0.6889373064041138,0.07941019535064697,0.05117553472518921,-0.19863200187683105,0.06775499880313873,0.009957164525985718,0.07785013318061829,0.053189948201179504,-0.09267736971378326,-0.1626095026731491,-0.020456314086914062,0.03332352638244629,-0.018763571977615356,0.04906889796257019,-0.01991349458694458,0.15093857049942017,-0.05793052911758423,-0.10074926912784576,-0.007067322731018066,-0.0287083238363266,-0.12504792213439941,-0.01330498605966568,0.0690801739692688,-0.09371595084667206,0.09584152698516846,0.13330313563346863,-0.05628208816051483,0.042905330657958984,0.1329146921634674,-0.05434732139110565,-0.07027117908000946,0.04810279607772827,-0.00567317008972168,0.06706726551055908,-0.0684148520231247,-0.027639418840408325,0.0061655193567276,0.07043987512588501,0.0336788147687912,-0.051475733518600464,0.1428528130054474,-0.048959359526634216,0.08139574527740479,0.039531588554382324,-0.07509559392929077,0.2414485514163971,0.07726822793483734,0.004967682063579559,0.001165136694908142,-0.029964983463287354,0.09083299338817596,-0.11644905805587769,-0.04444003105163574,-0.04162716865539551,-0.05235585570335388,-0.12036604434251785,0.07555535435676575,-0.1161297857761383,0.019364655017852783,-0.003303512930870056,-0.11850965023040771,0.05665445327758789,-0.07600235939025879,0.07409128546714783,-0.09159648418426514,-0.05777007341384888,0.005291789770126343,-0.058200955390930176,0.03335610032081604,-0.050813257694244385,0.041390687227249146,-0.06081128120422363,-0.025405123829841614,0.12520195543766022,-0.03704047203063965,-0.07955215871334076,-0.0796884298324585,-0.003997623920440674,-0.08339861035346985,0.19377337396144867,0.050823524594306946,0.020305395126342773,0.007328540086746216,0.002835988998413086,-0.12365151941776276,0.01807279884815216,-0.03614228963851929,0.055429697036743164,0.017435848712921143,0.01988959312438965,-0.06286591291427612,0.032244712114334106,-0.08872497081756592,-0.060999795794487,-0.004201054573059082,-0.07552620768547058
Amphotericin B,0.07004812359809875,-0.1779198944568634,-0.06246480345726013,0.16114011406898499,0.07185649871826172,0.037001609802246094,0.03855559229850769,-0.013562917709350586,0.11686357855796814,0.1804969310760498,-0.10355819761753082,0.07925602793693542,0.12867039442062378,-0.05175754427909851,0.17396220564842224,-0.12339359521865845,-0.020505458116531372,0.02362653613090515,-0.01699891686439514,0.0808037519454956,-0.0679856538772583,0.0970354974269867,-0.0411759614944458,-0.12743835151195526,-0.036647289991378784,0.04163360595703125,0.12014967203140259,0.043552279472351074,0.06191572546958923,-0.017981939017772675,-0.09196797013282776,0.044800013303756714,-0.4334932565689087,0.12227095663547516,0.07132840156555176,-0.28728511929512024,0.08997052907943726,-0.010965734720230103,0.12008446455001831,0.0695580393075943,-0.11983799934387207,-0.2114797830581665,-0.03503939509391785,0.043013572692871094,-0.02533966302871704,0.06647269427776337,-0.032623499631881714,0.21669724583625793,-0.06508910655975342,-0.13832595944404602,-0.002441883087158203,-0.03116239607334137,-0.16685158014297485,0.016173794865608215,0.06226320564746857,-0.1295178085565567,0.14829620718955994,0.18490077555179596,-0.07129162549972534,0.05299779772758484,0.1712374985218048,-0.06256954371929169,-0.10906520485877991,0.07962242513895035,-0.01183125376701355,0.11407053470611572,-0.08554176986217499,-0.0804777443408966,-0.014093458652496338,0.10869881510734558,0.03897354006767273,-0.0785045325756073,0.19039034843444824,-0.0829731822013855,0.12077240645885468,0.04106515645980835,-0.09673875570297241,0.32505345344543457,0.12097963690757751,-0.0071592777967453,-0.0014802813529968262,-0.04203566908836365,0.1348150372505188,-0.12433648109436035,-0.08144313097000122,-0.06661725044250488,-0.07280614972114563,-0.14215850830078125,0.11935284733772278,-0.13665436208248138,0.056360602378845215,-0.04982525110244751,-0.13831329345703125,0.07656121253967285,-0.08753204345703125,0.11136476695537567,-0.14080703258514404,-0.09501062333583832,-0.01656530797481537,-0.0785629153251648,0.03342375159263611,-0.0741572380065918,0.06266970932483673,-0.08715030550956726,-0.0035555660724639893,0.16789036989212036,-0.03619472682476044,-0.11017802357673645,-0.10946744680404663,-0.02107633650302887,-0.11308366060256958,0.2511678636074066,0.07439254224300385,0.033079326152801514,-0.002369105815887451,-0.018444418907165527,-0.16290752589702606,0.009943097829818726,-0.04898306727409363,0.06681113690137863,-0.461428701877594,0.03741168975830078,-0.12016236782073975,0.05026639997959137,-0.10269483923912048,-0.08807265758514404,-0.01738053560256958,-0.09722202271223068
Ampicillin,0.00366075336933136,-0.0907522439956665,-0.0692242980003357,0.10551361739635468,-0.0042389631271362305,-0.011015534400939941,0.0032464265823364258,-0.011163145303726196,0.011956945061683655,0.035805195569992065,-0.0780671238899231,0.025326550006866455,0.07287818193435669,0.007611572742462158,0.08326222002506256,-0.09197601675987244,0.037296831607818604,0.08873188495635986,-0.04909282922744751,0.018335431814193726,-0.009271711111068726,0.04302692413330078,-0.015679076313972473,-0.04010637104511261,-0.010362416505813599,0.0021255016326904297,0.03291600942611694,-0.01364964246749878,0.02352479100227356,0.04786814749240875,-0.01498982310295105,0.014362305402755737,-2.4175963401794434,-0.0043479204177856445,0.006534695625305176,-0.11343711614608765,0.031706348061561584,0.0465526282787323,0.013940095901489258,0.03976544737815857,-0.07553838193416595,-0.10498285293579102,-0.023569002747535706,0.010115623474121094,0.003402233123779297,0.03870853781700134,0.029277682304382324,0.0981089174747467,-0.05487281084060669,-0.04712820053100586,0.02855706214904785,0.015192881226539612,-0.1018751859664917,0.010650411248207092,0.03879885375499725,-0.05197992920875549,0.07930541038513184,0.10496833920478821,-0.024943262338638306,0.040345028042793274,0.10203151404857635,-0.03974524140357971,-0.016708776354789734,0.018602050840854645,0.06768463551998138,0.04996357858181,0.000893816351890564,-0.014542341232299805,0.039297595620155334,0.04869942367076874,-0.033733636140823364,-0.005292922258377075,0.07587197422981262,-0.04106608033180237,0.020902395248413086,0.034925103187561035,-0.060968294739723206,0.16061186790466309,0.03835247457027435,0.011882200837135315,0.035443320870399475,-0.008200570940971375,0.04815244674682617,-0.0876052975654602,-0.006294906139373779,0.0014044642448425293,-0.011927902698516846,-0.11581964790821075,0.03176070749759674,-0.08857148885726929,-0.015392303466796875,0.05004975199699402,-0.07549700140953064,0.03628748655319214,-0.05039876699447632,0.036664366722106934,-0.06640958786010742,-0.06485393643379211,0.012228652834892273,-0.041715919971466064,0.02085372805595398,-0.021729707717895508,0.025331050157546997,-0.05764138698577881,-0.014554813504219055,0.0853535532951355,-0.044796764850616455,-0.013020753860473633,-0.03358960151672363,0.008014112710952759,-0.027179300785064697,0.1201009750366211,0.0264681875705719,0.024065136909484863,0.04504638910293579,0.0470353364944458,-0.1047268807888031,0.01857800781726837,-0.022381484508514404,0.04802212119102478,0.5125731229782104,0.018319249153137207,-0.0297364741563797,0.013802140951156616,-0.07188892364501953,-0.011336565017700195,0.05128687620162964,-0.04908256232738495
Anidulafungin,-0.011866271495819092,0.07652631402015686,0.05377507209777832,-0.06172836571931839,-0.004145622253417969,0.02843475341796875,-0.010300517082214355,0.039645373821258545,0.004003290086984634,-0.021449238061904907,0.06190113723278046,-0.05565115809440613,-0.040568023920059204,-0.009045690298080444,-0.07814304530620575,0.06206327676773071,-0.023670166730880737,-0.08037734031677246,0.035085320472717285,-0.042672187089920044,0.010142982006072998,-0.04160246253013611,0.041894420981407166,0.03453238308429718,0.004847213625907898,0.010621875524520874,-0.04259771853685379,-0.013156890869140625,-0.03586375713348389,-0.05858027935028076,0.07348743081092834,0.010494709014892578,-0.45091575384140015,-0.009494364261627197,-0.056636616587638855,0.07272471487522125,-0.05150909721851349,-0.007194012403488159,-0.04131928086280823,-0.019654572010040283,0.03199179470539093,0.09554237127304077,0.05270199477672577,0.01788949966430664,0.009526729583740234,-0.02979820966720581,0.0025578588247299194,-0.049133479595184326,0.04708296060562134,0.0324171781539917,0.0015898346900939941,-0.013182088732719421,0.1162254810333252,-0.029201261699199677,-0.05302265286445618,0.04704207181930542,-0.09104782342910767,-0.1030116081237793,0.009426698088645935,-0.02761124074459076,-0.10372287034988403,-0.029438301920890808,0.03861750662326813,-0.05701211094856262,0.004977978765964508,-0.016523689031600952,0.026946507394313812,0.017427951097488403,-0.02389933168888092,-0.0431770458817482,0.053416669368743896,0.007716327905654907,-0.09524768590927124,0.0413837730884552,0.022286981344223022,-0.03091716766357422,0.03695380687713623,-0.10455816984176636,-0.024166464805603027,-0.0023453980684280396,-0.00789700448513031,0.02712787687778473,-0.03917942941188812,0.06117379665374756,-0.012438058853149414,0.013111472129821777,0.007551819086074829,0.09894562512636185,-0.021604791283607483,0.06404855847358704,-0.015031084418296814,-0.023353248834609985,0.05063086748123169,-0.048352837562561035,0.06609752774238586,-0.021956399083137512,0.07683530449867249,0.06174458563327789,0.012240856885910034,0.026928722858428955,-0.017736956477165222,0.03736951947212219,-0.053677141666412354,0.041827887296676636,-0.003415524959564209,-0.038743436336517334,0.05031736195087433,0.046435803174972534,0.04560643434524536,-0.041536182165145874,0.0456293523311615,-0.08796632289886475,-0.008320152759552002,-0.014016449451446533,-0.01576322317123413,-0.024868547916412354,0.06513595581054688,-0.028915822505950928,0.03417584300041199,-0.056553229689598083,-0.3719016909599304,0.0015292167663574219,0.03829595446586609,-0.014850020408630371,0.028157085180282593,-0.018914207816123962,-0.013281255960464478,0.07074408233165741
Azithromycin,0.06068351864814758,-0.2051147222518921,-0.17977368831634521,0.28367897868156433,0.08504313230514526,0.015731334686279297,-0.026022672653198242,-0.04909414052963257,0.03887671232223511,0.14249931275844574,-0.1665206253528595,0.13131821155548096,0.23028099536895752,-0.015062332153320312,0.14770370721817017,-0.19399750232696533,-0.005405902862548828,0.030751347541809082,-0.027485191822052002,0.11858966946601868,-0.06865406036376953,0.12008833885192871,-0.014246314764022827,-0.16613972187042236,-0.023822426795959473,0.08319330215454102,0.0980789065361023,0.032330095767974854,0.006372988224029541,0.04980587959289551,-0.04163235425949097,0.006143689155578613,-2.671431064605713,0.08307218551635742,0.05174887180328369,-0.40815049409866333,0.10385258495807648,-0.00012040138244628906,0.12775665521621704,0.08737164735794067,-0.12386949360370636,-0.3082290291786194,-0.04856143891811371,-0.03150421380996704,-0.06390264630317688,0.07590600848197937,-0.06166672706604004,0.23450994491577148,-0.10554111003875732,-0.10206805169582367,-0.022896766662597656,-0.02177882194519043,-0.25333479046821594,-0.025105968117713928,0.15683569014072418,-0.1719505786895752,0.21753528714179993,0.18799683451652527,-0.04776851832866669,0.08264674246311188,0.24042470753192902,-0.08086280524730682,-0.0752210021018982,0.11418876051902771,0.029174357652664185,0.13010121881961823,-0.07738859951496124,-0.04532858729362488,-0.019934535026550293,0.1423111855983734,-0.006278932094573975,-0.10968363285064697,0.29722797870635986,-0.1078994870185852,0.10973739624023438,0.10654217004776001,-0.1880885362625122,0.3767540752887726,0.12173347175121307,0.0011886805295944214,0.05126333236694336,0.01469162106513977,0.12066526710987091,-0.1781032681465149,-0.10536211729049683,-0.07534980773925781,-0.05534541606903076,-0.2231595665216446,0.15806028246879578,-0.21564573049545288,-0.014371871948242188,0.04435208439826965,-0.22779670357704163,0.07222157716751099,-0.14433640241622925,0.08658111095428467,-0.12558388710021973,-0.09935490787029266,-0.02166762948036194,-0.1216026246547699,0.09312623739242554,-0.05012500286102295,0.13579393923282623,-0.17210271954536438,-0.0694860965013504,0.19596098363399506,-0.06568540632724762,-0.10362449288368225,-0.1462659239768982,-0.0023454129695892334,-0.13350582122802734,0.3692583739757538,0.12481452524662018,0.08062100410461426,0.004603400826454163,-0.046289801597595215,-0.2436704933643341,0.0482504665851593,-0.09139645099639893,0.18126180768013,1.825808048248291,0.09133672714233398,-0.09938684105873108,0.04038837552070618,-0.11074325442314148,-0.09697338938713074,0.045712292194366455,-0.07872043550014496
Aztreonam,-0.0017552226781845093,-0.07897958159446716,-0.050930798053741455,0.06865304708480835,0.02046799659729004,-0.0041114091873168945,0.002698361873626709,-0.0098675936460495,0.055262401700019836,0.07607150077819824,-0.035529494285583496,0.04073655605316162,0.052857160568237305,-0.013801991939544678,0.07088413834571838,-0.06806892156600952,0.0008898377418518066,0.025110363960266113,3.933906555175781e-05,0.02605961263179779,-0.007690489292144775,0.028150737285614014,-0.030570000410079956,-0.05970045179128647,-0.02550162374973297,0.008530944585800171,0.06614309549331665,0.007333278656005859,0.024523884057998657,0.0029791519045829773,-0.032300591468811035,0.012258738279342651,-0.6848281025886536,0.04192599654197693,0.01464909315109253,-0.1432202160358429,0.04228377342224121,0.015937671065330505,0.04889872670173645,0.04880736768245697,-0.030777543783187866,-0.10089388489723206,-0.024548694491386414,0.0031720399856567383,0.005726814270019531,0.027836114168167114,0.03294453024864197,0.12217038869857788,-0.032469868659973145,-0.0562276691198349,0.012807369232177734,0.013393804430961609,-0.07570447027683258,-0.012328371405601501,0.021181032061576843,-0.05483432114124298,0.09511572122573853,0.07955178618431091,-0.014498665928840637,0.03320237994194031,0.06867773830890656,-0.03054848313331604,-0.049236759543418884,0.013078123331069946,0.02936067432165146,0.04287099838256836,-0.04056712985038757,-0.03181636333465576,0.023764312267303467,0.03094254434108734,0.010384872555732727,-0.03445315361022949,0.07799766957759857,-0.030981779098510742,0.046512454748153687,0.015107870101928711,-0.03127020597457886,0.1715981364250183,0.04500551521778107,-0.009376630187034607,0.025701221078634262,-0.010442957282066345,0.07041014730930328,-0.0718766450881958,-0.02972245216369629,-0.018614232540130615,-0.014293640851974487,-0.06880863010883331,0.03537340462207794,-0.07236810028553009,0.007751524448394775,0.026211947202682495,-0.09778141975402832,0.04015636444091797,-0.027333945035934448,0.02926410734653473,-0.061077624559402466,-0.041621968150138855,0.004495065659284592,-0.035107702016830444,0.01856103539466858,-0.014981597661972046,0.02973862737417221,-0.020874738693237305,-0.014763221144676208,0.08695517480373383,-0.009998783469200134,-0.05001860857009888,-0.04184800386428833,0.008699029684066772,-0.04633611440658569,0.1311308890581131,0.026559099555015564,0.009103000164031982,0.020345181226730347,0.022542119026184082,-0.06979392468929291,0.012271352112293243,-0.028943121433258057,0.017043285071849823,-0.8360075354576111,-0.01212531328201294,-0.03678975999355316,0.022034719586372375,-0.059055209159851074,-0.03091339021921158,0.017925173044204712,-0.0323396772146225
Benzylpenicillin,0.030973434448242188,0.0002257823944091797,0.002095639705657959,0.050765618681907654,0.03189420700073242,0.07280313968658447,-0.0008029341697692871,0.006151348352432251,0.01616537570953369,0.0292510986328125,-0.010265618562698364,0.013783276081085205,0.06592109799385071,-0.04576915502548218,0.01795230805873871,-0.040046870708465576,-0.005353331565856934,-0.02367544174194336,0.01029115915298462,-0.027478456497192383,-0.03825122117996216,0.04032105207443237,0.03405606746673584,-0.025815218687057495,0.0022887587547302246,0.06868678331375122,-0.027286216616630554,-0.012021839618682861,-0.006269782781600952,-0.03195199370384216,0.027686983346939087,-0.0051863789558410645,-2.138824462890625,-0.021353691816329956,-0.06106916069984436,-0.07889419794082642,-0.014133960008621216,0.0227968692779541,-0.009919941425323486,-0.0012311041355133057,-0.05042465031147003,-0.052128225564956665,0.047877416014671326,0.009644925594329834,-0.00737568736076355,0.006940722465515137,-0.00974816083908081,0.06190958619117737,0.0012415647506713867,-0.0506339967250824,-0.008412718772888184,0.0012292563915252686,-0.01826685667037964,-0.0023271888494491577,0.019895032048225403,-0.02556973695755005,0.018034696578979492,-0.013472110033035278,-0.013895481824874878,-0.017401188611984253,0.00258471816778183,-0.07396486401557922,0.0127469003200531,0.04374317824840546,0.0096120685338974,0.057445675134658813,0.024906843900680542,-0.02594861388206482,-0.05907091498374939,0.03892810642719269,0.01531440019607544,-0.027088046073913574,0.044442057609558105,-0.01686084270477295,0.05976051092147827,0.02819240093231201,-0.059929803013801575,0.07246416807174683,0.0669672042131424,0.007011875510215759,0.018252432346343994,0.052472054958343506,0.011362984776496887,0.0033672749996185303,-0.017507433891296387,-0.006093084812164307,-0.01597622036933899,-0.002117246389389038,0.0437411367893219,-0.039694249629974365,-0.02265983819961548,-0.019332244992256165,0.01407855749130249,-0.049408555030822754,-0.0022451281547546387,0.008929252624511719,-0.006533265113830566,-0.011825531721115112,-0.027528569102287292,-0.04792463779449463,0.040629178285598755,-0.01400667428970337,0.006638325750827789,-0.04058462381362915,-0.05054581165313721,0.035258352756500244,0.034111157059669495,0.0031119883060455322,-0.04273909330368042,-0.06416460871696472,0.004298150539398193,0.033514603972435,0.015023186802864075,0.02774369716644287,-0.0344487726688385,-0.061440348625183105,-0.07639995217323303,-0.02566956728696823,-0.018203705549240112,0.03204306960105896,1.5563300848007202,0.06999796628952026,-0.013985484838485718,-0.010623306035995483,-0.010730952024459839,-0.050971031188964844,0.04119610786437988,-0.0040595680475234985
Caspofungin,-0.026451945304870605,0.002660512924194336,-0.040328919887542725,0.04824666678905487,-0.01922363042831421,-0.019403457641601562,-0.034231722354888916,-0.002036944031715393,-0.03251845762133598,-0.013461142778396606,-0.009803056716918945,-0.0012776851654052734,0.0033254921436309814,0.05041468143463135,-0.0010689198970794678,-0.020413100719451904,0.0042645931243896484,0.037849098443984985,-0.020234644412994385,-0.001615762710571289,0.009031146764755249,-0.029416292905807495,-0.013688609004020691,0.01601746678352356,-0.008948951959609985,0.006807863712310791,0.00235111266374588,-0.010012030601501465,0.004629641771316528,0.030308306217193604,0.04284489154815674,0.0001252293586730957,-1.3162740468978882,-0.01107102632522583,-0.020747900009155273,-0.01372230052947998,-0.0053506046533584595,0.026155978441238403,-0.02320563793182373,0.027286052703857422,-0.0032240301370620728,-0.012733861804008484,-0.002261511981487274,-0.01595240831375122,0.014172613620758057,-0.009164094924926758,0.03734558820724487,0.008695125579833984,0.0010849535465240479,0.0010732710361480713,0.008895516395568848,-3.0249357223510742e-06,-0.0009929537773132324,-0.02713450789451599,0.006631448864936829,-0.005286067724227905,-0.005036383867263794,0.009234428405761719,-0.0019770562648773193,0.016765952110290527,0.01832766830921173,-0.02361816167831421,0.008873581886291504,-0.049185603857040405,0.0601406991481781,-0.016615688800811768,0.003138124942779541,0.033813685178756714,0.03709292411804199,-0.03162077069282532,0.004193782806396484,0.01859472692012787,-0.0019095838069915771,0.016172558069229126,0.006285220384597778,0.021406829357147217,-0.0012836158275604248,0.029882729053497314,-0.0005948245525360107,0.015707939863204956,0.022795066237449646,0.010116979479789734,4.242360591888428e-05,-0.03431791067123413,0.0013797879219055176,0.027419865131378174,0.01466020941734314,-0.028643861413002014,-0.02391161024570465,-0.030516445636749268,-0.03504607081413269,0.06316469609737396,-0.05202609300613403,-0.009521245956420898,-0.00015157461166381836,-0.015756383538246155,0.010794878005981445,0.005344659090042114,0.03402641415596008,-0.002729743719100952,-0.013129115104675293,0.017438769340515137,-0.010827213525772095,0.0017937719821929932,-0.036691680550575256,0.026793673634529114,-0.007208913564682007,0.01790820062160492,0.0071125030517578125,0.02247217297554016,0.0065194666385650635,0.04467986524105072,0.015111401677131653,-0.008762657642364502,0.036590754985809326,0.04760026931762695,-0.018292956054210663,0.026964500546455383,0.0044460296630859375,0.00881125032901764,0.30636394023895264,-0.006444752216339111,0.028363004326820374,-0.012722909450531006,-0.03326594829559326,0.008049771189689636,0.033599525690078735,0.021707892417907715
Cefazolin,-0.06491410732269287,0.10458576679229736,0.0005109310150146484,-0.04678225517272949,-0.06558495759963989,-0.006843984127044678,-0.049181461334228516,0.02431623637676239,-0.08081913739442825,-0.08849826455116272,0.06228213012218475,-0.05528193712234497,-0.05562010407447815,0.05452001094818115,-0.08723286539316177,0.019602179527282715,0.022520065307617188,0.021676361560821533,-0.0034672021865844727,-0.057847559452056885,0.018836498260498047,-0.0726417601108551,-0.0018310248851776123,0.08814910054206848,0.0014734864234924316,0.016615748405456543,-0.0580521896481514,-0.042173147201538086,-0.02709442377090454,0.033899545669555664,0.1029195785522461,-0.01707279682159424,-1.188080906867981,-0.06411974132061005,-0.08973154425621033,0.09464973211288452,-0.08382628858089447,0.046295031905174255,-0.10484051704406738,-0.027535244822502136,0.06691780686378479,0.0865439921617508,0.0424463152885437,-0.008272051811218262,0.04239004850387573,-0.03652459383010864,0.0724506676197052,-0.06682327389717102,0.031209200620651245,0.06386706233024597,0.0289766788482666,0.033585742115974426,0.11058914661407471,-0.03602638840675354,-0.04495249688625336,0.05956549942493439,-0.05840545892715454,-0.0907428115606308,0.0410885214805603,-0.025590062141418457,-0.09230837225914001,-0.02341020107269287,0.06492830067873001,-0.11162997782230377,0.08839359134435654,-0.06018760800361633,0.06606392562389374,0.06479260325431824,0.04328747093677521,-0.07324029505252838,-0.003842458128929138,0.059314072132110596,-0.11435437202453613,0.06261301040649414,-0.038459524512290955,0.003871142864227295,0.051632776856422424,-0.09294819831848145,-0.03363744169473648,0.007894665002822876,0.043114736676216125,0.052981168031692505,-0.05318951606750488,0.025779902935028076,0.04386770725250244,0.05209922790527344,0.06355807185173035,0.06263770163059235,-0.08997362852096558,0.05110275745391846,-0.07308408617973328,0.058614835143089294,0.03677511215209961,-0.07865434885025024,0.06501924991607666,-0.06375531852245331,0.09372639656066895,0.04884502291679382,0.04025748372077942,0.03713947534561157,-0.024857521057128906,0.057534605264663696,-0.06103447079658508,0.07260644435882568,-0.034394219517707825,-0.0450812429189682,0.03171844780445099,0.08292685449123383,0.0587618350982666,0.01653081178665161,0.05725410580635071,-0.060677528381347656,-0.016620904207229614,-0.03637424111366272,0.04068821668624878,0.052359580993652344,0.05329646170139313,0.014277264475822449,0.009437352418899536,-0.049624308943748474,0.6332288980484009,-0.03669559955596924,0.07724273204803467,-0.047892600297927856,0.009850740432739258,0.03345257043838501,0.04123780131340027,0.09176191687583923
Cefepime,0.07999703288078308,-0.1234046220779419,-0.0579259991645813,0.1395394653081894,0.059873759746551514,0.06556427478790283,-0.013011902570724487,-0.004584968090057373,0.07180097699165344,0.10658982396125793,-0.06723570823669434,0.08701658248901367,0.11708852648735046,-0.04281061887741089,0.0973532646894455,-0.0781116783618927,-0.01796722412109375,0.028521686792373657,0.010721057653427124,0.03812010586261749,-0.06203824281692505,0.07135677337646484,0.011242687702178955,-0.08981123566627502,-0.02982252836227417,0.047844886779785156,0.03797362744808197,0.020616471767425537,0.02433350682258606,0.000970110297203064,-0.03889539837837219,0.007823348045349121,-1.9102537631988525,0.028084158897399902,0.008496284484863281,-0.21194487810134888,0.059246525168418884,-0.0014053285121917725,0.0694061815738678,0.026846617460250854,-0.08459299802780151,-0.1786080151796341,-0.0201825350522995,0.01326906681060791,-0.023092985153198242,0.04507879912853241,-0.018626511096954346,0.12466470897197723,-0.04876291751861572,-0.10808050632476807,-0.0009609460830688477,-0.02008703351020813,-0.12145090103149414,0.007803365588188171,0.07316459715366364,-0.0732976496219635,0.10798156261444092,0.09477847814559937,-0.03586772084236145,0.04323868453502655,0.12256559729576111,-0.07587233185768127,-0.04229927062988281,0.07358431816101074,-0.010320618748664856,0.08846437931060791,-0.021152108907699585,-0.025594741106033325,-0.03487470746040344,0.09090591967105865,0.0029313862323760986,-0.04049795866012573,0.16169720888137817,-0.035407766699790955,0.07960426807403564,0.062109410762786865,-0.10183095932006836,0.24013537168502808,0.10390877723693848,-0.015614837408065796,0.025852203369140625,0.01930662989616394,0.07756707072257996,-0.08292251825332642,-0.05733346939086914,-0.040333092212677,-0.04404968023300171,-0.11674714088439941,0.1126416027545929,-0.11850613355636597,0.008365392684936523,-0.03181849420070648,-0.09878352284431458,0.026065349578857422,-0.08053451776504517,0.05386626720428467,-0.0833863615989685,-0.034296512603759766,-0.021004080772399902,-0.07246033847332001,0.058762162923812866,-0.05707162618637085,0.06257607042789459,-0.0848495364189148,-0.025682464241981506,0.10788321495056152,-0.01752437651157379,-0.058989524841308594,-0.10432732105255127,-0.0436573326587677,-0.07420742511749268,0.14945712685585022,0.06686453521251678,0.04389721155166626,0.009480416774749756,-0.03683304786682129,-0.130228191614151,3.395974636077881e-05,-0.02990671992301941,0.049715250730514526,1.6227984428405762,0.06346368789672852,-0.07072499394416809,0.05016970634460449,-0.07858240604400635,-0.06053680181503296,0.018521159887313843,-0.04945245385169983
Cefixime,0.028669238090515137,-0.158655047416687,-0.10504341125488281,0.16554205119609833,0.04590839147567749,-0.022496163845062256,0.006873130798339844,-0.0318567156791687,0.057446856051683426,0.11495691537857056,-0.10228849947452545,0.0712963342666626,0.12110568583011627,-0.0009438991546630859,0.14542156457901,-0.10900777578353882,-0.0004425644874572754,0.06714478135108948,-0.04590091109275818,0.061860308051109314,-0.04216614365577698,0.0629124641418457,-0.04335677623748779,-0.08493740856647491,-0.02429378032684326,0.014346778392791748,0.08082854747772217,0.027632474899291992,0.046647340059280396,0.027778930962085724,-0.05483567714691162,0.03172159194946289,-1.474340558052063,0.07186466455459595,0.05556291341781616,-0.22747814655303955,0.06592145562171936,0.032787472009658813,0.07425189018249512,0.07281133532524109,-0.11012233793735504,-0.19340670108795166,-0.03924250602722168,0.01205676794052124,-0.012046128511428833,0.060372382402420044,0.0013713240623474121,0.15363609790802002,-0.07546037435531616,-0.0836416482925415,0.003686845302581787,-0.007616817951202393,-0.1713181436061859,0.00937044620513916,0.07489554584026337,-0.10428236424922943,0.1318061351776123,0.1707492172718048,-0.05168144404888153,0.05773147940635681,0.17236559092998505,-0.04377889633178711,-0.06756182014942169,0.04687396436929703,0.02785526216030121,0.08666691184043884,-0.05801914632320404,-0.04527777433395386,0.02156659960746765,0.06366503238677979,0.006444394588470459,-0.035718291997909546,0.1579737663269043,-0.06436628103256226,0.07250699400901794,0.046484410762786865,-0.08389972150325775,0.2788638472557068,0.07682758569717407,0.014212459325790405,0.024177730083465576,-0.044902533292770386,0.10820060968399048,-0.1479588747024536,-0.04203540086746216,-0.02324676513671875,-0.0424494743347168,-0.15908262133598328,0.07514767348766327,-0.13757425546646118,0.015502482652664185,0.016252756118774414,-0.15106666088104248,0.07340174913406372,-0.08034086227416992,0.07233652472496033,-0.101816326379776,-0.08282455801963806,0.006176397204399109,-0.06751301884651184,0.03150060772895813,-0.05323535203933716,0.050777360796928406,-0.07937997579574585,-0.022142857313156128,0.14372102916240692,-0.053715780377388,-0.08467212319374084,-0.08514821529388428,0.016771167516708374,-0.08310890197753906,0.22843673825263977,0.05780598521232605,0.03706628084182739,0.028412818908691406,0.0447043776512146,-0.1450202465057373,0.01729518175125122,-0.04049822688102722,0.08192436397075653,0.3406261205673218,0.02856922149658203,-0.07029671967029572,0.042909175157547,-0.10638809204101562,-0.04382069408893585,0.021681934595108032,-0.07993271946907043
Cefotaxime,0.029911011457443237,-0.1030009388923645,-0.06574958562850952,0.11548872292041779,0.03618139028549194,-0.004232347011566162,-0.0029106438159942627,-0.026106923818588257,0.04706669971346855,0.06419959664344788,-0.0584091991186142,0.044330209493637085,0.09126538038253784,0.0024116039276123047,0.08408468961715698,-0.0714394748210907,0.000603020191192627,0.036349326372146606,-0.031040549278259277,0.050717681646347046,-0.028865307569503784,0.03882741928100586,-0.027792423963546753,-0.05645689368247986,-0.02531936764717102,0.02208787202835083,0.04597100615501404,0.01700770854949951,0.03850281238555908,0.01403605192899704,-0.02557051181793213,0.022946834564208984,-0.9544035196304321,0.05256381630897522,0.027013421058654785,-0.15367138385772705,0.03986355662345886,0.012467026710510254,0.05169665813446045,0.06707930564880371,-0.07942213118076324,-0.1254533976316452,-0.0267258882522583,-0.002031266689300537,-0.007138609886169434,0.03038632869720459,-0.002353966236114502,0.0996081531047821,-0.04219621419906616,-0.059292495250701904,-0.01809924840927124,-0.0157356858253479,-0.10455819964408875,-0.004453524947166443,0.051427170634269714,-0.061047255992889404,0.07241839170455933,0.10970720648765564,-0.04318460822105408,0.03346092998981476,0.10201641917228699,-0.041269272565841675,-0.04684083163738251,0.025530867278575897,0.016266390681266785,0.06050005555152893,-0.04583504796028137,-0.026980459690093994,0.005473211407661438,0.0312269926071167,0.013811066746711731,-0.017932415008544922,0.11406537890434265,-0.04032851755619049,0.06001242995262146,0.024046480655670166,-0.05232325196266174,0.16867661476135254,0.04836699366569519,0.004024341702461243,0.013103663921356201,-0.03236398100852966,0.07172265648841858,-0.09434548020362854,-0.038001418113708496,-0.015346825122833252,-0.032746970653533936,-0.0886523425579071,0.04978667199611664,-0.10485410690307617,0.0014918148517608643,0.019140511751174927,-0.1160154938697815,0.045952677726745605,-0.06559789180755615,0.03922349214553833,-0.061679720878601074,-0.046188339591026306,0.0030650347471237183,-0.05465063452720642,0.018799901008605957,-0.03087550401687622,0.03818536177277565,-0.06719228625297546,-0.027192115783691406,0.0943918377161026,-0.03731900453567505,-0.040633320808410645,-0.0531916618347168,0.0061522722244262695,-0.0597510039806366,0.15752600133419037,0.04891446232795715,0.02650955319404602,0.013023540377616882,0.022410035133361816,-0.10549702495336533,0.004720762372016907,-0.01702141761779785,0.05985592305660248,0.6029918193817139,0.025504112243652344,-0.0375354140996933,0.026342809200286865,-0.0763547420501709,-0.030764177441596985,0.01803058385848999,-0.04535815119743347
Cefoxitin,0.05088615417480469,-0.2634879946708679,-0.20808029174804688,0.3244873285293579,0.09329408407211304,0.00025385618209838867,-0.027605444192886353,-0.07540968060493469,0.03355126082897186,0.15020518004894257,-0.2035982459783554,0.15463542938232422,0.2634415030479431,-0.0008774995803833008,0.17541155219078064,-0.2347698211669922,-0.0006850361824035645,0.05620741844177246,-0.052438199520111084,0.12306980788707733,-0.07786524295806885,0.13546079397201538,-0.02709108591079712,-0.19112813472747803,-0.03181764483451843,0.08221304416656494,0.13278105854988098,0.053853511810302734,0.013899147510528564,0.08911068737506866,-0.07225912809371948,0.01394963264465332,-2.623861789703369,0.09827882051467896,0.07838693261146545,-0.46085065603256226,0.12100040912628174,-0.00915779173374176,0.1560177206993103,0.09805461764335632,-0.13666510581970215,-0.3636897802352905,-0.0668664276599884,-0.03797328472137451,-0.0666227638721466,0.08944627642631531,-0.05917525291442871,0.2510300874710083,-0.12564444541931152,-0.10260564088821411,-0.02282893657684326,-0.017977774143218994,-0.31224536895751953,-0.017078205943107605,0.1637456864118576,-0.19905522465705872,0.2741318941116333,0.24778038263320923,-0.05143935978412628,0.10402536392211914,0.2893425226211548,-0.05656421184539795,-0.10162517428398132,0.11935895681381226,0.04929995536804199,0.13589179515838623,-0.08943600952625275,-0.05878651142120361,-0.012067258358001709,0.15854769945144653,-0.011866837739944458,-0.11430925130844116,0.334202378988266,-0.1202000081539154,0.11933565139770508,0.12716591358184814,-0.210940420627594,0.45650413632392883,0.14668577909469604,-0.007708221673965454,0.06753885746002197,0.012478828430175781,0.15374474227428436,-0.21811652183532715,-0.11817699670791626,-0.08916336297988892,-0.050888895988464355,-0.27230313420295715,0.1726740002632141,-0.2425706386566162,0.002597987651824951,0.05682419240474701,-0.28016993403434753,0.0957598090171814,-0.1696380376815796,0.09798133373260498,-0.15334367752075195,-0.11995388567447662,-0.024442851543426514,-0.13263064622879028,0.09431323409080505,-0.06740444898605347,0.14913338422775269,-0.18577784299850464,-0.07468864321708679,0.23091907799243927,-0.09008999168872833,-0.1329134702682495,-0.15942656993865967,0.02775248885154724,-0.16757410764694214,0.4288734197616577,0.12638917565345764,0.08823150396347046,0.02526506781578064,-0.03220856189727783,-0.26864859461784363,0.06344486773014069,-0.11494855582714081,0.2055255025625229,1.862684965133667,0.08123898506164551,-0.12887069582939148,0.06516611576080322,-0.13042256236076355,-0.09585556387901306,0.051641881465911865,-0.09857472777366638
Cefpodoxime,0.08236581087112427,-0.1894155740737915,-0.07136428356170654,0.17841273546218872,0.08093255758285522,0.03053194284439087,0.044606924057006836,-0.01824173331260681,0.1230032816529274,0.18982937932014465,-0.11764955520629883,0.0837256908416748,0.1456015408039093,-0.05293184518814087,0.18924550712108612,-0.13238200545310974,-0.03002128005027771,0.015119612216949463,-0.015527874231338501,0.08896993100643158,-0.07786175608634949,0.10220253467559814,-0.053241074085235596,-0.1337573081254959,-0.0244780033826828,0.05102664232254028,0.13337072730064392,0.05464214086532593,0.06688019633293152,-0.01943545788526535,-0.09378233551979065,0.04704844951629639,-0.37203508615493774,0.13123589754104614,0.08003109693527222,-0.3087066411972046,0.10055810213088989,-0.012475833296775818,0.12926605343818665,0.075762078166008,-0.12926992774009705,-0.23299327492713928,-0.03914107382297516,0.05111825466156006,-0.032184600830078125,0.0717429667711258,-0.047754690051078796,0.22527888417243958,-0.07205590605735779,-0.15256938338279724,-0.006872832775115967,-0.04346586763858795,-0.18152129650115967,0.00671357661485672,0.07698257267475128,-0.13581767678260803,0.15253916382789612,0.19480374455451965,-0.08886444568634033,0.058192864060401917,0.18091526627540588,-0.061887070536613464,-0.11655573546886444,0.08852174133062363,-0.0220847949385643,0.12576983869075775,-0.09910028427839279,-0.08675423264503479,-0.01988677680492401,0.11694236099720001,0.05370458960533142,-0.0785464346408844,0.2161388099193573,-0.08867771923542023,0.13237303495407104,0.050718843936920166,-0.10742330551147461,0.35138118267059326,0.1260184347629547,-0.006046518683433533,-0.008461415767669678,-0.0452757328748703,0.14521485567092896,-0.14367616176605225,-0.09238749742507935,-0.07674163579940796,-0.08616963028907776,-0.1542045623064041,0.13482551276683807,-0.15484550595283508,0.05896715819835663,-0.05189371109008789,-0.16136717796325684,0.08161544799804688,-0.10554248094558716,0.11522401869297028,-0.14685869216918945,-0.099162757396698,-0.016813650727272034,-0.08752375841140747,0.0467090904712677,-0.08389952778816223,0.06459201872348785,-0.09945595264434814,-0.011034846305847168,0.1815914362668991,-0.04487869143486023,-0.12238584458827972,-0.1239922046661377,-0.021015971899032593,-0.12690004706382751,0.28132861852645874,0.07465246319770813,0.0401671826839447,-0.00866273045539856,-0.023839592933654785,-0.18532060086727142,0.008800432085990906,-0.05266030132770538,0.0793408751487732,-0.2631817162036896,0.04029363393783569,-0.11979129910469055,0.05347156524658203,-0.11630350351333618,-0.09644313156604767,-0.02635014057159424,-0.10967006534337997
Ceftazidime,-0.07703962922096252,0.2090296745300293,0.07911995053291321,-0.14329582452774048,-0.07765531539916992,-0.01985490322113037,-0.03984060883522034,0.0609394907951355,-0.09926111251115799,-0.16132965683937073,0.12642017006874084,-0.12186163663864136,-0.11779704689979553,0.0318031907081604,-0.1862957775592804,0.10820496082305908,0.017987370491027832,-0.05049440264701843,0.032973289489746094,-0.1226341724395752,0.04721403121948242,-0.1252484917640686,0.049343228340148926,0.14059118926525116,0.03987887501716614,-0.008188009262084961,-0.12593887746334076,-0.06177884340286255,-0.06994348764419556,-0.012319490313529968,0.16176031529903412,-0.030436694622039795,-1.4991397857666016,-0.11019283533096313,-0.15664464235305786,0.24062232673168182,-0.14665532112121582,0.049643874168395996,-0.16299167275428772,-0.07772690057754517,0.11532791703939438,0.233378604054451,0.07745950669050217,0.006291329860687256,0.0614703893661499,-0.049854159355163574,0.06805679202079773,-0.17061284184455872,0.0854463279247284,0.12007558345794678,0.031558096408843994,0.03853358328342438,0.23982900381088257,-0.02973318099975586,-0.10491955280303955,0.1417209804058075,-0.17482233047485352,-0.21522709727287292,0.061306774616241455,-0.07295924425125122,-0.2260836362838745,-0.012356355786323547,0.11395832151174545,-0.1550932675600052,0.07336994260549545,-0.08421549201011658,0.09522593021392822,0.07514050602912903,0.020610779523849487,-0.11354152858257294,0.009915128350257874,0.07824106514453888,-0.23658505082130432,0.11391015350818634,-0.08254630863666534,-0.033255577087402344,0.1009344756603241,-0.27395161986351013,-0.09276489168405533,0.012856319546699524,0.016955286264419556,0.0731925368309021,-0.1273566633462906,0.11496108770370483,0.05613827705383301,0.0669897198677063,0.08165973424911499,0.173464834690094,-0.1304745227098465,0.12905168533325195,-0.09542608261108398,0.03553330898284912,0.1341325044631958,-0.12570452690124512,0.14143389463424683,-0.10832946002483368,0.17948481440544128,0.11568695306777954,0.042882040143013,0.07577627897262573,-0.028766125440597534,0.09615379571914673,-0.12443667650222778,0.11910563707351685,-0.010439053177833557,-0.14220234751701355,0.06431107223033905,0.15268266201019287,0.11655169725418091,-0.01944422721862793,0.12937891483306885,-0.2297050803899765,-0.06349346041679382,-0.03107994794845581,0.01810210943222046,0.03292691707611084,0.14830251038074493,-0.0205392986536026,0.07596394419670105,-0.09245724976062775,0.5054608583450317,-0.033065974712371826,0.13135462999343872,-0.060657232999801636,0.06966087222099304,0.04388757050037384,0.019907891750335693,0.15255588293075562
Ceftobiprole,0.05155360698699951,-0.16221332550048828,-0.10621374845504761,0.18837760388851166,0.058387815952301025,0.020565271377563477,-0.001171886920928955,-0.05900213122367859,0.03366468474268913,0.08998444676399231,-0.11700236797332764,0.10046613216400146,0.1612582802772522,-0.021732687950134277,0.13279983401298523,-0.15080121159553528,-0.0034491419792175293,0.07089117169380188,-0.04620015621185303,0.06817926466464996,-0.06352412700653076,0.0985826849937439,-0.021136552095413208,-0.10644513368606567,-0.0346778929233551,0.046663761138916016,0.06562539935112,0.03551018238067627,0.035439372062683105,0.04392269253730774,-0.055769771337509155,0.005919337272644043,-1.7311229705810547,0.046481162309646606,0.04654771089553833,-0.2564343512058258,0.08735767006874084,0.011128425598144531,0.09613454341888428,0.07117053866386414,-0.12608854472637177,-0.2231847494840622,-0.03488941490650177,-0.015334248542785645,-0.03986486792564392,0.04159177839756012,-0.023137211799621582,0.15639302134513855,-0.09119951725006104,-0.11642707884311676,-0.019266963005065918,-0.01909804344177246,-0.18697980046272278,-0.006738215684890747,0.09551255404949188,-0.10858991742134094,0.17691254615783691,0.15285348892211914,-0.0425124317407608,0.056517139077186584,0.1671438217163086,-0.06126904487609863,-0.07708516716957092,0.0879201591014862,0.025024667382240295,0.07592923939228058,-0.04735848307609558,-0.04320216178894043,-0.009058535099029541,0.09985160827636719,-0.00498509407043457,-0.04969942569732666,0.2000046968460083,-0.07940000295639038,0.08751219511032104,0.07371389865875244,-0.10889051854610443,0.30463218688964844,0.11200910806655884,-0.023959219455718994,0.02328568696975708,0.0028110742568969727,0.09999696910381317,-0.13023412227630615,-0.06240123510360718,-0.04416549205780029,-0.032533615827560425,-0.1573963165283203,0.0924120843410492,-0.16774922609329224,-0.011835992336273193,0.035756438970565796,-0.1742836833000183,0.048348188400268555,-0.10994541645050049,0.06871730089187622,-0.11306107044219971,-0.07137554883956909,-0.03445371985435486,-0.10526223480701447,0.0622425377368927,-0.07210922241210938,0.09297190606594086,-0.13034752011299133,-0.05038923770189285,0.14418922364711761,-0.04249158501625061,-0.059988439083099365,-0.11208891868591309,-0.0047345757484436035,-0.11104154586791992,0.2485959231853485,0.07288792729377747,0.05719345808029175,0.003716692328453064,-0.015272021293640137,-0.1801047921180725,0.01766251027584076,-0.06041949987411499,0.09876012802124023,1.6636518239974976,0.04264473915100098,-0.07579055428504944,0.0440654456615448,-0.10529693961143494,-0.06406816840171814,0.042757779359817505,-0.06220370531082153
Ceftriaxone,0.07829731702804565,-0.20930802822113037,-0.11388063430786133,0.2529922425746918,0.06328856945037842,0.03671175241470337,0.007000267505645752,-0.030629456043243408,0.061254650354385376,0.18504086136817932,-0.14953507483005524,0.1186363697052002,0.20239520072937012,-0.05086779594421387,0.2238164246082306,-0.16320408880710602,0.030444860458374023,0.034585803747177124,-0.038375020027160645,0.12987256050109863,-0.08861047029495239,0.13166356086730957,-0.05147308111190796,-0.15312248468399048,-0.0315416157245636,0.0562518835067749,0.11318542063236237,0.05140560865402222,0.03271758556365967,0.04098442196846008,-0.09083983302116394,0.0245627760887146,-2.0889928340911865,0.1456291675567627,0.07175526022911072,-0.3973664939403534,0.11110760271549225,0.03089967370033264,0.1363968849182129,0.07625311613082886,-0.14212359488010406,-0.28693580627441406,-0.01636873185634613,0.04335606098175049,-0.06710243225097656,0.08486422896385193,-0.04829573631286621,0.2462056279182434,-0.12518274784088135,-0.13975387811660767,-0.019727706909179688,-0.00496065616607666,-0.23014459013938904,0.0410505086183548,0.14581474661827087,-0.16376283764839172,0.2213001847267151,0.2164897322654724,-0.032310619950294495,0.05990123748779297,0.2007523477077484,-0.0718233585357666,-0.11175605654716492,0.06636005640029907,-0.002099752426147461,0.13715633749961853,-0.1032094657421112,-0.07570996880531311,-0.004829466342926025,0.15100917220115662,-0.012431412935256958,-0.11798292398452759,0.25579923391342163,-0.13147172331809998,0.13149160146713257,0.10318607091903687,-0.11644554138183594,0.3892570734024048,0.13156086206436157,-0.014846250414848328,0.0533730685710907,-0.007301926612854004,0.13904327154159546,-0.1447291076183319,-0.07715529203414917,-0.08118069171905518,-0.047979116439819336,-0.22551178932189941,0.1339678168296814,-0.18695825338363647,0.0011229515075683594,-0.029965192079544067,-0.15351688861846924,0.09419426321983337,-0.144112229347229,0.1190081238746643,-0.14295777678489685,-0.0912325531244278,-0.01553654670715332,-0.08002622425556183,0.09685814380645752,-0.039328575134277344,0.1058998703956604,-0.13519474864006042,-0.03234343230724335,0.20564629137516022,-0.036099791526794434,-0.13233691453933716,-0.1197887659072876,-0.02286607027053833,-0.16764074563980103,0.32549524307250977,0.11248531937599182,0.04859817028045654,0.01938539743423462,-0.03749895095825195,-0.21130087971687317,0.01733306050300598,-0.06966863572597504,0.1284523606300354,2.27364444732666,0.06411093473434448,-0.15791967511177063,0.06267380714416504,-0.13934284448623657,-0.11505287885665894,0.023157864809036255,-0.09575185179710388
Cefuroxime,0.006348758935928345,-0.045426368713378906,-0.060795485973358154,0.08060328662395477,-0.0012540221214294434,-0.005356699228286743,-0.021466106176376343,-0.011906534433364868,-0.003437776118516922,0.040377259254455566,-0.03725197911262512,0.025187671184539795,0.03702393174171448,0.04273870587348938,0.04676640033721924,-0.049463629722595215,-0.01004248857498169,0.03982585668563843,-0.029400616884231567,0.041131362318992615,-0.01519802212715149,-0.00013238191604614258,-0.029709309339523315,-0.01934891939163208,-0.01676464080810547,0.016807526350021362,0.03383072465658188,0.011577606201171875,0.014573395252227783,0.029901176691055298,-0.00039264559745788574,0.017038017511367798,-0.7078619003295898,0.029672428965568542,0.018613189458847046,-0.08285361528396606,0.03144185245037079,0.009549900889396667,0.01453399658203125,0.03679594397544861,-0.03297463059425354,-0.08312998712062836,-0.011411719024181366,-0.0015339255332946777,-0.00045245885848999023,0.0049425214529037476,0.010647118091583252,0.06031760573387146,-0.035591959953308105,-0.03550294041633606,0.0015848278999328613,-0.00949220359325409,-0.056742459535598755,-0.03797870874404907,0.03554828464984894,-0.034715116024017334,0.04335629940032959,0.06741133332252502,-0.029145628213882446,0.035504817962646484,0.07499091327190399,-0.03333738446235657,-0.017299219965934753,-0.009829968214035034,0.04366128146648407,0.009743034839630127,-0.019786030054092407,0.014500021934509277,0.024177134037017822,0.0040721595287323,0.0162983238697052,0.003970474004745483,0.06065216660499573,-0.00879506766796112,0.04389199614524841,0.03131371736526489,-0.03429776430130005,0.11349219083786011,0.03242925554513931,0.01040203869342804,0.019593656063079834,-0.0022247135639190674,0.0396946519613266,-0.07836157083511353,-0.02174478769302368,-0.004031777381896973,-0.008060097694396973,-0.0634976401925087,0.015985995531082153,-0.06676754355430603,-0.012176096439361572,0.042687416076660156,-0.09045672416687012,0.0205879807472229,-0.03633272647857666,0.01168796420097351,-0.0398295521736145,-0.018973439931869507,0.022668883204460144,-0.02961602807044983,0.0013939738273620605,-0.00791078805923462,0.009818825870752335,-0.024070829153060913,-0.03872966766357422,0.07267412543296814,-0.019756868481636047,-0.02530837059020996,-0.025743961334228516,0.02310428023338318,-0.041068822145462036,0.10648641735315323,0.03658820688724518,-0.004139304161071777,0.0294913649559021,0.029869496822357178,-0.0645388513803482,0.025234617292881012,-0.019106656312942505,0.020834535360336304,0.09373286366462708,-0.004546463489532471,-0.007448911666870117,0.01131923496723175,-0.06305316090583801,-0.015519320964813232,0.022439956665039062,-0.011552676558494568
Chloramphenicol,0.05474773049354553,-0.1954748034477234,-0.09621495008468628,0.1905249059200287,0.06947869062423706,0.0022110044956207275,0.0033681094646453857,-0.03766371309757233,0.0744297131896019,0.12823569774627686,-0.11714330315589905,0.08772528171539307,0.1649894416332245,-0.032644122838974,0.1582982838153839,-0.12979286909103394,0.0024976730346679688,0.07072535157203674,-0.04792734980583191,0.0633329451084137,-0.06886819005012512,0.09947729110717773,-0.040637388825416565,-0.09913188219070435,-0.029405176639556885,0.02447211742401123,0.07011808454990387,0.023251891136169434,0.05006539821624756,0.034753814339637756,-0.07649710774421692,0.043720901012420654,-1.91517972946167,0.07370808720588684,0.05662316083908081,-0.2521207928657532,0.09159080684185028,0.00893394649028778,0.08879727125167847,0.07062113285064697,-0.14344285428524017,-0.22501957416534424,-0.03803062438964844,0.020701050758361816,-0.022697150707244873,0.06935042142868042,-0.006220787763595581,0.18006256222724915,-0.08613944053649902,-0.10778480768203735,-0.0031561851501464844,-0.007847309112548828,-0.19628271460533142,0.0249282568693161,0.08277972042560577,-0.12130075693130493,0.14914512634277344,0.18754249811172485,-0.057391345500946045,0.05943824350833893,0.19909408688545227,-0.06478741765022278,-0.07783731818199158,0.07174214720726013,0.028012260794639587,0.11210997402667999,-0.04661540687084198,-0.06162634491920471,0.025117337703704834,0.0963582992553711,0.005891397595405579,-0.05090075731277466,0.2005751132965088,-0.07971854507923126,0.0933309942483902,0.057533442974090576,-0.11335040628910065,0.3275206685066223,0.09365987777709961,-7.446110248565674e-05,0.0357479602098465,-0.047216832637786865,0.13708513975143433,-0.16445493698120117,-0.05321073532104492,-0.03653484582901001,-0.047354161739349365,-0.18999412655830383,0.09533338248729706,-0.15979519486427307,0.031242340803146362,0.00284421443939209,-0.15768417716026306,0.0887652039527893,-0.10762369632720947,0.08062148094177246,-0.12295132875442505,-0.08211417496204376,-0.008761778473854065,-0.08467930555343628,0.04946818947792053,-0.07132399082183838,0.06878836452960968,-0.1068568229675293,-0.011712536215782166,0.16720174252986908,-0.06391105055809021,-0.08210840821266174,-0.09997725486755371,-0.011772960424423218,-0.09363985061645508,0.23242996633052826,0.06875893473625183,0.06302410364151001,0.028413504362106323,0.034427762031555176,-0.18083015084266663,6.780773401260376e-05,-0.042353302240371704,0.09386232495307922,0.732846200466156,0.051991045475006104,-0.09177890419960022,0.06148090958595276,-0.1252424418926239,-0.055293008685112,0.026506006717681885,-0.08908127248287201
Ciprofloxacin,0.061143457889556885,-0.10627004504203796,-0.037085533142089844,0.09093859791755676,0.061378657817840576,0.01742464303970337,0.030678927898406982,-0.014554440975189209,0.07393099367618561,0.09927934408187866,-0.06709744036197662,0.048330098390579224,0.09564581513404846,-0.04468056559562683,0.09181468933820724,-0.059792786836624146,-0.008872807025909424,-0.009081542491912842,-0.01809936761856079,0.05229414999485016,-0.04565045237541199,0.06005200743675232,-0.02264806628227234,-0.07052747905254364,-0.00592687726020813,0.031865060329437256,0.06806176900863647,0.025663375854492188,0.028478682041168213,-0.0194636732339859,-0.041336894035339355,0.03054267168045044,-0.49782121181488037,0.07035073637962341,0.027904868125915527,-0.17853105068206787,0.041208699345588684,0.006833404302597046,0.06744879484176636,0.04483465850353241,-0.09196838736534119,-0.1341073364019394,-0.009840086102485657,0.034043192863464355,-0.019484996795654297,0.04979029297828674,-0.03335082530975342,0.10802760720252991,-0.04715234041213989,-0.088409423828125,-0.015080392360687256,-0.029244303703308105,-0.10003945231437683,0.01597130298614502,0.04890507459640503,-0.07367640733718872,0.07460740208625793,0.11051028966903687,-0.05774226784706116,0.03045649826526642,0.10965707898139954,-0.05769053101539612,-0.05626532435417175,0.05432785302400589,-0.03168428689241409,0.08343532681465149,-0.05378318578004837,-0.054205745458602905,-0.009678930044174194,0.056983307003974915,0.04526251554489136,-0.0429939329624176,0.11355581879615784,-0.049203649163246155,0.0929526686668396,0.0255889892578125,-0.0607965886592865,0.19588273763656616,0.06469298154115677,-0.0006770193576812744,-0.007443338632583618,-0.03978854417800903,0.07447461783885956,-0.09221670031547546,-0.04806870222091675,-0.02916133403778076,-0.06209573149681091,-0.08864373713731766,0.08191221952438354,-0.09476608037948608,0.024783670902252197,-0.03692170977592468,-0.09027370810508728,0.034505486488342285,-0.06484276056289673,0.0742204338312149,-0.06090560555458069,-0.053047895431518555,-0.012016668915748596,-0.05866193771362305,0.036328643560409546,-0.05446687340736389,0.024433843791484833,-0.06714189052581787,-0.0156145840883255,0.10958535969257355,-0.01567050814628601,-0.06300251185894012,-0.07142996788024902,-0.027322590351104736,-0.05826440453529358,0.1473475694656372,0.03134465217590332,0.0328214168548584,-0.015573620796203613,-0.03282958269119263,-0.11741149425506592,-0.017574936151504517,-0.016650021076202393,0.05502718687057495,0.28803151845932007,0.03989613056182861,-0.056660234928131104,0.025080904364585876,-0.06861412525177002,-0.07601530849933624,-0.021311014890670776,-0.07496774941682816
Clarithromycin,-0.010871201753616333,0.19424277544021606,0.12133899331092834,-0.15459275245666504,-0.02095937728881836,0.06673130393028259,-0.028785347938537598,0.05396980047225952,-0.014220982789993286,-0.08121851086616516,0.13484123349189758,-0.09406396746635437,-0.11116480827331543,-0.007030487060546875,-0.15561114251613617,0.12692075967788696,-0.01988959312438965,-0.11321161687374115,0.0501018762588501,-0.09132064878940582,0.01833629608154297,-0.07706385850906372,0.08732539415359497,0.09313453733921051,0.019091010093688965,0.04674333333969116,-0.11031778156757355,-0.06029236316680908,-0.04438289999961853,-0.07050088047981262,0.11576545238494873,-0.011150598526000977,-0.2685357928276062,-0.0622941255569458,-0.1379423439502716,0.2170330286026001,-0.09531217813491821,-0.02119646966457367,-0.11379119753837585,-0.07082600891590118,0.06600120663642883,0.2150510847568512,0.11280262470245361,0.011107206344604492,0.02125263214111328,-0.06425970792770386,0.030079185962677002,-0.1275811493396759,0.10141193866729736,0.043329447507858276,-0.018430888652801514,0.005121707916259766,0.21514269709587097,-0.003937274217605591,-0.09962427616119385,0.09197002649307251,-0.17761927843093872,-0.2068897932767868,0.027414172887802124,-0.07857567071914673,-0.19908326864242554,-0.04157525300979614,0.0776406079530716,-0.09955821931362152,-0.00347939133644104,-0.04228520393371582,0.06364482641220093,0.04972520470619202,-0.0289047509431839,-0.08176247030496597,0.06844377517700195,0.038104504346847534,-0.1813054084777832,0.09770934283733368,0.008876040577888489,-0.023225069046020508,0.08737528324127197,-0.2740144729614258,-0.043914057314395905,-0.003675311803817749,-0.012051567435264587,0.0557820200920105,-0.09421205520629883,0.15891551971435547,0.04414808750152588,0.05093258619308472,0.04660975933074951,0.19377851486206055,-0.09272627532482147,0.14131653308868408,-0.021052688360214233,-0.028179556131362915,0.18181675672531128,-0.11618155241012573,0.11601477861404419,-0.05551818013191223,0.14260151982307434,0.09461791813373566,0.030124038457870483,0.07405051589012146,-0.026424914598464966,0.08844181895256042,-0.08374421298503876,0.07195913791656494,-0.01831871271133423,-0.09850203990936279,0.09650181233882904,0.11357346177101135,0.09344244003295898,-0.07487192749977112,0.10725167393684387,-0.2295813411474228,-0.026269108057022095,-0.036071181297302246,-0.030354350805282593,-0.05108022689819336,0.11851789057254791,-0.036753300577402115,0.07244476675987244,-0.09829318523406982,1.1258031129837036,0.03226208686828613,0.08255960047245026,-0.06117793917655945,0.07291483879089355,0.0110236257314682,-0.00780797004699707,0.11535614728927612
Clindamycin,0.03941948711872101,-0.032736390829086304,-0.11300152540206909,0.0995362401008606,-0.03358179330825806,-0.032506734132766724,-0.026478588581085205,-0.034828849136829376,-0.00021920353174209595,0.06644484400749207,-0.029542505741119385,0.0507509708404541,0.03497803211212158,0.07158641517162323,0.06214487552642822,-0.07386702299118042,0.009155720472335815,0.04157286882400513,-0.04113823175430298,0.03836756944656372,-0.022122114896774292,-0.02105724811553955,-0.05653180181980133,-0.017669379711151123,-0.01950158178806305,0.001768648624420166,0.018192872405052185,0.013694822788238525,-0.003173232078552246,0.00936061143875122,0.04140496253967285,0.06045451760292053,-0.8141888380050659,0.03302250802516937,0.05729229748249054,-0.017900541424751282,0.09172341227531433,-0.020693302154541016,0.03684227168560028,0.04691017419099808,-4.222989082336426e-05,-0.09639732539653778,-0.057854101061820984,-0.021651625633239746,0.009187877178192139,-0.014771521091461182,-0.0178220197558403,0.039184361696243286,-0.05226019024848938,-0.010499298572540283,0.023323535919189453,-0.017519190907478333,-0.0741439014673233,-0.04489856958389282,0.05947253108024597,-0.08093686401844025,0.006511002779006958,0.06286584585905075,-0.013785719871520996,0.06801801919937134,0.08816428482532501,-0.030573219060897827,0.002818167209625244,-0.01516646146774292,0.019646257162094116,-0.01981911063194275,0.02135419100522995,0.0537680983543396,0.03068128228187561,0.07604062557220459,0.003979027271270752,0.012487918138504028,0.04638659954071045,0.0022505521774291992,0.024163998663425446,0.019954442977905273,-0.0027292370796203613,0.06939804553985596,-0.01827991008758545,0.02739894390106201,0.033222049474716187,0.002721533179283142,0.03324329853057861,-0.11378213763237,-0.028263628482818604,0.014012038707733154,-0.048674076795578,-0.07834778726100922,0.036338627338409424,-0.03780583664774895,0.01706719398498535,0.020339712500572205,-0.11291706562042236,0.022341370582580566,-0.03605145215988159,0.01777815818786621,-0.011266618967056274,-0.00807654857635498,0.03935406357049942,-0.03709414601325989,-0.005662322044372559,0.005814284086227417,-0.0007827430963516235,-0.043739885091781616,-0.04473237693309784,0.05568039417266846,-0.023471742868423462,-0.028863027691841125,-0.027358829975128174,0.04307619482278824,-0.03361755609512329,0.09599089622497559,0.007107764482498169,-0.02009613811969757,0.014304399490356445,-0.026067137718200684,-0.04787398874759674,0.038183681666851044,-0.026815265417099,0.027879662811756134,-3.6525492668151855,-0.017356276512145996,0.0018535256385803223,0.012352973222732544,-0.04833799600601196,0.01689961552619934,0.011988133192062378,-0.0007420629262924194
Colistin,0.05423766374588013,0.15774810314178467,0.1270349621772766,-0.07624784111976624,-0.04188048839569092,0.09526878595352173,-0.00993451476097107,0.06954240798950195,0.018374480307102203,0.041780054569244385,0.12148434668779373,-0.06719028949737549,-0.055701255798339844,-0.044144511222839355,-0.004855602979660034,0.10985603928565979,0.0364915132522583,-0.07989746332168579,0.051257193088531494,0.00038293004035949707,-0.006589353084564209,-0.03740966320037842,0.017182469367980957,0.054879650473594666,0.01996147632598877,0.029006481170654297,-0.06769400835037231,-0.03250521421432495,-0.025067120790481567,-0.07630124688148499,0.05862945318222046,-0.013918966054916382,-1.8690001964569092,-0.007708609104156494,-0.05655589699745178,0.056367307901382446,-0.07420036196708679,0.05045676231384277,-0.10041183233261108,-0.03465363383293152,0.05586448311805725,0.0902654379606247,0.06752310693264008,0.04000431299209595,-0.0005309879779815674,-0.02744455635547638,0.018195748329162598,-0.03917461633682251,0.04262208938598633,0.005605220794677734,0.011455178260803223,0.02965068817138672,0.12052357196807861,0.040855154395103455,-0.07043950259685516,0.06932580471038818,-0.07936981320381165,-0.09731435775756836,0.051030516624450684,-0.054237306118011475,-0.1509382128715515,-0.042304813861846924,0.03510257601737976,-0.06722663342952728,0.0088731050491333,-0.00595526397228241,0.03631557524204254,0.01465877890586853,-0.027945905923843384,-0.039529263973236084,-0.005728572607040405,0.016868799924850464,-0.09420594573020935,0.030181914567947388,0.03622296452522278,-0.00028514862060546875,0.08317714929580688,-0.14714911580085754,-0.0395374596118927,0.006989538669586182,0.009605228900909424,0.04618710279464722,-0.08040751516819,0.11111783981323242,0.02233034372329712,0.02614879608154297,0.029840052127838135,0.09518708288669586,-0.04946538805961609,0.07409310340881348,-0.04042237997055054,-0.058510780334472656,0.17083525657653809,-0.09045326709747314,0.09335142374038696,-0.005033165216445923,0.07064759731292725,0.05349533259868622,0.03018704056739807,0.05769111216068268,-0.022787094116210938,0.07482576370239258,-0.07524019479751587,0.06397068500518799,0.012266293168067932,-0.03217402100563049,0.09261859953403473,0.038001298904418945,0.046073198318481445,-0.0776989758014679,0.06473135948181152,-0.15995727479457855,0.011651590466499329,-0.034053802490234375,0.0031724870204925537,-0.022751569747924805,0.07774626463651657,0.0011465251445770264,0.05151374638080597,-0.09740087389945984,2.676159381866455,0.02622169256210327,0.031177178025245667,-0.020046889781951904,0.028482884168624878,-0.013988956809043884,0.028385818004608154,0.06958317756652832
Cotrimoxazol,-0.087901771068573,0.23111164569854736,0.04205644130706787,-0.14488723874092102,-0.06860452890396118,0.004649847745895386,-0.07289481163024902,0.05428677797317505,-0.08830531686544418,-0.13657766580581665,0.1437637209892273,-0.09844082593917847,-0.131730854511261,0.054888010025024414,-0.19666099548339844,0.09873375296592712,-0.013545691967010498,-0.03757220506668091,0.04700446128845215,-0.11727803945541382,0.05010247230529785,-0.12405481934547424,0.07023856043815613,0.13175329566001892,0.016723453998565674,0.05238527059555054,-0.11422122269868851,-0.06312620639801025,-0.06435108184814453,-0.012406587600708008,0.1632785201072693,-0.04430192708969116,-0.7962111830711365,-0.1188417375087738,-0.16846808791160583,0.24343235790729523,-0.10913462936878204,0.014513343572616577,-0.13302496075630188,-0.06876830756664276,0.13263960182666779,0.2202017605304718,0.07942366600036621,0.003997921943664551,0.0515500009059906,-0.09725770354270935,0.07533803582191467,-0.14490878582000732,0.08693480491638184,0.10037624835968018,0.03185993432998657,0.03846538066864014,0.22485241293907166,-0.08064872026443481,-0.08495888113975525,0.1171923577785492,-0.15770387649536133,-0.24406419694423676,0.05331602692604065,-0.0648365318775177,-0.2290729433298111,-0.027950122952461243,0.11748561263084412,-0.16056941449642181,0.04944564402103424,-0.08896774053573608,0.08264006674289703,0.10025891661643982,0.018484145402908325,-0.10603723675012589,0.025426343083381653,0.08113577961921692,-0.21416136622428894,0.12163105607032776,-0.05342268943786621,-0.013917386531829834,0.08428257703781128,-0.2686823904514313,-0.06994259357452393,0.016738638281822205,0.02291083335876465,0.10133686661720276,-0.11362537741661072,0.12427416443824768,0.05761146545410156,0.0779881477355957,0.07416316866874695,0.18972718715667725,-0.13916060328483582,0.14700764417648315,-0.10547009110450745,0.048976898193359375,0.11209845542907715,-0.12650001049041748,0.13779807090759277,-0.10055840015411377,0.16859403252601624,0.11297640204429626,0.036708176136016846,0.05685126781463623,-0.02061094343662262,0.09846895933151245,-0.0988660678267479,0.09092628955841064,-0.06996147334575653,-0.1250116229057312,0.08974805474281311,0.1343172788619995,0.09938085079193115,-0.017040938138961792,0.1130223274230957,-0.18844741582870483,-0.03694707155227661,-0.06164810061454773,-0.0021849870681762695,0.007501721382141113,0.10718989372253418,-0.005522236227989197,0.03950431942939758,-0.10357613861560822,1.1098380088806152,-0.04573327302932739,0.14933595061302185,-0.08576470613479614,0.055946409702301025,0.0501190721988678,0.018484532833099365,0.15475717186927795
Cotrimoxazole,0.009953022003173828,-0.0770719051361084,-0.08365398645401001,0.1343638300895691,0.012520551681518555,0.0027888715267181396,-0.013723045587539673,-0.01241999864578247,-0.0018956735730171204,0.027366578578948975,-0.04965507984161377,0.044537365436553955,0.09179073572158813,0.008024096488952637,0.049701400101184845,-0.08730989694595337,-0.014195859432220459,0.05049264430999756,-0.029472410678863525,0.0032101720571517944,-0.0359572172164917,0.043629348278045654,0.01001042127609253,-0.037286967039108276,-0.009344547986984253,0.047404706478118896,0.017505154013633728,-0.012777626514434814,0.005569785833358765,0.03527744114398956,0.021310150623321533,0.004668891429901123,-2.163900375366211,0.0037120580673217773,-0.0148162841796875,-0.1302194893360138,0.019974425435066223,0.01544274389743805,0.00744318962097168,0.0346466600894928,-0.07508320361375809,-0.12623605132102966,-0.011212140321731567,-0.025951623916625977,0.00020426511764526367,0.018228381872177124,0.009484440088272095,0.08918894827365875,-0.04147458076477051,-0.031447768211364746,0.016577064990997314,0.0014222264289855957,-0.08604022860527039,-0.006807640194892883,0.06356087327003479,-0.05146169662475586,0.0738663375377655,0.06798624992370605,-0.01491767168045044,0.026656046509742737,0.08680933713912964,-0.07265129685401917,-0.0035352855920791626,0.03694925457239151,0.057974234223365784,0.04160588979721069,0.006467938423156738,-0.0024951696395874023,-0.007855236530303955,0.043399304151535034,-0.009751200675964355,-0.01793542504310608,0.08644455671310425,-0.009533166885375977,0.06337541341781616,0.05832791328430176,-0.07143402099609375,0.16683200001716614,0.06302782893180847,-0.01354166865348816,0.04814177751541138,0.019549280405044556,0.04204660654067993,-0.08452567458152771,-0.021271228790283203,-0.008163094520568848,-0.010846436023712158,-0.0765191912651062,0.0269625186920166,-0.08137214183807373,-0.038621366024017334,0.04732382297515869,-0.10959666967391968,0.005271613597869873,-0.04433155059814453,0.006459981203079224,-0.04198169708251953,-0.024648666381835938,-0.00017808377742767334,-0.07313212752342224,0.043014079332351685,-0.027210235595703125,0.02328534424304962,-0.052119165658950806,-0.05549008399248123,0.09072443842887878,-0.020669937133789062,0.002148181200027466,-0.0490078330039978,-0.014390259981155396,-0.024526596069335938,0.1458851397037506,0.02756403386592865,0.0468754768371582,0.024085715413093567,0.011293411254882812,-0.11263944208621979,-0.005084916949272156,-0.036427974700927734,0.06279223412275314,1.118330717086792,0.053803324699401855,-0.014660462737083435,0.0065614283084869385,-0.05796590447425842,-0.03294186294078827,0.050915151834487915,-0.0037908554077148438
Daptomycin,0.020674198865890503,-0.037246525287628174,-0.0444561243057251,0.0684659332036972,0.0167999267578125,0.007775396108627319,-0.011971354484558105,-0.02029767632484436,0.015535645186901093,0.006777524948120117,-0.024628937244415283,0.028052449226379395,0.06736567616462708,0.0024476051330566406,0.027192115783691406,-0.051605015993118286,-0.016352176666259766,0.04212677478790283,-0.025222808122634888,0.010755062103271484,-0.024497389793395996,0.017340660095214844,0.0015087425708770752,-0.01901876926422119,-0.015644848346710205,0.02233123779296875,-0.005566015839576721,-0.017974793910980225,0.012664824724197388,0.017203956842422485,0.015204548835754395,0.005480587482452393,-1.4576469659805298,0.006077706813812256,-0.03042846918106079,-0.061615943908691406,0.014624059200286865,0.0038673579692840576,0.0029225945472717285,0.034646302461624146,-0.059815749526023865,-0.062491804361343384,-0.008954748511314392,-0.0036440491676330566,0.014810055494308472,0.005518823862075806,0.0002955496311187744,0.05030062794685364,-0.012517422437667847,-0.020498842000961304,-0.008264780044555664,0.004410058259963989,-0.037760376930236816,-0.014140814542770386,0.03385914862155914,-0.021664202213287354,0.024204105138778687,0.040534526109695435,-0.01801106333732605,0.019285470247268677,0.04258584976196289,-0.061240583658218384,-0.011187180876731873,0.009532995522022247,0.029629766941070557,0.03296050429344177,-0.000944092869758606,-0.01613333821296692,-0.0027257949113845825,0.02098315954208374,0.000225752592086792,0.004550665616989136,0.061278074979782104,-0.009300276637077332,0.04155741631984711,0.03003847599029541,-0.04069848358631134,0.0821448564529419,0.03472872078418732,-0.010604098439216614,0.025391340255737305,-0.005405783653259277,0.02576400339603424,-0.04176083207130432,-0.018795490264892578,0.013190984725952148,-0.008473455905914307,-0.03173879534006119,0.0102061927318573,-0.0649382472038269,-0.043484270572662354,0.01735745370388031,-0.07775634527206421,-0.002115190029144287,-0.032691240310668945,-0.002980053424835205,-0.019954025745391846,-0.011307060718536377,-0.008879497647285461,-0.05370047688484192,0.01630815863609314,-0.015598893165588379,0.0065739452838897705,-0.04142889380455017,-0.03799287974834442,0.05152876675128937,-0.005362182855606079,0.022066965699195862,-0.02327895164489746,-0.010278284549713135,-0.016009867191314697,0.08494558930397034,0.038548052310943604,0.029260307550430298,0.010672256350517273,0.009173154830932617,-0.07448775321245193,-0.011816069483757019,-0.012994587421417236,0.04173029214143753,0.9742382764816284,0.02927166223526001,0.0137900710105896,0.0002225637435913086,-0.05620896816253662,-0.023782044649124146,0.041515201330184937,0.0026438236236572266
Doxycycline,-0.005923405289649963,-0.0007193386554718018,-0.12611746788024902,0.07102467119693756,-0.04660642147064209,-0.022567808628082275,-0.026304930448532104,-0.024600833654403687,-0.023910582065582275,0.04122269153594971,-0.021559759974479675,0.026232779026031494,-0.003909707069396973,0.06385751068592072,0.062136054039001465,-0.06355434656143188,0.019954591989517212,0.06480982899665833,-0.021744489669799805,0.01875157654285431,0.024380981922149658,-0.01840469241142273,-0.04475829005241394,0.013705305755138397,-0.0049615949392318726,-0.009872972965240479,0.0296953022480011,0.004898786544799805,-0.005458652973175049,0.037914521992206573,0.004781857132911682,0.01894339919090271,-2.3010597229003906,-0.011245280504226685,0.02420605719089508,0.025406435132026672,0.06270140409469604,0.004646763205528259,-0.004059195518493652,0.025762245059013367,0.001765906810760498,-0.07366421818733215,-0.07510673999786377,0.0040283203125,0.031362712383270264,-0.021377533674240112,0.007694154977798462,0.04280447959899902,-0.03613471984863281,0.006790041923522949,0.037495970726013184,0.04104842245578766,-0.05718086659908295,-0.07205703854560852,0.017563551664352417,-0.06606501340866089,-0.0006797313690185547,0.07539315521717072,-0.004238944500684738,0.04759618639945984,0.05053931474685669,-0.004578053951263428,-0.005348369479179382,-0.04541546106338501,0.061831481754779816,-0.028304323554039,0.010128840804100037,0.029343008995056152,0.032328471541404724,0.059291593730449677,-0.011511392891407013,0.014650911092758179,0.035532429814338684,-0.000990346074104309,0.0011978372931480408,0.03278052806854248,-0.02485489845275879,0.020154237747192383,-0.008688479661941528,0.02846139669418335,0.02371874451637268,0.060242652893066406,0.01528477668762207,-0.0718751847743988,-0.0005563199520111084,-0.012996852397918701,-0.0009142309427261353,-0.06680193543434143,0.024631336331367493,-0.012053322046995163,-0.006874509155750275,0.05222795903682709,-0.057622700929641724,0.043389320373535156,-0.020666778087615967,0.010471746325492859,-0.03491693735122681,-0.04340250790119171,0.01185791939496994,-0.01756492257118225,-0.005538314580917358,0.024556279182434082,-0.026772260665893555,-0.013366997241973877,-0.061912089586257935,0.03360462188720703,-0.020250245928764343,-0.01861165463924408,-0.006729602813720703,0.04649472236633301,-0.0227506160736084,0.05529332160949707,0.004893690347671509,-0.023437827825546265,0.03699040412902832,0.028931796550750732,-0.02977357804775238,0.059420183300971985,-0.03912368416786194,0.01887369155883789,-3.4764084815979004,-0.041021525859832764,0.0073375403881073,-0.0065521299839019775,-0.015251755714416504,0.035017311573028564,0.043136730790138245,-0.011202305555343628
Ertapenem,0.019251257181167603,-0.10291993618011475,-0.09994268417358398,0.1617695689201355,0.025822758674621582,0.0024990439414978027,-0.015488803386688232,-0.020036518573760986,0.009100466966629028,0.04238075017929077,-0.06548689305782318,0.06002849340438843,0.11416018009185791,0.009548485279083252,0.06215997785329819,-0.0997006893157959,-0.019850850105285645,0.05345216393470764,-0.033863455057144165,0.011886939406394958,-0.038294076919555664,0.053708016872406006,0.012008577585220337,-0.0553857684135437,-0.009743809700012207,0.04707223176956177,0.026232287287712097,-0.007572770118713379,0.007344990968704224,0.032973408699035645,0.011404544115066528,0.006085097789764404,-2.205026149749756,0.014247715473175049,-0.006609469652175903,-0.16706040501594543,0.03296387195587158,0.008703410625457764,0.028758585453033447,0.04650518298149109,-0.09180225431919098,-0.1553133875131607,-0.017942875623703003,-0.035766422748565674,-0.005905836820602417,0.024769514799118042,-0.0003878474235534668,0.10462567210197449,-0.05056101083755493,-0.03898739814758301,0.00696873664855957,-0.005468279123306274,-0.11599653959274292,-0.007279813289642334,0.07979527115821838,-0.06380289793014526,0.09041213989257812,0.08897075057029724,-0.022136524319648743,0.03954783082008362,0.11631256341934204,-0.07820940017700195,-0.012399867177009583,0.06053309142589569,0.051598817110061646,0.05108805000782013,-0.0018272697925567627,-0.006135523319244385,-0.017305433750152588,0.056999266147613525,-0.008461862802505493,-0.03211900591850281,0.11486318707466125,-0.02171158790588379,0.07613831758499146,0.06427162885665894,-0.08979959785938263,0.20129987597465515,0.07301473617553711,-0.014279991388320923,0.04644611477851868,0.016941577196121216,0.05202001333236694,-0.09879440069198608,-0.03211897611618042,-0.011960506439208984,-0.02037978172302246,-0.0915205180644989,0.045673519372940063,-0.10557198524475098,-0.033856719732284546,0.04842430353164673,-0.13873791694641113,0.01615464687347412,-0.061844587326049805,0.01277574896812439,-0.06089127063751221,-0.03278522193431854,-0.006540074944496155,-0.08963650465011597,0.04454943537712097,-0.032705724239349365,0.039646536111831665,-0.0701788067817688,-0.060746677219867706,0.1079583466053009,-0.028377428650856018,-0.008176058530807495,-0.06356406211853027,-0.012429475784301758,-0.03197836875915527,0.17682743072509766,0.03476908802986145,0.05570605397224426,0.021524935960769653,0.00923466682434082,-0.12924571335315704,-0.0017228424549102783,-0.04206839203834534,0.08269663155078888,1.153449296951294,0.06651520729064941,-0.024552196264266968,0.012922853231430054,-0.06343391537666321,-0.043928131461143494,0.05140605568885803,-0.014688566327095032
Erythromycin,0.07222580909729004,-0.188775897026062,-0.09460684657096863,0.17615725100040436,0.07347339391708374,0.02723163366317749,0.027293533086776733,-0.02448183298110962,0.09625685214996338,0.17566561698913574,-0.11643001437187195,0.09335201978683472,0.14634738862514496,-0.03817254304885864,0.17542029917240143,-0.12774468958377838,0.008137941360473633,0.045836806297302246,-0.029684334993362427,0.09536269307136536,-0.06353062391281128,0.10181993246078491,-0.054871439933776855,-0.11624820530414581,-0.03157073259353638,0.052565932273864746,0.11815156042575836,0.04536402225494385,0.0653618574142456,0.0014346688985824585,-0.08432070910930634,0.03954920172691345,-0.3816147446632385,0.11606818437576294,0.06685638427734375,-0.3114624321460724,0.08534488081932068,0.010124623775482178,0.11725080013275146,0.08009950816631317,-0.13106733560562134,-0.25255292654037476,-0.03186556696891785,0.04570192098617554,-0.02494874596595764,0.07465851306915283,-0.026535451412200928,0.21093948185443878,-0.0912494957447052,-0.13970640301704407,-0.009762763977050781,-0.021489128470420837,-0.19009250402450562,0.016168415546417236,0.08588115870952606,-0.13082706928253174,0.1674518883228302,0.2025723159313202,-0.07795888185501099,0.059685394167900085,0.19500063359737396,-0.07294145226478577,-0.10330712795257568,0.07970838993787766,-0.018022537231445312,0.11620689928531647,-0.08585180342197418,-0.06668439507484436,-0.0006565600633621216,0.10681931674480438,0.0335269570350647,-0.07179263234138489,0.2076472043991089,-0.0799078643321991,0.12474484741687775,0.043539583683013916,-0.10070110857486725,0.357244074344635,0.12413856387138367,0.006907634437084198,0.014960162341594696,-0.050996214151382446,0.14295724034309387,-0.1630306839942932,-0.06828898191452026,-0.051300644874572754,-0.07415062189102173,-0.16538764536380768,0.11066669225692749,-0.16430918872356415,0.04227292537689209,-0.03387092053890228,-0.1658318042755127,0.07321161031723022,-0.11634445190429688,0.10995960235595703,-0.12964558601379395,-0.1033906638622284,-0.007948443293571472,-0.0863204300403595,0.051463812589645386,-0.0756484866142273,0.07013355195522308,-0.10017627477645874,-0.026261284947395325,0.1822110414505005,-0.04836191236972809,-0.12443488836288452,-0.12126189470291138,-0.013944864273071289,-0.1239386796951294,0.2676793336868286,0.07261747121810913,0.037390708923339844,0.0007624626159667969,-0.01361691951751709,-0.19220304489135742,0.005078591406345367,-0.05820368230342865,0.08995484560728073,0.41524484753608704,0.03507876396179199,-0.10722102224826813,0.05038587749004364,-0.11896306276321411,-0.08982296288013458,-0.013751953840255737,-0.11438308656215668
Fluconazole,0.0999366044998169,-0.14844322204589844,-0.046194374561309814,0.1507020890712738,0.09034878015518188,0.056981444358825684,0.01991710066795349,-0.021458536386489868,0.11390773952007294,0.1375475525856018,-0.09165200591087341,0.06786182522773743,0.13051682710647583,-0.03279232978820801,0.11989862471818924,-0.07212445139884949,-0.03680306673049927,-0.004706889390945435,-0.026135921478271484,0.09083794057369232,-0.055250704288482666,0.08397179841995239,0.002817481756210327,-0.10865730047225952,-0.041672706604003906,0.04170083999633789,0.05750778317451477,0.0377272367477417,0.042991042137145996,-0.0377795547246933,-0.05522063374519348,0.04035574197769165,-0.9469680786132812,0.0978156328201294,0.04812765121459961,-0.20943525433540344,0.08937099575996399,-0.03232124447822571,0.1084778904914856,0.07496529817581177,-0.1465410441160202,-0.15590733289718628,-0.011849582195281982,0.026403427124023438,-0.039370834827423096,0.03770831227302551,-0.05739891529083252,0.1463598906993866,-0.04101267457008362,-0.11852437257766724,-0.039247751235961914,-0.06787112355232239,-0.13841333985328674,0.0024108588695526123,0.0553610622882843,-0.09732188284397125,0.06173151731491089,0.15126042068004608,-0.08614209294319153,0.0526871383190155,0.154352605342865,-0.07895246148109436,-0.07603630423545837,0.07391169667243958,-0.031669482588768005,0.12784549593925476,-0.07264956086874008,-0.06161457300186157,-0.043907880783081055,0.08542503416538239,0.05501739680767059,-0.059525758028030396,0.18129217624664307,-0.07851366698741913,0.1352235972881317,0.03212505578994751,-0.09724342823028564,0.21773454546928406,0.09270217269659042,0.004338964819908142,-0.020164474844932556,-0.04696127772331238,0.1016240119934082,-0.0867825448513031,-0.07718420028686523,-0.03608304262161255,-0.08837839961051941,-0.11220371723175049,0.11688898503780365,-0.13154351711273193,0.05219244956970215,-0.04653497040271759,-0.11287796497344971,0.08177322149276733,-0.0971422791481018,0.09283554553985596,-0.1093066930770874,-0.07325825095176697,-0.022304505109786987,-0.08747062087059021,0.01268574595451355,-0.0630958080291748,0.061555586755275726,-0.1291373372077942,-0.02136312425136566,0.1400858759880066,-0.030474364757537842,-0.07005544006824493,-0.09165811538696289,-0.04328721761703491,-0.08842220902442932,0.17759054899215698,0.08898797631263733,0.04168963432312012,-0.01476539671421051,-0.045175909996032715,-0.14334851503372192,-0.02157685160636902,-0.013894915580749512,0.07554721087217331,0.5935925245285034,0.07543200254440308,-0.07831858098506927,0.04601767659187317,-0.09423568844795227,-0.09089647233486176,-0.014570623636245728,-0.08459389209747314
Fosfomycin,0.030120819807052612,-0.10565763711929321,-0.09469711780548096,0.16137495636940002,0.032376229763031006,0.010019898414611816,-0.011384844779968262,-0.018541604280471802,0.01704101637005806,0.04788064956665039,-0.06967218220233917,0.05800282955169678,0.12239739298820496,0.0021837949752807617,0.06718054413795471,-0.09733334183692932,-0.01982802152633667,0.04488605260848999,-0.033563464879989624,0.01906953752040863,-0.04073929786682129,0.05791151523590088,0.013029605150222778,-0.059787869453430176,-0.010315805673599243,0.04728567600250244,0.025549933314323425,-0.006827592849731445,0.005827844142913818,0.029658108949661255,0.009133756160736084,0.010641872882843018,-2.263284206390381,0.01999148726463318,-0.003255128860473633,-0.1735042929649353,0.03305728733539581,0.0061599016189575195,0.02756178379058838,0.045458465814590454,-0.10029783844947815,-0.15548498928546906,-0.017440199851989746,-0.032735347747802734,-0.011329054832458496,0.025811731815338135,-0.00608256459236145,0.10811096429824829,-0.046781957149505615,-0.04376994073390961,0.005169570446014404,-0.0088672935962677,-0.11516189575195312,-0.004260048270225525,0.07508055865764618,-0.0648522675037384,0.0885438323020935,0.09540510177612305,-0.02717486023902893,0.04068475961685181,0.11935526132583618,-0.07928444445133209,-0.018620029091835022,0.06265620142221451,0.05025865137577057,0.059487611055374146,-0.0016993284225463867,-0.014391660690307617,-0.019074350595474243,0.058037757873535156,-0.003427952527999878,-0.03705790638923645,0.11903879046440125,-0.027027159929275513,0.0821962058544159,0.06328564882278442,-0.092916339635849,0.20069950819015503,0.07194074988365173,-0.014168426394462585,0.04377378523349762,0.011510759592056274,0.05423255264759064,-0.09513220191001892,-0.03690505027770996,-0.014424920082092285,-0.02756202220916748,-0.09886270016431808,0.053659677505493164,-0.1078791618347168,-0.027714639902114868,0.04003611207008362,-0.13221168518066406,0.02042752504348755,-0.06470751762390137,0.021354585886001587,-0.06511014699935913,-0.03737516701221466,-0.007640525698661804,-0.0890967845916748,0.04209481179714203,-0.0357893705368042,0.04076359421014786,-0.0719350278377533,-0.05292472243309021,0.11270478367805481,-0.0305355042219162,-0.00844663381576538,-0.06464815139770508,-0.01692044734954834,-0.03555184602737427,0.17416687309741974,0.039024531841278076,0.05770710110664368,0.022868677973747253,0.00350797176361084,-0.131231889128685,-0.002666875720024109,-0.041076838970184326,0.08393381536006927,1.1128814220428467,0.07222598791122437,-0.029860705137252808,0.01483336091041565,-0.06333065032958984,-0.05190594494342804,0.050269752740859985,-0.020845800638198853
Fusidic acid,0.07973101735115051,-0.29599452018737793,-0.170138418674469,0.26391202211380005,0.09898722171783447,-0.015411168336868286,0.021487832069396973,-0.07988204061985016,0.12626996636390686,0.21750175952911377,-0.17780567705631256,0.14520782232284546,0.21102158725261688,-0.02050614356994629,0.25455936789512634,-0.17232751846313477,-0.01822948455810547,0.09519597887992859,-0.07269537448883057,0.14059923589229584,-0.07906040549278259,0.13155925273895264,-0.08972367644309998,-0.17267988622188568,-0.05458909273147583,0.008779704570770264,0.15491506457328796,0.0723639726638794,0.07994812726974487,0.031487226486206055,-0.13316184282302856,0.06017446517944336,-0.7445862293243408,0.14520877599716187,0.150143563747406,-0.395521879196167,0.15449118614196777,0.006831943988800049,0.1712927222251892,0.1403251439332962,-0.1869753897190094,-0.3399268686771393,-0.09134036302566528,-2.378225326538086e-05,-0.04495236277580261,0.0867290198802948,-0.04198330640792847,0.2634667158126831,-0.14173349738121033,-0.15654242038726807,-0.023221135139465332,-0.030771508812904358,-0.3147823214530945,0.007092960178852081,0.1402515470981598,-0.18926942348480225,0.23709392547607422,0.3015286326408386,-0.09064048528671265,0.11769300699234009,0.3175087571144104,-0.061180517077445984,-0.13670916855335236,0.13279195129871368,-0.00794285535812378,0.1305350363254547,-0.12588658928871155,-0.08900097012519836,0.01831929385662079,0.13025377690792084,0.01868671178817749,-0.08633780479431152,0.3054109811782837,-0.13090096414089203,0.13833419978618622,0.06575459241867065,-0.14423386752605438,0.4667116403579712,0.12368770688772202,-0.0006959214806556702,0.017435863614082336,-0.10621638596057892,0.18513989448547363,-0.2385440468788147,-0.08459419012069702,-0.06111806631088257,-0.09137627482414246,-0.26684170961380005,0.1518985778093338,-0.23623879253864288,0.06490617990493774,0.009302467107772827,-0.28167256712913513,0.14680975675582886,-0.17079505324363708,0.1306120753288269,-0.20318007469177246,-0.13653451204299927,-0.010782778263092041,-0.1267472207546234,0.04627496004104614,-0.10716062784194946,0.1205085963010788,-0.15391692519187927,-0.02565637230873108,0.24765963852405548,-0.08780330419540405,-0.16828560829162598,-0.14713597297668457,0.030746519565582275,-0.1630612015724182,0.38845568895339966,0.11133450269699097,0.06361991167068481,0.02265411615371704,0.03150498867034912,-0.24476628005504608,0.02838735282421112,-0.09322129189968109,0.13941168785095215,-0.1846010982990265,0.044586002826690674,-0.14230985939502716,0.08385449647903442,-0.16981467604637146,-0.07969298958778381,0.018256723880767822,-0.16140775382518768
Gentamicin,-0.08353492617607117,0.17120689153671265,0.05397588014602661,-0.13482201099395752,-0.07874998450279236,-0.012394070625305176,-0.023059725761413574,0.046340733766555786,-0.07690929621458054,-0.1159515380859375,0.10309536755084991,-0.08943885564804077,-0.13282454013824463,0.0538153201341629,-0.1505500078201294,0.07525047659873962,0.021080315113067627,-0.03932332992553711,0.04308995604515076,-0.09040865302085876,0.06424212455749512,-0.08926773071289062,0.05784560739994049,0.09587185084819794,0.022500857710838318,-0.01262199878692627,-0.08141029626131058,-0.06006786227226257,-0.04331120848655701,-0.008873023092746735,0.11138400435447693,-0.02721923589706421,-1.2028701305389404,-0.10596001893281937,-0.11959832906723022,0.22196976840496063,-0.08509309589862823,0.024446889758110046,-0.11741229891777039,-0.03962329775094986,0.11488786339759827,0.19206921756267548,0.05714312195777893,-0.009082555770874023,0.04027259349822998,-0.0626879334449768,0.07941512018442154,-0.12565234303474426,0.07392081618309021,0.07176759839057922,0.01597350835800171,0.035999588668346405,0.18694427609443665,-0.046687617897987366,-0.08240358531475067,0.1062280684709549,-0.1262243539094925,-0.17570896446704865,0.05557900667190552,-0.05247482657432556,-0.1950450986623764,0.024381577968597412,0.07683265209197998,-0.12299060821533203,0.0626922994852066,-0.09046387672424316,0.06387017667293549,0.06547316908836365,0.015199676156044006,-0.1028590053319931,0.021941721439361572,0.057459309697151184,-0.1746864765882492,0.0910518616437912,-0.0649765282869339,-0.03824615478515625,0.08243229985237122,-0.24189946055412292,-0.07245901226997375,0.0024938881397247314,0.01821768283843994,0.07959647476673126,-0.10633477568626404,0.10598617792129517,0.05402195453643799,0.039987385272979736,0.07013911008834839,0.15030618011951447,-0.10511328279972076,0.1237562969326973,-0.06879309564828873,0.06769633293151855,0.10739290714263916,-0.08539348840713501,0.09977132081985474,-0.08881964534521103,0.1221131682395935,0.07243786752223969,0.045446135103702545,0.06103193759918213,-0.04030179977416992,0.10583052039146423,-0.08534421026706696,0.100684255361557,-0.012090116739273071,-0.1214253306388855,0.05471748113632202,0.10103729367256165,0.08803051710128784,-0.0073617249727249146,0.09812024235725403,-0.18946795165538788,-0.058447808027267456,-0.048833250999450684,0.01998579502105713,0.02786964178085327,0.14222870767116547,0.006284140050411224,0.05001819133758545,-0.09437736868858337,-1.5206801891326904,-0.038812875747680664,0.11028312146663666,-0.05502438545227051,0.06807130575180054,0.050286903977394104,0.020881444215774536,0.12477360665798187
Imipenem,-0.047093600034713745,0.3250836133956909,0.1642933487892151,-0.25601252913475037,-0.07459032535552979,0.05126512050628662,-0.0554412305355072,0.07868993282318115,-0.05670509114861488,-0.15102916955947876,0.2324371039867401,-0.12582999467849731,-0.1795864999294281,0.0024691224098205566,-0.21630990505218506,0.18789204955101013,-0.016453683376312256,-0.10196295380592346,0.0739414393901825,-0.15609899163246155,0.058824896812438965,-0.14628809690475464,0.11388146877288818,0.16458500921726227,0.025306403636932373,0.03992724418640137,-0.18037720024585724,-0.08437871932983398,-0.05961728096008301,-0.0719798281788826,0.1671147644519806,-0.041330575942993164,-1.0211431980133057,-0.1377265751361847,-0.19694781303405762,0.3494252860546112,-0.142051562666893,0.024168983101844788,-0.19607913494110107,-0.1033538281917572,0.1446438878774643,0.3011142909526825,0.12402395159006119,0.011271893978118896,0.04585257172584534,-0.10034593939781189,0.07690340280532837,-0.20503059029579163,0.15146604180335999,0.10221844911575317,0.028134465217590332,0.04713895916938782,0.3077750504016876,-0.03215627372264862,-0.1388929784297943,0.1747055947780609,-0.23458021879196167,-0.3215593695640564,0.07145875692367554,-0.11402778327465057,-0.3260493278503418,-0.022383928298950195,0.13016557693481445,-0.15636038780212402,0.019353553652763367,-0.09118795394897461,0.12983502447605133,0.09713363647460938,-0.021958589553833008,-0.1465061604976654,0.01646023988723755,0.09064823389053345,-0.2883042097091675,0.16089637577533722,-0.05555623769760132,-0.04884999990463257,0.1392515003681183,-0.41131311655044556,-0.10094349831342697,-0.0013341903686523438,-0.005438998341560364,0.10392060875892639,-0.15992432832717896,0.22755160927772522,0.08193004131317139,0.08719980716705322,0.09095007181167603,0.28192776441574097,-0.16630055010318756,0.2114814817905426,-0.09476706385612488,-0.009860649704933167,0.2578974962234497,-0.18355882167816162,0.18674415349960327,-0.12811771035194397,0.24436792731285095,0.1541822850704193,0.026947826147079468,0.12045183777809143,-0.019592463970184326,0.12502121925354004,-0.13000190258026123,0.1399003565311432,-0.032594770193099976,-0.1850680112838745,0.1542770117521286,0.16332432627677917,0.12097644805908203,-0.07984009385108948,0.17366725206375122,-0.3790041506290436,-0.05804795026779175,-0.06629270315170288,-0.011508435010910034,-0.025669097900390625,0.20214246213436127,-0.05324394255876541,0.09287910163402557,-0.16219671070575714,1.786543369293213,-0.018526792526245117,0.15797950327396393,-0.0978771448135376,0.1185392439365387,0.06775462627410889,0.02257367968559265,0.18498653173446655
Isavuconazole,0.024880677461624146,-0.13474500179290771,-0.14638900756835938,0.20077097415924072,0.04080885648727417,-0.0009532570838928223,-0.03612208366394043,-0.05768561363220215,-0.014087960124015808,0.06331917643547058,-0.11377012729644775,0.09189862012863159,0.15710493922233582,0.032509565353393555,0.07808272540569305,-0.15529465675354004,-0.00023698806762695312,0.05191969871520996,-0.04148304462432861,0.06249690055847168,-0.04436993598937988,0.06090289354324341,-0.0037197768688201904,-0.10917419195175171,-0.02368304133415222,0.06260287761688232,0.06818494200706482,0.017950356006622314,0.001650094985961914,0.06344413757324219,-0.017675787210464478,-0.006638646125793457,-2.3152079582214355,0.01854678988456726,0.037536799907684326,-0.2554934620857239,0.05299326777458191,0.004208207130432129,0.07834786176681519,0.06748306751251221,-0.06417638063430786,-0.21855689585208893,-0.05839747190475464,-0.053578972816467285,-0.03581273555755615,0.03719139099121094,-0.027956604957580566,0.13270047307014465,-0.07358241081237793,-0.05026842653751373,-0.028393149375915527,0.0019598007202148438,-0.18540528416633606,-0.03536137938499451,0.10100299119949341,-0.10322755575180054,0.16956624388694763,0.12838205695152283,-0.017450273036956787,0.055753618478775024,0.1673431694507599,-0.04440337419509888,-0.04566305875778198,0.08274523913860321,0.0642770379781723,0.059194281697273254,-0.0290372371673584,-0.009069502353668213,-0.010755062103271484,0.0856691300868988,-0.008503943681716919,-0.04997125267982483,0.18736866116523743,-0.05381748080253601,0.06444519758224487,0.09114676713943481,-0.12696018815040588,0.2679249048233032,0.0799725353717804,0.008065655827522278,0.0462261438369751,0.03469884395599365,0.05599941313266754,-0.13443034887313843,-0.06437969207763672,-0.0489429235458374,-0.0066367387771606445,-0.1425217241048813,0.08435210585594177,-0.15642595291137695,-0.03362894058227539,0.08442007005214691,-0.18773409724235535,0.025668203830718994,-0.07918310165405273,0.03931108117103577,-0.08191460371017456,-0.05808238685131073,-0.010934948921203613,-0.09732508659362793,0.049423933029174805,-0.03829389810562134,0.09042809158563614,-0.12103697657585144,-0.06861069798469543,0.11964359879493713,-0.054189905524253845,-0.05048799514770508,-0.09782254695892334,0.02609097957611084,-0.08889371156692505,0.26414763927459717,0.06429615616798401,0.059659361839294434,0.004919260740280151,-0.021433115005493164,-0.16758310794830322,0.0664878636598587,-0.0778794139623642,0.12881413102149963,1.8579092025756836,0.04890209436416626,-0.035851866006851196,0.021253645420074463,-0.07088285684585571,-0.04458555579185486,0.06810596585273743,-0.036956220865249634
