V1,V2,V3,V4,V5,V6,V7,V8,V9,V10,V11,V12,V13,V14,V15,V16,V17,V18,V19,V20,V21,V22,V23,V24,V25,V26,V27,V28,V29,V30,V31,V32,V33,V34,V35,V36,V37,V38,V39,V40,V41,V42,V43,V44,V45,V46,V47,V48,V49,V50,V51,V52,V53,V54,V55,V56,V57,V58,V59,V60,V61,V62,V63,V64,V65,V66,V67,V68,V69,V70,V71,V72,V73,V74,V75,V76,V77,V78,V79,V80,V81,V82,V83,V84,V85,V86,V87,V88,V89,V90,V91,V92,V93,V94,V95,V96,V97,V98,V99,V100,V101,V102,V103,V104,V105,V106,V107,V108,V109,V110,V111,V112,V113,V114,V115,V116,V117,V118,V119,V120,V121,V122,V123,V124,V125
penicillin,-0.006794477,-0.005336441,-0.003730604,-0.0007780371,0.003229334,4.221347e-05,-0.005411173,-0.005250434,-0.001988554,-0.005080151,0.005747367,0.0001465155,-2.388685e-05,0.00292351,-0.0004587057,0.004439515,0.007837124,0.002777519,-0.004196609,-0.007756433,-0.003814651,0.0007513742,-0.0001165434,-0.00286322,-0.001724113,0.007508377,-0.005027291,-0.001227158,-0.002214642,0.002191271,-0.001208795,-0.0036256262,-0.0067704669,0.0012006152,0.0074719838,-0.0028180219,-0.0021252553,0.0008994669,-0.0048824931,0.0046185357,0.0006248292,0.0031108675,-0.0064730351,0.0046850853,-0.0074326014,0.0039257128,0.0046206405,0.0008705199,0.0028729755,-0.0045682751,-0.0029275746,0.0053892732,-0.0012590984,0.0072276364,-0.0002013121,-0.0058457367,0.0071998709,-0.0053018685,-0.0030157119,0.0066434382,0.0028088717,0.005081838,-0.0034291279,-0.0037020796,0.0070411763,-0.0047624814,-0.0007472555,0.007938019,-0.0062609459,-0.0034822689,0.0054730345,-0.0036111621,-0.0043331385,0.0078979461,0.003609081,-0.0019633821,0.002823754,-0.0039983219,-0.0061857612,-0.0055886139,-0.0043141749,-0.0032472562,0.004004701,0.004475005,0.0006281382,-0.0005891841,0.0035725557,0.0072412081,-0.002139962,0.0043023112,0.0035251626,0.0012256209,0.0030391677,0.0036867831,0.0077760285,0.003469323,0.0044264887,-0.0070521287,-0.0037796418,-0.0063794293,-0.0015725447,-0.0036319459,2.0690477e-05,-0.0010274971,0.0066596535,0.0069362638,0.0028732424,0.0035440887,0.0037081463,-0.0068762815,0.00010358605,-0.0035435536,-0.0025466227,-0.0048620426,-0.00206546,0.0067296582,-0.0030858959,0.0070335539,-0.0062282928,-0.0049506137,0.0051235869,-0.0049890992,0.0074127023,0.0052022962
erythromycin,-0.008343719,-0.006553227,-0.004581238,-0.0009554413,0.003965671,5.183879e-05,-0.006645001,-0.006447611,-0.002441975,-0.006238503,0.007057856,0.0001799232,-2.933341e-05,0.003590115,-0.0005632978,0.005451789,0.009624104,0.003410836,-0.005153497,-0.009525016,-0.00468445,0.0009226988,-0.000143117,-0.003516078,-0.002117237,0.009220397,-0.006173586,-0.001506968,-0.002719613,0.002690913,-0.001484418,-0.0044523235,-0.0083142361,0.001474373,0.0091757067,-0.003460573,-0.0026098457,0.0011045585,-0.0059957751,0.0056716301,0.0007672996,0.0038201928,-0.0079489853,0.0057533556,-0.0091273459,0.0048208325,0.005674216,0.0010690114,0.0035280553,-0.0056099133,-0.0035951065,0.0066181086,-0.0015461922,0.0088756466,-0.0002472143,-0.0071786535,0.0088415481,-0.0065107718,-0.003703339,0.0081582423,0.0034493364,0.0062405742,-0.0042110211,-0.0045462097,0.0086466689,-0.0058483994,-0.0009176413,0.0097480053,-0.0076885358,-0.004276278,0.0067209681,-0.0044345637,-0.0053211576,0.0096988035,0.0044320049,-0.0024110626,0.0034676115,-0.0049100006,-0.0075962087,-0.0068629016,-0.0052978713,-0.0039876788,0.0049178312,0.005495376,0.0007713632,-0.000723527,0.0043871514,0.0088923136,-0.0026279057,0.0052833064,0.0043289522,0.0015050806,0.0037321444,0.0045274259,0.0095490776,0.0042603812,0.0054357941,-0.008660119,-0.0046414565,-0.007834034,-0.0019311089,-0.0044600847,2.5408215e-05,-0.0012617821,0.0081781512,0.0085178325,0.0035283843,0.0043521938,0.0045536594,-0.008444177,0.00012720523,-0.0043515363,-0.0031272897,-0.0059706629,-0.0025364158,0.0082641207,-0.0037895262,0.00863731,-0.0076484354,-0.0060794279,0.006291843,-0.0061266897,0.0091029098,0.0063884999
piperacillin-tazobactam,-0.007815466,-0.006138332,-0.00429119,-0.0008949506,0.003714597,4.855676e-05,-0.006224296,-0.006039403,-0.002287369,-0.005843532,0.006611009,0.0001685321,-2.747625e-05,0.003362817,-0.0005276344,0.00510663,0.009014784,0.003194889,-0.004827224,-0.008921969,-0.004387869,0.000864281,-0.000134056,-0.003293466,-0.001983191,0.008636638,-0.005782727,-0.001411559,-0.002547429,0.002520548,-0.001390437,-0.0041704392,-0.0077878484,0.0013810277,0.0085947784,-0.0032414782,-0.0024446112,0.0010346274,-0.0056161708,0.0053125476,0.0007187203,0.0035783288,-0.0074457205,0.0053890999,-0.008549476,0.0045156181,0.0053149709,0.0010013304,0.0033046883,-0.005254738,-0.0033674925,0.0061991075,-0.0014482997,0.0083137136,-0.0002315628,-0.0067241611,0.0082817748,-0.0060985642,-0.0034688739,0.007641728,0.0032309536,0.0058454704,-0.0039444128,-0.0042583803,0.0080992347,-0.0054781251,-0.0008595433,0.0091308383,-0.0072017582,-0.0040055397,0.0062954519,-0.0041538021,-0.0049842689,0.0090847518,0.004151409,-0.0022584135,0.0032480715,-0.0045991405,-0.0071152789,-0.0064283991,-0.0049624532,-0.003735211,0.004606477,0.0051474525,0.0007225267,-0.0006777191,0.0041093938,0.0083293235,-0.0024615282,0.0049488116,0.0040548784,0.0014097909,0.0034958576,0.0042407857,0.0089445123,0.0039906492,0.0050916434,-0.0081118327,-0.0043475982,-0.0073380484,-0.0018088466,-0.0041777072,2.3799581e-05,-0.0011818962,0.007660382,0.0079785557,0.0033049963,0.0040766466,0.0042653591,-0.0079095596,0.00011915166,-0.0040760338,-0.0029292973,-0.0055926484,-0.0023758316,0.0077409041,-0.0035496044,0.0080904653,-0.0071641998,-0.005694529,0.0058934954,-0.0057387971,0.0085265888,0.0059840311
daptomycin,-0.02141708,-0.01682115,-0.01175935,-0.002452474,0.01017928,0.0001330622,-0.01705671,-0.01655005,-0.006268178,-0.01601329,0.01811645,0.0004618359,-7.529444e-05,0.009215284,-0.0014459,0.01399392,0.02470362,0.008755104,-0.01322826,-0.02444928,-0.01202428,0.002368426,-0.0003673598,-0.00902524,-0.005434628,0.02366737,-0.01584668,-0.003868159,-0.006980831,0.006907168,-0.003810276,-0.0114284484,-0.0213413872,0.0037844933,0.0235526431,-0.0088827722,-0.0066990773,0.0028352363,-0.0153902415,0.0145582194,0.0019695433,0.0098058591,-0.020403849,0.014767996,-0.0234285146,0.0123743564,0.0145648653,0.0027439927,0.009055987,-0.0143997995,-0.0092280954,0.0169876907,-0.00396884,0.0227824468,-0.0006345616,-0.0184265245,0.0226949248,-0.0167121701,-0.0095059127,0.0209409762,0.0088539263,0.0160186123,-0.010809055,-0.011669437,0.022194702,-0.015011949,-0.002355446,0.025021657,-0.019735301,-0.01097656,0.017251708,-0.01138285,-0.013658608,0.024895361,0.011376293,-0.006188838,0.008900832,-0.012603232,-0.01949833,-0.017616024,-0.013598832,-0.010235773,0.01262334,0.014105793,0.001979973,-0.001857186,0.011261158,0.022825215,-0.006745433,0.013561442,0.011111771,0.003863317,0.009579851,0.0116212238,0.024511043,0.0109357573,0.0139528755,-0.0222292244,-0.0119139226,-0.0201087911,-0.00495686522,-0.0114483666,6.52191084e-05,-0.00323880697,0.0209920835,0.0218640137,0.00905683078,0.0111714276,0.0116885584,-0.0216749329,0.000326516689,-0.0111697353,-0.00802728441,-0.0153257875,-0.00651059859,0.021212751,-0.00972713996,0.0221706666,-0.0196323954,-0.0156049822,0.0161502212,-0.0157262962,0.0233658124,0.0163983069
linezolid,-0.006789001,-0.005332138,-0.003727598,-0.0007774103,0.003226731,4.217944e-05,-0.005406811,-0.005246202,-0.001986952,-0.005076057,0.005742736,0.0001463975,-2.386759e-05,0.002921153,-0.0004583361,0.004435937,0.007830807,0.00277528,-0.004193227,-0.00775018,-0.003811577,0.0007507685,-0.0001164494,-0.002860913,-0.001722723,0.007502324,-0.005023238,-0.001226168,-0.002212857,0.002189505,-0.001207821,-0.003622704,-0.0067650112,0.0011996469,0.0074659623,-0.0028157504,-0.0021235424,0.0008987417,-0.0048785573,0.0046148128,0.0006243254,0.0031083599,-0.0064678178,0.0046813088,-0.0074266107,0.0039225486,0.0046169157,0.0008698183,0.0028706593,-0.0045645949,-0.0029252151,0.0053849299,-0.0012580836,0.0072218101,-0.0002011499,-0.0058410256,0.0071940678,-0.0052975938,-0.0030132812,0.0066380845,0.0028066081,0.005077743,-0.0034263639,-0.0036990957,0.0070355004,-0.0047586435,-0.0007466529,0.0079316217,-0.0062558996,-0.0034794617,0.0054686228,-0.0036082517,-0.0043296465,0.0078915814,0.0036061723,-0.0019617998,0.0028214778,-0.0039950996,-0.0061807763,-0.0055841096,-0.0043106982,-0.0032446384,0.0040014735,0.0044713984,0.0006276319,-0.0005887092,0.0035696761,0.0072353706,-0.0021382372,0.0042988453,0.0035223204,0.0012246328,0.0030367195,0.0036838118,0.0077697597,0.0034665267,0.0044229198,-0.0070464443,-0.0037765955,-0.0063742874,-0.0015712777,-0.0036290186,2.0673802e-05,-0.0010266691,0.0066542863,0.006930673,0.0028709257,0.0035412321,0.0037051565,-0.0068707378,0.00010350256,-0.0035406973,-0.0025445698,-0.0048581241,-0.0020637948,0.0067242333,-0.0030834095,0.0070278845,-0.0062232711,-0.0049466225,0.0051194583,-0.0049850782,0.0074067293,0.0051981048
cefuroxime,-0.006766133,-0.005314179,-0.003715042,-0.0007747918,0.003215862,4.203736e-05,-0.0053886,-0.005228532,-0.001980259,-0.00505896,0.005723394,0.0001459043,-2.37872e-05,0.002911315,-0.0004567923,0.004420995,0.007804431,0.002765932,-0.004179102,-0.007724078,-0.003798738,0.0007482396,-0.0001160572,-0.002851275,-0.001716921,0.007477056,-0.005006318,-0.001222039,-0.002205403,0.002182131,-0.001203752,-0.0036105022,-0.0067422255,0.0011956063,0.0074408138,-0.0028062665,-0.0021163896,0.0008957147,-0.0048621255,0.0045992681,0.0006222228,0.0030978904,-0.0064460342,0.0046655415,-0.0074015968,0.0039093369,0.004601365,0.0008668887,0.0028609899,-0.0045492202,-0.0029153619,0.0053667915,-0.0012538462,0.0071974858,-0.0002004723,-0.0058213528,0.0071698357,-0.005279752,-0.0030031316,0.0066157244,0.0027971547,0.0050606388,-0.0034148232,-0.0036866365,0.0070118038,-0.0047426145,-0.0007441383,0.0079049068,-0.006234827,-0.003467743,0.0054502036,-0.0035960984,-0.0043150624,0.0078650024,0.003594026,-0.0019551921,0.0028119746,-0.0039816429,-0.0061599575,-0.0055653006,-0.0042961789,-0.0032337089,0.0039879964,0.0044563385,0.0006255179,-0.0005867264,0.0035576527,0.0072110007,-0.0021310344,0.0042843679,0.0035104565,0.0012205078,0.003026491,0.00367140374,0.00774359144,0.00345485122,0.00440802285,-0.00702271005,-0.00376387499,-0.00635281578,-0.00156598527,-0.00361679588,2.06041659e-05,-0.00102321105,0.00663187169,0.00690732943,0.00286125671,0.00352930371,0.00369267724,-0.0068475958,0.000103153921,-0.00352877122,-0.00253599929,-0.00484176073,-0.00205684453,0.00670158537,-0.0030730234,0.00700421352,-0.00620230986,-0.00492996117,0.00510221533,-0.00496828742,0.00738178194,0.00518059684
imipenem,-0.006710732,-0.005270667,-0.003684623,-0.0007684474,0.003189531,4.169316e-05,-0.005344477,-0.00518572,-0.001964044,-0.005017537,0.005676528,0.0001447097,-2.359243e-05,0.002887476,-0.000453052,0.004384796,0.007740529,0.002743285,-0.004144885,-0.007660832,-0.003767635,0.000742113,-0.0001151069,-0.002827929,-0.001702863,0.007415833,-0.004965327,-0.001212032,-0.002187345,0.002164264,-0.001193896,-0.0035809386,-0.006687019,0.0011858171,0.0073798876,-0.0027832882,-0.0020990609,0.0008883805,-0.0048223138,0.0045616091,0.0006171278,0.0030725251,-0.0063932524,0.0046273395,-0.0073409919,0.0038773266,0.0045636892,0.0008597904,0.0028375641,-0.0045119715,-0.0028914914,0.005322848,-0.0012435796,0.0071385531,-0.0001988308,-0.0057736863,0.0071111289,-0.0052365195,-0.0029785419,0.0065615559,0.0027742509,0.0050192019,-0.0033868626,-0.00365645,0.0069543901,-0.0047037811,-0.0007380451,0.0078401817,-0.006183777,-0.0034393487,0.0054055774,-0.0035666532,-0.0042797318,0.0078006033,0.0035645976,-0.001939183,0.0027889495,-0.0039490405,-0.0061095194,-0.0055197324,-0.0042610001,-0.0032072314,0.0039553414,0.0044198488,0.0006203962,-0.0005819222,0.0035285219,0.0071519557,-0.0021135854,0.0042492854,0.0034817129,0.0012105145,0.0030017097,0.003641342,0.0076801847,0.0034265623,0.0043719304,-0.0069652083,-0.0037330557,-0.0063007995,-0.0015531627,-0.0035871814,2.0435456e-05,-0.0010148329,0.0065775709,0.0068507711,0.0028378281,0.0035004059,0.0036624414,-0.0067915278,0.00010230931,-0.0034998779,-0.0025152341,-0.0048021153,-0.002040002,0.0066467114,-0.0030478614,0.0069468622,-0.0061515258,-0.0048895949,0.0050604371,-0.0049276068,0.0073213386,0.0051381774
rifampicin,-0.0076777,-0.00603013,-0.004215549,-0.0008791754,0.003649118,4.770085e-05,-0.006114578,-0.005932944,-0.002247049,-0.005740528,0.006494477,0.0001655613,-2.699193e-05,0.00330354,-0.0005183336,0.005016611,0.008855882,0.003138571,-0.004742131,-0.008764702,-0.004310523,0.0008490461,-0.0001316931,-0.003235413,-0.001948232,0.008484403,-0.005680794,-0.001386677,-0.002502524,0.002476118,-0.001365927,-0.0040969271,-0.0076505705,0.0013566839,0.0084432736,-0.0031843395,-0.00240152,0.0010163896,-0.0055171745,0.0052189026,0.0007060515,0.0035152535,-0.0073144739,0.0052941018,-0.008398775,0.0044360198,0.0052212849,0.0009836803,0.0032464364,-0.0051621119,-0.0033081335,0.0060898303,-0.0014227703,0.0081671663,-0.0002274809,-0.0066056317,0.0081357909,-0.0059910663,-0.0034077272,0.0075070271,0.0031740004,0.0057424316,-0.0038748849,-0.0041833166,0.0079564648,-0.0053815637,-0.0008443922,0.0089698965,-0.0070748129,-0.0039349333,0.0061844797,-0.0040805815,-0.0048964098,0.0089246109,0.0040782294,-0.0022186046,0.0031908166,-0.0045180693,-0.0069898544,-0.006315086,-0.0048749791,-0.00366937,0.0045252787,0.0050567165,0.0007097908,-0.0006657729,0.0040369579,0.0081825014,-0.0024181379,0.0048615779,0.0039834017,0.0013849406,0.0034342348,0.0041660336,0.0087868404,0.003920306,0.0050018956,-0.0079688458,-0.004270961,-0.0072086994,-0.0017769624,-0.004104068,2.3380062e-05,-0.0011610631,0.0075253481,0.0078379167,0.0032467386,0.0040047886,0.0041901721,-0.0077701346,0.00011705134,-0.0040041837,-0.0028776599,-0.0054940674,-0.0023339516,0.007604457,-0.0034870354,0.0079478575,-0.0070379162,-0.0055941502,0.0057896096,-0.0056376378,0.008376291,0.0058785491
micafungin,-0.01142465,-0.008973027,-0.006272867,-0.00130824,0.005430001,7.098034e-05,-0.00909868,-0.008828403,-0.003343678,-0.008542084,0.009663981,0.0002463602,-4.016482e-05,0.004915772,-0.0007712964,0.007464875,0.01317782,0.004670291,-0.00705644,-0.01304214,-0.006414189,0.001263406,-0.0001959633,-0.004814393,-0.00289903,0.01262505,-0.008453196,-0.002063419,-0.003723834,0.003684538,-0.002032542,-0.0060963519,-0.0113842776,0.0020187874,0.0125638526,-0.0047383956,-0.0035735357,0.0015124189,-0.0082097268,0.0077658943,0.0010506259,0.005230804,-0.0108841555,0.007877795,-0.0124976374,0.006600935,0.007769431,0.0014637457,0.0048307967,-0.0076813837,-0.004922607,0.0090618571,-0.002117126,0.0121529931,-0.0003384985,-0.0098293806,0.0121063087,-0.0089148926,-0.0050708018,0.0111706834,0.0047230087,0.0085449191,-0.0057659484,-0.0062249024,0.0118394708,-0.0080079315,-0.0012564811,0.0133474721,-0.0105275391,-0.0058553023,0.0092027029,-0.0060720313,-0.0072860052,0.0132800983,0.0060685296,-0.003301352,0.0047480343,-0.0067230272,-0.0104011241,-0.0093970355,-0.007254119,-0.0054601384,0.0067337514,0.0075245495,0.0010561901,-0.0009906902,0.0060071168,0.0121758208,-0.0035982654,0.0072341748,0.0059274244,0.0020608355,0.0051102443,0.00619918387,0.0130750965,0.00583353499,0.00744296983,-0.0118578756,-0.0063553229,-0.0107267685,-0.00264417287,-0.00610698108,3.47902533e-05,-0.00172769756,0.0111979544,0.0116630625,0.00483124657,0.0059592477,0.00623510499,-0.0115622059,0.000174175962,-0.00595835038,-0.00428204611,-0.00817534048,-0.00347299385,0.0113156606,-0.0051888139,0.0118266512,-0.0104726357,-0.00832426921,0.00861511752,-0.00838897843,0.0124641759,0.00874746498
mupirocin,-0.007125761,-0.005596633,-0.0039125,-0.0008159726,0.003386789,4.42717e-05,-0.005675009,-0.005506434,-0.002085512,-0.00532785,0.006027599,0.0001536594,-2.505152e-05,0.003066053,-0.0004810713,0.004655974,0.008219246,0.002912945,-0.004401228,-0.00813462,-0.004000646,0.0007880093,-0.0001222258,-0.003002824,-0.001808177,0.007874469,-0.005272408,-0.001286991,-0.002322622,0.002298114,-0.001267733,-0.003802404,-0.0071005807,0.0012591542,0.0078363009,-0.0029554225,-0.0022288777,0.0009433228,-0.0051205507,0.0048437235,0.0006552944,0.0032625475,-0.0067886473,0.0049135201,-0.0077950004,0.0041171224,0.0048459317,0.0009129646,0.0030130546,-0.0047910162,-0.003070317,0.0056520421,-0.0013204889,0.0075800405,-0.0002111276,-0.0061307643,0.0075509208,-0.0055603758,-0.0031627512,0.0069673588,0.0029458271,0.0053296173,-0.0035963242,-0.0038825842,0.0073844893,-0.0049946913,-0.00078369,0.0083250571,-0.0065662158,-0.0036520555,0.0057398872,-0.0037872351,-0.0045444136,0.0082830321,0.0037850521,-0.0020591121,0.0029614342,-0.0041932715,-0.0064873653,-0.0058611021,-0.0045245253,-0.0034055838,0.0041999626,0.004693198,0.0006587647,-0.0006179113,0.0037467461,0.0075942734,-0.0022443011,0.0045120851,0.0036970407,0.0012853792,0.0031873523,0.0038665424,0.008155168,0.0036384789,0.0046423143,-0.0073959772,-0.0039639287,-0.0066904752,-0.0016492188,-0.0038090325,2.1699299e-05,-0.0010775953,0.0069843647,0.0072744582,0.0030133363,0.0037168893,0.0038889467,-0.0072115534,0.00010863669,-0.0037163286,-0.0026707901,-0.0050991056,-0.0021661667,0.0070577818,-0.0032363583,0.0073764944,-0.0065319696,-0.0051919953,0.0053734034,-0.005232356,0.00777413,0.0054559503
cotrimoxazole,-0.007022302,-0.005515376,-0.003855694,-0.0008041253,0.003337617,4.362892e-05,-0.005592613,-0.005426486,-0.002055233,-0.005250493,0.005940084,0.0001514283,-2.46878e-05,0.003021538,-0.0004740866,0.004588377,0.008099911,0.002870652,-0.004337327,-0.008016514,-0.00394256,0.0007765682,-0.0001204512,-0.002959226,-0.001781924,0.00776014,-0.005195862,-0.001268305,-0.0022889,0.002264747,-0.001249327,-0.0037471966,-0.0069974884,0.0012408726,0.0077225268,-0.0029125123,-0.0021965175,0.0009296266,-0.0050462079,0.0047733975,0.0006457802,0.0032151777,-0.0066900807,0.0048421808,-0.0076818243,0.0040573464,0.0047755744,0.0008997093,0.0029693085,-0.0047214553,-0.0030257397,0.005569981,-0.0013013171,0.0074699861,-0.0002080623,-0.0060417494,0.0074412883,-0.0054796445,-0.0031168307,0.006866199,0.0029030552,0.0052522351,-0.0035441099,-0.0038262142,0.007277274,-0.0049221716,-0.0007723114,0.0082041882,-0.00647088,-0.0035990323,0.0056565502,-0.0037322482,-0.0044784327,0.008162776,0.0037300966,-0.0020292164,0.0029184369,-0.0041323891,-0.0063931774,-0.0057760044,-0.0044588349,-0.0033561396,0.0041389824,0.0046250559,0.0006492001,-0.00060894,0.0036923469,0.0074840128,-0.0022117156,0.0044465712,0.0036433635,0.0012667168,0.0031410749,0.0038104041,0.00803676434,0.00358565268,0.00457491353,-0.00728859287,-0.00390637713,-0.00659333728,-0.00162527408,-0.0037537294,2.13842577e-05,-0.00106194988,0.00688295811,0.00716884248,0.00296958466,0.00366292382,0.00383248297,-0.00710684853,0.000107059379,-0.00366237154,-0.00263201306,-0.00502507156,-0.00213471684,0.00695530884,-0.0031893691,0.00726939645,-0.00643713307,-0.00511661125,0.00529538654,-0.00515638711,0.0076612602,0.00537673524
fosfomycin,-0.006628373,-0.00520598,-0.003639402,-0.0007590165,0.003150386,4.118147e-05,-0.005278886,-0.005122077,-0.00193994,-0.004955957,0.005606862,0.0001429337,-2.330289e-05,0.002852039,-0.0004474918,0.004330982,0.00764553,0.002709617,-0.004094015,-0.007566812,-0.003721394,0.0007330052,-0.0001136942,-0.002793222,-0.001681964,0.00732482,-0.004904388,-0.001197157,-0.0021605,0.002137702,-0.001179243,-0.0035369906,-0.0066049504,0.0011712634,0.0072893156,-0.0027491294,-0.0020732991,0.0008774775,-0.0047631301,0.004505625,0.0006095539,0.0030348161,-0.0063147894,0.0045705489,-0.0072508967,0.0038297407,0.0045076795,0.0008492384,0.0028027392,-0.004456596,-0.0028560043,0.0052575222,-0.0012283173,0.0070509426,-0.0001963906,-0.0057028271,0.0070238546,-0.0051722531,-0.0029419865,0.0064810258,0.0027402032,0.0049576024,-0.0033452958,-0.0036115746,0.0068690404,-0.0046460531,-0.0007289873,0.0077439584,-0.0061078835,-0.0033971379,0.0053392351,-0.0035228804,-0.0042272066,0.0077048671,0.0035208499,-0.0019153835,0.0027547213,-0.0039005752,-0.0060345381,-0.0054519884,-0.0042087059,-0.0031678698,0.0039067985,0.0043656048,0.0006127821,-0.0005747803,0.0034852175,0.0070641814,-0.0020876462,0.0041971346,0.0034389824,0.0011956578,0.0029648703,0.0035966523,0.0075859274,0.0033845084,0.0043182741,-0.006879725,-0.0036872411,-0.0062234704,-0.001534101,-0.0035431562,2.0184658e-05,-0.0010023779,0.0064968443,0.0067666923,0.0028029999,0.0034574459,0.0036174925,-0.0067081759,0.00010105368,-0.0034569243,-0.0024843651,-0.0047431802,-0.0020149658,0.0065651382,-0.0030104553,0.0068616043,-0.006076029,-0.0048295856,0.004998331,-0.0048671309,0.0072314851,0.0050751171
minocycline,-0.006856822,-0.005385406,-0.003764836,-0.0007851763,0.003258966,4.26008e-05,-0.005460824,-0.005298611,-0.002006801,-0.005126766,0.005800106,0.0001478599,-2.410603e-05,0.002950335,-0.0004629148,0.004480252,0.007909034,0.002803006,-0.004235118,-0.007827604,-0.003849654,0.0007582688,-0.0001176128,-0.002889492,-0.001739933,0.007577271,-0.005073419,-0.001238418,-0.002234963,0.002211378,-0.001219887,-0.0036588942,-0.0068325931,0.0012116316,0.0075405459,-0.0028438794,-0.002144757,0.0009077202,-0.0049272943,0.0046609133,0.0006305624,0.0031394123,-0.0065324306,0.0047280747,-0.0075008022,0.003961734,0.0046630367,0.0008785077,0.0028993364,-0.0046101948,-0.0029544379,0.0054387245,-0.0012706516,0.0072939559,-0.0002031593,-0.0058993762,0.0072659357,-0.0053505171,-0.0030433822,0.006704398,0.0028346453,0.0051284684,-0.0034605926,-0.0037360492,0.0071057845,-0.004806181,-0.000754112,0.0080108577,-0.0063183955,-0.0035142216,0.0055232546,-0.0036442983,-0.0043728999,0.0079704178,0.0036421975,-0.0019813983,0.0028496643,-0.0040350109,-0.0062425202,-0.0056398935,-0.0043537598,-0.003277052,0.0040414487,0.0045160661,0.0006339017,-0.0005945904,0.0036053371,0.0073076524,-0.0021595969,0.0043417905,0.003557509,0.0012368668,0.0030670559,0.0037206123,0.007847378,0.0035011577,0.0044671046,-0.0071168388,-0.0038143236,-0.0064379652,-0.0015869744,-0.0036652724,2.088033e-05,-0.0010369251,0.0067207594,0.0069999085,0.0028996065,0.0035766081,0.0037421708,-0.0069393758,0.00010453653,-0.0035760677,-0.00256999,-0.0049066558,-0.0020844124,0.0067914082,-0.0031142123,0.0070980946,-0.0062854411,-0.0049960404,0.0051706005,-0.0050348788,0.007480721,0.0052500335
norfloxacin,-0.006782192,-0.005326791,-0.003723859,-0.0007766303,0.003223495,4.213714e-05,-0.005401388,-0.00524094,-0.001984959,-0.005070966,0.005736977,0.0001462507,-2.384366e-05,0.002918224,-0.0004578764,0.004431488,0.007822955,0.002772497,-0.004189021,-0.007742409,-0.003807754,0.0007500156,-0.0001163327,-0.002858043,-0.001720995,0.0074948,-0.0050182,-0.001224939,-0.002210637,0.00218731,-0.001206609,-0.0036190706,-0.0067582261,0.0011984439,0.0074584726,-0.0028129267,-0.0021214124,0.0008978406,-0.004873666,0.0046101841,0.0006236994,0.0031052432,-0.0064613326,0.004676614,-0.0074191624,0.0039186138,0.0046122852,0.0008689461,0.0028677802,-0.0045600175,-0.0029222812,0.0053795287,-0.0012568217,0.0072145672,-0.0002009481,-0.0058351676,0.0071868519,-0.005292282,-0.0030102592,0.0066314265,0.0028037929,0.00507265,-0.0034229269,-0.0036953855,0.0070284461,-0.0047538709,-0.0007459042,0.0079236673,-0.0062496248,-0.0034759725,0.0054631387,-0.0036046328,-0.0043253042,0.0078836689,0.0036025555,-0.0019598322,0.0028186487,-0.0039910921,-0.006174576,-0.0055785072,-0.0043063737,-0.0032413839,0.0039974619,0.0044669122,0.0006270024,-0.0005881186,0.0035660963,0.0072281142,-0.0021360929,0.0042945347,0.0035187877,0.0012234044,0.0030336736,0.0036801167,0.0077619674,0.0034630504,0.0044184853,-0.007039377,-0.0037728078,-0.0063678934,-0.0015697018,-0.0036253789,2.0653068e-05,-0.0010256392,0.006647612,0.0069237216,0.002868047,0.00353768,0.0037014408,-0.0068638464,0.00010339874,-0.0035371471,-0.002542018,-0.0048532519,-0.0020617254,0.0067174891,-0.0030803159,0.0070208353,-0.0062170294,-0.0049416614,0.0051143225,-0.004980077,0.0073992996,0.0051928912
ceftazidime,-0.006775952,-0.005321889,-0.003720433,-0.000775916,0.003220529,4.209836e-05,-0.00539642,-0.005236119,-0.001983133,-0.0050663,0.005731699,0.000146116,-2.382172e-05,0.002915539,-0.0004574551,0.00442741,0.007815757,0.002769946,-0.004185169,-0.007735285,-0.003804252,0.0007493254,-0.0001162256,-0.002855413,-0.001719412,0.007487906,-0.005013583,-0.001223812,-0.002208603,0.002185297,-0.001205499,-0.0036157409,-0.006752009,0.0011973411,0.0074516106,-0.0028103383,-0.0021194606,0.0008970144,-0.0048691807,0.0046059424,0.0006231257,0.0031023854,-0.0064553875,0.0046723112,-0.0074123372,0.0039150091,0.0046080425,0.0008681464,0.0028651417,-0.00455582,-0.0029195929,0.0053745802,-0.0012556658,0.007207931,-0.0002007632,-0.0058298009,0.0071802405,-0.0052874116,-0.0030074895,0.0066253264,0.0028012132,0.0050679822,-0.003419779,-0.0036919857,0.0070219785,-0.0047494974,-0.0007452181,0.0079163788,-0.0062438762,-0.003472775,0.0054581137,-0.0036013164,-0.0043213246,0.0078764148,0.0035992411,-0.0019580291,0.0028160547,-0.0039874204,-0.0061688963,-0.0055733784,-0.0043024127,-0.0032384016,0.0039937841,0.0044628046,0.0006264255,-0.0005875778,0.0035628155,0.0072214655,-0.0021341268,0.0042905831,0.0035155513,0.0012222789,0.0030308834,0.0036767318,0.007754826,0.0034598648,0.0044144201,-0.007032901,-0.0037693372,-0.0063620368,-0.0015682576,-0.0036220439,2.0634068e-05,-0.0010246958,0.0066414955,0.0069173514,0.0028654088,0.0035344255,0.0036980347,-0.0068575321,0.00010330364,-0.0035338921,-0.0025396799,-0.0048487857,-0.0020598294,0.0067113102,-0.0030774826,0.0070143766,-0.0062113102,-0.0049371156,0.0051096184,-0.0049754987,0.0073924935,0.0051881135
voriconazole,-0.006813669,-0.005351512,-0.003741142,-0.0007802348,0.003238455,4.23327e-05,-0.005426458,-0.005265265,-0.001994171,-0.005094502,0.005763602,0.0001469294,-2.395432e-05,0.002931767,-0.0004600014,0.004452055,0.007859263,0.002785364,-0.004208463,-0.007778343,-0.003825426,0.0007534962,-0.0001168726,-0.002871307,-0.001728983,0.007529585,-0.00504149,-0.001230624,-0.002220896,0.002197461,-0.001212209,-0.0036358673,-0.0067895916,0.001204006,0.0074930885,-0.0028259817,-0.0021312579,0.0009020074,-0.0048962831,0.0046315794,0.0006265941,0.0031196545,-0.0064913183,0.0046983189,-0.0074535953,0.0039368006,0.0046336921,0.0008729789,0.0028810904,-0.0045811809,-0.0029358447,0.0054044956,-0.001262655,0.0072480524,-0.0002018807,-0.0058622495,0.0072202068,-0.0053168437,-0.00302423,0.0066622039,0.0028168056,0.0050961934,-0.0034388138,-0.0037125368,0.0070610661,-0.0047759344,-0.0007493661,0.0079604387,-0.0062786308,-0.0034921048,0.0054884935,-0.0036213626,-0.0043453788,0.0079202577,0.0036192753,-0.0019689281,0.0028317296,-0.0040096156,-0.0062032333,-0.0056043998,-0.0043263598,-0.0032564276,0.0040160152,0.0044876453,0.0006299124,-0.0005908483,0.0035826468,0.0072616609,-0.0021460068,0.0043144654,0.0035351184,0.0012290823,0.0030477531,0.00369719649,0.00779799372,0.00347912195,0.00443899119,-0.00707204873,-0.00379031803,-0.00639744662,-0.00157698686,-0.00364220561,2.07489193e-05,-0.00103039935,0.00667846203,0.00695585599,0.00288135791,0.00355409924,0.0037186197,-0.00689570233,0.000103878643,-0.0035535628,-0.00255381595,-0.00487577589,-0.00207129377,0.00674866652,-0.00309461285,0.00705342041,-0.00624588411,-0.00496459659,0.00513805961,-0.00500319153,0.00743363984,0.00521699153
metronidazole,-0.006635766,-0.005211787,-0.003643462,-0.0007598632,0.0031539,4.122741e-05,-0.005284775,-0.00512779,-0.001942104,-0.004961485,0.005613117,0.0001430931,-2.332888e-05,0.00285522,-0.0004479909,0.004335813,0.007654058,0.002712639,-0.004098582,-0.007575253,-0.003725545,0.0007338229,-0.0001138211,-0.002796338,-0.00168384,0.00733299,-0.004909858,-0.001198493,-0.00216291,0.002140086,-0.001180559,-0.0035409357,-0.0066123181,0.0011725699,0.0072974465,-0.0027521963,-0.0020756116,0.0008784564,-0.0047684433,0.0045106504,0.0006102338,0.0030382015,-0.0063218339,0.0045756474,-0.0072589847,0.0038340127,0.0045127072,0.0008501857,0.0028058656,-0.0044615674,-0.0028591901,0.0052633868,-0.0012296874,0.0070588076,-0.0001966097,-0.0057091885,0.0070316903,-0.0051780222,-0.0029452683,0.0064882552,0.00274326,0.004963133,-0.0033490276,-0.0036156033,0.0068767029,-0.0046512359,-0.0007298005,0.0077525964,-0.0061146971,-0.0034009276,0.0053451913,-0.0035268099,-0.0042319228,0.0077134618,0.0035247775,-0.00191752,0.0027577942,-0.0039049261,-0.0060412693,-0.0054580709,-0.0042134011,-0.0031714034,0.0039111567,0.0043704743,0.0006134657,-0.0005754215,0.0034891055,0.0070720613,-0.0020899749,0.0042018169,0.0034428188,0.0011969917,0.0029681774,0.0036006647,0.0075943889,0.0033882838,0.0043230909,-0.0068873996,-0.0036913541,-0.006230413,-0.0015358124,-0.0035471085,2.0207173e-05,-0.0010034962,0.0065040919,0.0067742402,0.0028061268,0.0034613027,0.0036215275,-0.0067156586,0.0001011664,-0.0034607805,-0.0024871363,-0.0047484711,-0.0020172133,0.0065724622,-0.0030138132,0.0068692593,-0.0060828072,-0.0048349733,0.0050039068,-0.00487256,0.0072395517,0.0050807782
ceftriaxone,-0.006817099,-0.005354208,-0.003743025,-0.0007806276,0.003240086,4.235401e-05,-0.005429189,-0.005267915,-0.001995175,-0.005097067,0.005766504,0.0001470034,-2.396638e-05,0.002933244,-0.000460233,0.004454296,0.007863218,0.002786766,-0.004210582,-0.007782259,-0.003827352,0.0007538759,-0.0001169314,-0.002872753,-0.001729853,0.007533375,-0.005044028,-0.001231244,-0.002222015,0.002198568,-0.001212819,-0.0036376971,-0.006793011,0.0012046123,0.0074968622,-0.0028274043,-0.0021323313,0.0009024615,-0.0048987488,0.0046339119,0.0006269095,0.0031212249,-0.0064945868,0.0047006831,-0.007457348,0.0039387834,0.0046360246,0.0008734185,0.0028825407,-0.0045834868,-0.0029373225,0.0054072174,-0.0012632908,0.0072517018,-0.0002019824,-0.0058652013,0.0072238427,-0.0053195204,-0.0030257523,0.0066655576,0.002818224,0.0050987564,-0.0034405447,-0.0037144062,0.0070646205,-0.0047783381,-0.0007497434,0.007964449,-0.0062817908,-0.0034938629,0.0054912562,-0.0036231857,-0.0043475661,0.0079242438,0.0036210974,-0.0019699191,0.0028331559,-0.0040116343,-0.0062063574,-0.0056072213,-0.0043285382,-0.0032580674,0.0040180362,0.0044899047,0.0006302296,-0.0005911457,0.0035844503,0.0072653168,-0.0021470867,0.0043166382,0.0035368993,0.0012297011,0.003049288,0.0036990582,0.00780191878,0.00348087377,0.0044412259,-0.00707560917,-0.00379222585,-0.00640066899,-0.00157778058,-0.00364403939,2.07593657e-05,-0.00103091833,0.0066818255,0.00695935637,0.00288280868,0.00355588784,0.00372049189,-0.00689917617,0.000103930928,-0.00355535187,-0.00255510118,-0.00487823132,-0.00207233755,0.00675206399,-0.00309617002,0.00705697294,-0.00624902826,-0.00496709486,0.00514064729,-0.00500571029,0.00743738422,0.00521961879
ciprofloxacin,-0.006772187,-0.005318932,-0.003718364,-0.0007754847,0.003218739,4.207497e-05,-0.005393421,-0.005233209,-0.00198203,-0.005063484,0.005728513,0.0001460349,-2.380847e-05,0.002913918,-0.0004572008,0.004424951,0.007811412,0.002768407,-0.004182841,-0.007730987,-0.003802136,0.000748909,-0.000116161,-0.002853826,-0.001718457,0.007483744,-0.005010797,-0.001223132,-0.002207375,0.002184083,-0.001204829,-0.0036137309,-0.0067482553,0.0011966757,0.007447469,-0.0028087762,-0.0021182832,0.0008965159,-0.0048664752,0.0046033822,0.0006227793,0.0031006616,-0.0064517995,0.0046697138,-0.0074082175,0.003912834,0.0046054809,0.0008676642,0.0028635494,-0.0045532891,-0.0029179703,0.0053715925,-0.0012549679,0.0072039245,-0.0002006516,-0.0058265589,0.0071762484,-0.0052844733,-0.003005818,0.0066216411,0.0027996565,0.0050651664,-0.0034178779,-0.0036899345,0.0070180758,-0.0047468571,-0.0007448039,0.0079119764,-0.0062404051,-0.003470845,0.0054550781,-0.0035993147,-0.0043189232,0.0078720367,0.0035972404,-0.0019569411,0.0028144894,-0.0039852043,-0.0061654677,-0.0055702794,-0.0043000211,-0.0032366018,0.0039915633,0.004460325,0.0006260775,-0.0005872512,0.003560835,0.0072174501,-0.002132941,0.0042881989,0.003513597,0.0012215998,0.0030291984,0.00367468782,0.00775051629,0.00345794065,0.00441196701,-0.00702899229,-0.00376724196,-0.00635849964,-0.00156738586,-0.00362003059,2.06225941e-05,-0.00102412619,0.00663780468,0.00691350736,0.00286381505,0.00353246089,0.00369598041,-0.0068537211,0.000103246202,-0.00353192771,-0.00253826776,-0.00484609185,-0.00205868366,0.00670757936,-0.0030757722,0.00701047899,-0.00620785821,-0.00493437191,0.00510677835,-0.00497273216,0.00738838455,0.0051852297
vancomycin,-0.01036743,-0.008142667,-0.005692382,-0.001187177,0.004927516,6.441188e-05,-0.008256697,-0.008011431,-0.003034257,-0.007751605,0.008769684,0.0002235624,-3.644801e-05,0.004460869,-0.0006999213,0.006774081,0.01195836,0.004238107,-0.006403446,-0.01183524,-0.005820626,0.001146493,-0.000177829,-0.004368875,-0.002630757,0.01145674,-0.007670942,-0.001872471,-0.003379235,0.003343575,-0.001844452,-0.0055322023,-0.0103307907,0.0018319716,0.0114012081,-0.0042999107,-0.0032428424,0.0013724611,-0.0074500046,0.007047243,0.0009534019,0.0047467533,-0.0098769544,0.0071487883,-0.0113411155,0.0059900908,0.0070504528,0.0013282918,0.0043837586,-0.006970556,-0.004467071,0.008223285,-0.0019212092,0.011028368,-0.0003071741,-0.0089197829,0.0109860031,-0.0080899103,-0.0046015568,0.0101369619,0.004285946,0.0077541769,-0.0052323714,-0.0056488588,0.0107438546,-0.0072668837,-0.0011402072,0.0121123139,-0.0095533328,-0.0053134593,0.0083510894,-0.0055101314,-0.0066117663,0.0120511726,0.0055069551,-0.0029958482,0.0043086549,-0.0061008837,-0.0094386097,-0.0085274503,-0.0065828306,-0.0049548577,0.0061106184,0.0068282341,0.0009584515,-0.000899013,0.0054512234,0.0110490713,-0.0032652845,0.0065647312,0.0053789057,0.0018701258,0.0046373494,0.00562551804,0.0118651371,0.00529370364,0.00675420556,-0.0107605681,-0.00576720713,-0.00973411743,-0.00239948486,-0.00554184383,3.15707948e-05,-0.00156781822,0.0101616988,0.0105837723,0.00438416749,0.00540778413,0.00565811619,-0.0104922475,0.000158057868,-0.00540697156,-0.00388579024,-0.00741879921,-0.0031516056,0.0102685243,-0.00470864633,0.0107322223,-0.00950350612,-0.00755394716,0.00781788025,-0.00761267263,0.0113107488,0.00793798268
itraconazole,-0.007606051,-0.005973858,-0.00417621,-0.0008709707,0.003615065,4.725568e-05,-0.006057516,-0.005877578,-0.002226079,-0.005686956,0.00643387,0.0001640162,-2.674004e-05,0.00327271,-0.0005134962,0.004969796,0.008773236,0.003109283,-0.004697878,-0.008682908,-0.004270298,0.0008411228,-0.000130464,-0.00320522,-0.001930051,0.008405224,-0.00562778,-0.001373737,-0.002479171,0.00245301,-0.001353181,-0.0040586931,-0.007579173,0.0013440239,0.0083644819,-0.003154624,-0.0023791085,0.0010069045,-0.0054656873,0.0051702014,0.0006994624,0.0034824486,-0.0072462144,0.0052447016,-0.0083203958,0.0043946239,0.0051725586,0.0009745003,0.0032161407,-0.0051139388,-0.0032772624,0.006033001,-0.0014094927,0.0080909515,-0.000225358,-0.0065439865,0.0080598667,-0.0059351549,-0.0033759263,0.0074369698,0.0031443816,0.0056888433,-0.0038387242,-0.0041442779,0.0078822179,-0.0053313421,-0.0008365121,0.0088861855,-0.0070087877,-0.0038982134,0.006126767,-0.004042502,-0.0048507154,0.0088413274,0.0040401723,-0.0021979003,0.0031610406,-0.0044759065,-0.0069246241,-0.006256151,-0.0048294845,-0.003635129,0.0044830479,0.0050095269,0.0007031667,-0.0006595597,0.0039992845,0.0081061395,-0.0023955712,0.0048162076,0.0039462289,0.0013720159,0.0034021854,0.0041271555,0.0087048421,0.0038837192,0.0049552172,-0.0078944797,-0.0042311056,-0.0071414271,-0.0017603798,-0.0040657693,2.3161876e-05,-0.0011502279,0.0074551227,0.007764772,0.0032164389,0.003967416,0.0041510682,-0.0076976256,0.00011595898,-0.0039668172,-0.0028508066,-0.0054427949,-0.0023121706,0.0075334888,-0.0034544943,0.0078736842,-0.006972237,-0.0055419458,0.0057355808,-0.0055850302,0.0082981223,0.0058236918
amikacin,-0.007397878,-0.005810355,-0.00406191,-0.0008471328,0.003516123,4.596233e-05,-0.005891727,-0.005716711,-0.002165152,-0.005531307,0.006257778,0.0001595272,-2.600818e-05,0.003183139,-0.0004994424,0.004833777,0.008533118,0.003024184,-0.004569301,-0.008445266,-0.004153421,0.0008181019,-0.0001268933,-0.003117496,-0.001877228,0.008175179,-0.005473752,-0.001336138,-0.002411318,0.002385873,-0.001316145,-0.0039476077,-0.0073717372,0.0013072384,0.0081355507,-0.0030682832,-0.0023139929,0.0009793465,-0.0053160959,0.0050286963,0.0006803187,0.0033871366,-0.0070478893,0.0051011573,-0.0080926716,0.0042743469,0.0050309869,0.0009478288,0.003128116,-0.0049739727,-0.0031875649,0.0058678812,-0.0013709156,0.0078695072,-0.0002191901,-0.0063648839,0.0078392727,-0.0057727131,-0.00328353,0.007233426,0.0030583211,0.0055331439,-0.0037336587,-0.0040308517,0.0076664854,-0.0051854258,-0.0008136173,0.0086429715,-0.0068169655,-0.0037915204,0.0059590829,-0.0039318614,-0.0047179554,0.0085993446,0.0039295941,-0.0021377457,0.003074524,-0.0043534036,-0.0067351041,-0.006084925,-0.0046973047,-0.0035356372,0.0043603494,0.0048724185,0.0006839214,-0.000641508,0.0038898257,0.0078842789,-0.0023300066,0.0046843924,0.0038382234,0.0013344652,0.0033090704,0.00401419681,0.00846659765,0.00377742387,0.00481959572,-0.00767841097,-0.00411530165,-0.00694596721,-0.00171219895,-0.00395449018,2.25279509e-05,-0.00111874635,0.00725107966,0.00755225495,0.00312840682,0.00385882915,0.00403745798,-0.00748694642,0.000112785245,-0.003858248,-0.0027727827,-0.0052938289,-0.00224888814,0.00732730143,-0.00335994712,0.0076581873,-0.00678140996,-0.00539026316,0.0055786008,-0.00543216849,0.00807100348,0.00566430204
tobramycin,-0.007234678,-0.005682178,-0.003972303,-0.000828445,0.003438556,4.49484e-05,-0.005761751,-0.005590602,-0.002117389,-0.005409284,0.006119731,0.0001560081,-2.543443e-05,0.003112918,-0.0004884245,0.004727144,0.008344877,0.00295747,-0.004468499,-0.008258959,-0.004061796,0.0008000544,-0.000124094,-0.003048722,-0.001835815,0.00799483,-0.005352999,-0.001306663,-0.002358124,0.00233324,-0.00128711,-0.0038605246,-0.0072091147,0.0012784004,0.007956082,-0.0030005958,-0.0022629467,0.0009577415,-0.0051988205,0.0049177599,0.0006653108,0.0033124152,-0.0068924124,0.0049886247,-0.0079141455,0.0041800518,0.0049200016,0.0009269195,0.0030591097,-0.004864248,-0.0031172472,0.0057384358,-0.0013406731,0.0076959026,-0.0002143547,-0.0062244735,0.0076663354,-0.0056453678,-0.0032110934,0.0070738541,0.0029908528,0.005411081,-0.0036512946,-0.0039419294,0.0074973605,-0.0050710347,-0.0007956689,0.0084523102,-0.0066665788,-0.0037078797,0.0058276216,-0.0038451231,-0.0046138759,0.0084096417,0.0038429066,-0.0020905861,0.0030067004,-0.0042573661,-0.0065865265,-0.0059506907,-0.0045936797,-0.0034576391,0.0042641605,0.0047649304,0.0006688342,-0.0006273563,0.0038040148,0.0077103535,-0.0022786055,0.0045810519,0.0037535508,0.0013050259,0.0032360712,0.00392564293,0.00827982184,0.00369409495,0.00471327361,-0.00750902388,-0.00402451865,-0.00679273997,-0.00167442742,-0.00386725366,2.20309739e-05,-0.00109406712,0.00709111849,0.00738565112,0.00305939349,0.00377370371,0.00394839048,-0.00732178334,0.000110297195,-0.0037731342,-0.00271161366,-0.00517704431,-0.00219927798,0.00716566155,-0.00328582595,0.00748924492,-0.00663181162,-0.00527135283,0.0054555363,-0.00531233288,0.00789295882,0.00553934742
meropenem,-0.006776273,-0.005322142,-0.003720609,-0.0007759527,0.003220682,4.210036e-05,-0.005396675,-0.005236366,-0.001983227,-0.005066541,0.005731971,0.000146123,-2.382285e-05,0.002915677,-0.0004574768,0.00442762,0.007816127,0.002770078,-0.004185367,-0.007735652,-0.003804431,0.000749361,-0.0001162312,-0.002855548,-0.001719494,0.00748826,-0.00501382,-0.00122387,-0.002208708,0.002185401,-0.001205556,-0.0036159127,-0.006752328,0.0011973982,0.0074519645,-0.0028104717,-0.0021195617,0.0008970569,-0.0048694103,0.0046061608,0.000623155,0.0031025331,-0.0064556934,0.0046725329,-0.0074126874,0.0039151944,0.0046082614,0.0008681878,0.0028652777,-0.004556037,-0.002919731,0.0053748335,-0.0012557249,0.0072082723,-0.0002007727,-0.0058300756,0.0071805799,-0.0052876645,-0.0030076315,0.0066256383,0.0028013459,0.005068223,-0.0034199406,-0.0036921601,0.0070223119,-0.0047497209,-0.0007452533,0.0079167513,-0.0062441695,-0.0034729389,0.0054583699,-0.003601488,-0.0043215281,0.0078767883,0.0035994123,-0.001958122,0.0028161886,-0.0039876108,-0.0061691892,-0.0055736401,-0.0043026144,-0.003238556,0.0039939727,0.0044630151,0.0006264552,-0.0005876057,0.0035629843,0.0072218073,-0.0021342281,0.0042907875,0.0035157176,0.0012223367,0.0030310259,0.0036769058,0.0077551943,0.003460028,0.0044146297,-0.0070332345,-0.0037695151,-0.0063623362,-0.001568332,-0.0036222155,2.0635041e-05,-0.0010247442,0.0066418108,0.0069176806,0.0028655438,0.0035345927,0.0036982107,-0.006857859,0.00010330851,-0.0035340604,-0.0025397998,-0.0048490157,-0.002059926,0.0067116283,-0.0030776286,0.0070147095,-0.006211604,-0.004937348,0.0051098592,-0.004975732,0.0073928437,0.0051883594
caspofungin,-0.01255757,-0.00986282,-0.006894913,-0.001437971,0.00596846,7.801904e-05,-0.01000094,-0.009703867,-0.003675252,-0.009389151,0.0106223,0.0002707905,-4.414777e-05,0.005403238,-0.0008477815,0.008205124,0.01448459,0.005133421,-0.007756188,-0.01433546,-0.007050249,0.001388692,-0.0002153959,-0.005291811,-0.003186511,0.01387701,-0.009291451,-0.002268037,-0.004093105,0.004049915,-0.002234098,-0.0067008967,-0.0125131961,0.0022189808,0.0138097508,-0.0052082739,-0.0039279042,0.0016623971,-0.0090238387,0.0085359886,0.0011548112,0.0057495153,-0.0119634839,0.0086589847,-0.0137369568,0.007255516,0.0085398825,0.0016088974,0.0053098411,-0.0084431032,-0.0054107504,0.0099604763,-0.0023270694,0.0133581376,-0.0003720657,-0.0108041158,0.0133068291,-0.0097989272,-0.0055736504,0.0122784236,0.0051913667,0.0093922652,-0.006337722,-0.006842196,0.01301352,-0.008802035,-0.00138108,0.01467107,-0.011571502,-0.006435942,0.010115278,-0.006674162,-0.008008519,0.014597005,0.006670315,-0.003628728,0.005218871,-0.007389714,-0.011432543,-0.010328898,-0.007973472,-0.006001587,0.007401499,0.008270715,0.001160928,-0.001088933,0.006602811,0.013383221,-0.003955084,0.00795155,0.006515216,0.002265196,0.005617,0.00681392523,0.0143716726,0.0064120153,0.00818104669,-0.0130337663,-0.00698554562,-0.0117904786,-0.00290638325,-0.00671257079,3.82402141e-05,-0.00189902366,0.012308388,0.0128196189,0.00531033287,0.00655019656,0.00685340725,-0.0127087664,0.000191448096,-0.00654920563,-0.00470667286,-0.00898603909,-0.00381738972,0.012437772,-0.00570336403,0.0129994331,-0.0115111545,-0.00914973859,0.00946943089,-0.00922087114,0.0137001863,0.00961490162
nitrofurantoin,-0.006686056,-0.005251284,-0.003671074,-0.0007656217,0.003177802,4.153985e-05,-0.005324825,-0.005166651,-0.001956822,-0.004999086,0.005655655,0.0001441775,-2.350568e-05,0.002876858,-0.000451386,0.004368672,0.007712064,0.002733197,-0.004129643,-0.007632662,-0.003753779,0.000739384,-0.0001146837,-0.00281753,-0.001696601,0.007388563,-0.004947067,-0.001207575,-0.002179301,0.002156305,-0.001189505,-0.0035677708,-0.0066624298,0.0011814561,0.0073527498,-0.0027730535,-0.0020913419,0.0008851137,-0.0048045809,0.0045448346,0.0006148585,0.0030612263,-0.0063697435,0.0046103243,-0.0073139966,0.0038630685,0.0045469068,0.0008566288,0.0028271296,-0.004495379,-0.0028808585,0.0053032753,-0.0012390066,0.0071123028,-0.0001980997,-0.0057524559,0.0070849792,-0.0052172644,-0.0029675891,0.0065374272,0.0027640497,0.0050007454,-0.003374408,-0.0036430042,0.0069288178,-0.004686485,-0.0007353313,0.0078113503,-0.0061610369,-0.0034267011,0.0053856992,-0.0035535379,-0.0042639934,0.0077719176,0.0035514899,-0.001932052,0.0027786943,-0.0039345198,-0.0060870531,-0.0054994337,-0.004245332,-0.0031954378,0.0039407969,0.0044035963,0.0006181147,-0.0005797823,0.0035155474,0.0071256561,-0.0021058135,0.0042336592,0.0034689095,0.001206063,0.0029906717,0.0036279522,0.0076519428,0.003413962,0.0043558534,-0.0069395951,-0.0037193289,-0.0062776301,-0.0015474514,-0.0035739904,2.0360312e-05,-0.0010111011,0.0065533831,0.0068255793,0.0028273929,0.0034875339,0.0036489735,-0.006766553,0.00010193309,-0.0034870082,-0.0025059849,-0.0047844579,-0.0020325007,0.0066222707,-0.0030366534,0.006921317,-0.0061289044,-0.0048716147,0.0050418279,-0.0049094865,0.007294416,0.0051192823
tigecycline,-0.006933378,-0.005445533,-0.003806868,-0.0007939425,0.003295351,4.307644e-05,-0.005521792,-0.005357768,-0.002029207,-0.005184005,0.005864861,0.0001495107,-2.437517e-05,0.002983276,-0.0004680831,0.004530272,0.007997337,0.002834301,-0.004282401,-0.007914998,-0.003892635,0.0007667344,-0.0001189259,-0.002921753,-0.001759359,0.007661869,-0.005130062,-0.001252244,-0.002259915,0.002236068,-0.001233506,-0.0036997453,-0.0069088764,0.0012251592,0.0076247328,-0.0028756307,-0.0021687017,0.0009178546,-0.0049823052,0.0047129514,0.0006376023,0.0031744626,-0.0066053658,0.0047808634,-0.0075845453,0.0040059653,0.0047150995,0.0008883161,0.0029317078,-0.0046616667,-0.0029874232,0.0054994458,-0.0012848382,0.0073753898,-0.0002054276,-0.0059652426,0.0073470576,-0.0054102545,-0.0030773615,0.0067792507,0.0028662938,0.0051857266,-0.0034992304,-0.0037777603,0.0071851173,-0.004859841,-0.0007625316,0.0081002945,-0.0063889381,-0.0035534576,0.0055849194,-0.0036849862,-0.0044217217,0.0080594076,0.0036828616,-0.0020035196,0.0028814799,-0.0040800604,-0.0063122176,-0.0057028625,-0.0044023693,-0.0033136392,0.0040865708,0.0045664869,0.000640979,-0.0006012289,0.0036455896,0.007389239,-0.0021837091,0.0043902667,0.0035972267,0.0012506758,0.0031012993,0.00376215251,0.0079349922,0.00354024582,0.00451697968,-0.00719629554,-0.00385690969,-0.00650984235,-0.00160469266,-0.00370619469,2.1113452e-05,-0.00104850251,0.00679579703,0.00707806135,0.00293197948,0.00361653999,0.00378395175,-0.0070168525,0.000105703664,-0.0036159947,-0.00259868288,-0.00496143708,-0.0021076838,0.00686723134,-0.0031489809,0.00717734173,-0.0063556158,-0.00505181774,0.00522832945,-0.00509109115,0.007564242,0.00530864857
cefpodoxime,-0.00677114,-0.005318109,-0.00371779,-0.0007753646,0.003218241,4.206847e-05,-0.005392585,-0.005232399,-0.001981724,-0.005062702,0.005727625,0.0001460123,-2.38048e-05,0.002913468,-0.0004571301,0.004424266,0.007810205,0.002767979,-0.004182194,-0.007729791,-0.003801548,0.0007487932,-0.0001161431,-0.002853384,-0.001718191,0.007482586,-0.005010021,-0.001222942,-0.002207034,0.002183745,-0.001204642,-0.0036131728,-0.0067472123,0.0011964906,0.007446317,-0.0028083418,-0.0021179551,0.0008963771,-0.0048657209,0.0046026693,0.000622683,0.0031001824,-0.0064508021,0.0046689925,-0.0074070701,0.0039122282,0.0046047689,0.0008675298,0.0028631068,-0.0045525851,-0.0029175188,0.0053707622,-0.0012547736,0.0072028101,-0.0002006206,-0.0058256583,0.0071751378,-0.0052836565,-0.0030053526,0.006620619,0.0027992229,0.0050643799,-0.0034173485,-0.0036893631,0.0070169903,-0.0047461228,-0.0007446886,0.0079107536,-0.0062394375,-0.0034703072,0.0054542343,-0.0035987583,-0.0043182536,0.0078708213,0.0035966844,-0.0019566379,0.0028140538,-0.0039845877,-0.006164514,-0.005569417,-0.0042993552,-0.0032361012,0.0039909463,0.004459633,0.0006259806,-0.0005871602,0.0035602839,0.0072163334,-0.0021326107,0.0042875344,0.0035130533,0.0012214106,0.003028729,0.003674119,0.0077493181,0.0034574061,0.0044112829,-0.0070279031,-0.0037666592,-0.0063575152,-0.0015671436,-0.0036194711,2.0619404e-05,-0.0010239676,0.006636777,0.0069124359,0.0028633731,0.0035319144,0.0036954086,-0.0068526599,0.00010323024,-0.0035313815,-0.0025378743,-0.0048453426,-0.0020583656,0.0067065419,-0.0030752963,0.0070093945,-0.006206899,-0.0049336078,0.0051059872,-0.004971962,0.0073872409,0.0051844292
aztreonam,-0.006826202,-0.005361359,-0.003748023,-0.00078167,0.003244412,4.241057e-05,-0.005436439,-0.005274948,-0.001997839,-0.005103873,0.005774205,0.0001471997,-2.399838e-05,0.00293716,-0.0004608476,0.004460245,0.007873715,0.002790488,-0.004216203,-0.00779265,-0.003832463,0.0007548825,-0.0001170875,-0.002876588,-0.001732163,0.007543434,-0.005050764,-0.001232888,-0.002224982,0.002201503,-0.001214438,-0.0036425546,-0.0068020807,0.0012062207,0.0075068721,-0.0028311792,-0.0021351788,0.0009036665,-0.0049052904,0.0046400996,0.0006277465,0.0031253928,-0.0065032598,0.0047069611,-0.0074673067,0.0039440435,0.004642216,0.0008745845,0.0028863887,-0.0045896065,-0.0029412436,0.0054144394,-0.0012649774,0.0072613847,-0.0002022521,-0.0058730324,0.0072334865,-0.0053266231,-0.0030297933,0.0066744578,0.0028219866,0.0051055658,-0.0034451389,-0.003719365,0.0070740525,-0.0047847177,-0.0007507445,0.0079750856,-0.0062901787,-0.0034985282,0.005498589,-0.0036280241,-0.004353371,0.0079348246,0.0036259326,-0.0019725498,0.0028369387,-0.0040169912,-0.0062146443,-0.0056147077,-0.0043343185,-0.0032624179,0.0040233997,0.0044958987,0.000631071,-0.000591935,0.0035892369,0.0072750184,-0.0021499535,0.0043224012,0.0035416218,0.0012313434,0.0030533595,0.0037039977,0.0078123342,0.003485522,0.0044471566,-0.0070850574,-0.0037972904,-0.0064092143,-0.0015798877,-0.0036489046,2.0787083e-05,-0.0010322949,0.006690749,0.0069686505,0.0028866581,0.0035606364,0.0037254598,-0.0069083874,0.0001040697,-0.0035600998,-0.0025585128,-0.004884745,-0.0020751038,0.0067610797,-0.0031003049,0.0070663947,-0.0062573734,-0.0049737291,0.0051475107,-0.0050123944,0.0074473144,0.0052265888
cefoxitin,-0.006754534,-0.00530507,-0.003708673,-0.0007734635,0.00321035,4.19653e-05,-0.005379362,-0.005219569,-0.001976864,-0.005050288,0.005713581,0.0001456542,-2.374642e-05,0.002906323,-0.0004560092,0.004413416,0.007791053,0.002761191,-0.00417194,-0.007710837,-0.003792226,0.000746957,-0.0001158582,-0.002846388,-0.001713978,0.007464238,-0.004997736,-0.001219944,-0.002201622,0.00217839,-0.001201689,-0.0036043124,-0.0067306659,0.0011935567,0.0074280594,-0.0028014558,-0.0021127618,0.0008941792,-0.0048537902,0.0045913844,0.0006211561,0.0030925795,-0.0064349831,0.0046575437,-0.0073889084,0.0039026346,0.0045934776,0.0008654026,0.0028560855,-0.0045414227,-0.0029103647,0.0053575919,-0.0012516966,0.0071851481,-0.0002001286,-0.0058113742,0.0071575441,-0.0052707004,-0.002997983,0.0066043837,0.0027923596,0.0050519635,-0.0034089694,-0.0036803167,0.0069997828,-0.0047344849,-0.0007428625,0.0078913551,-0.0062241401,-0.0034617977,0.0054408596,-0.0035899337,-0.0043076659,0.0078515196,0.0035878646,-0.0019518402,0.0028071539,-0.0039748182,-0.0061493968,-0.0055557596,-0.0042888131,-0.0032281661,0.0039811586,0.0044486984,0.0006244455,-0.0005857205,0.0035515546,0.0071986397,-0.0021273817,0.0042770226,0.0035044388,0.0012184154,0.0030213029,0.0036651096,0.0077303145,0.003448928,0.0044004684,-0.0070106713,-0.0037574233,-0.0063419254,-0.0015633006,-0.0036105956,2.056885e-05,-0.0010214571,0.0066205035,0.0068954881,0.002856351,0.0035232536,0.0036863468,-0.0068358574,0.00010297711,-0.0035227227,-0.0025316523,-0.0048334594,-0.0020533176,0.006690097,-0.0030677561,0.0069922069,-0.0061916774,-0.0049215108,0.0050934679,-0.00495977,0.0073691262,0.0051717162
levofloxacin,-0.006778333,-0.00532376,-0.003721741,-0.0007761885,0.003221661,4.211316e-05,-0.005398315,-0.005237959,-0.001983829,-0.005068081,0.005733714,0.0001461674,-2.383009e-05,0.002916563,-0.0004576159,0.004428966,0.007818501,0.00277092,-0.004186638,-0.007738004,-0.003805587,0.0007495887,-0.0001162665,-0.002856416,-0.001720016,0.007490536,-0.005015344,-0.001224242,-0.002209379,0.002186065,-0.001205922,-0.0036170117,-0.0067543825,0.001197762,0.0074542295,-0.0028113262,-0.0021202054,0.0008973297,-0.0048708902,0.0046075601,0.0006233445,0.0031034762,-0.0064576552,0.0046739532,-0.0074149426,0.003916386,0.0046096621,0.0008684514,0.0028661489,-0.0045574228,-0.0029206185,0.0053764689,-0.0012561066,0.0072104624,-0.0002008337,-0.0058318479,0.0071827634,-0.005289271,-0.0030085465,0.0066276537,0.0028021976,0.0050697634,-0.0034209797,-0.0036932833,0.0070244451,-0.0047511654,-0.0007454801,0.007919156,-0.0062460685,-0.0034739948,0.0054600299,-0.0036025816,-0.0043228432,0.0078791827,0.0036005056,-0.0019587171,0.0028170447,-0.0039888215,-0.0061710645,-0.0055753347,-0.0043039243,-0.0032395399,0.0039951852,0.0044643716,0.0006266456,-0.0005877841,0.0035640672,0.0072240019,-0.002134877,0.0042920909,0.0035167865,0.0012227084,0.0030319477,0.00367802288,0.00775755104,0.00346107921,0.00441597216,-0.00703537278,-0.00377066154,-0.00636426965,-0.00156880869,-0.00362331653,2.06413133e-05,-0.00102505577,0.0066438294,0.00691978121,0.00286641507,0.00353566767,0.00369933527,-0.00685994281,0.000103339924,-0.00353513379,-0.00254057115,-0.00485049002,-0.00206055213,0.00671366742,-0.00307856337,0.00701684086,-0.00621349178,-0.00493884971,0.00511141401,-0.00497724488,0.007395091,0.00518993707
colistin,-0.01485295,-0.01166563,-0.008155221,-0.001700814,0.007059422,9.227994e-05,-0.011829,-0.01147762,-0.004347041,-0.01110537,0.01256393,0.0003202875,-5.221739e-05,0.006390889,-0.001002746,0.009704915,0.01713221,0.006071742,-0.00917392,-0.01695581,-0.008338945,0.001642527,-0.0002547674,-0.006259086,-0.003768964,0.01641356,-0.01098981,-0.002682605,-0.004841276,0.004790189,-0.002642462,-0.0079257349,-0.0148004536,0.0026245809,0.0163339898,-0.0061602849,-0.0046458724,0.0019662634,-0.0106732836,0.0100962641,0.0013658963,0.0068004527,-0.0141502544,0.0102417441,-0.0162478965,0.0085817287,0.0101008648,0.0019029841,0.0062804189,-0.0099863987,-0.0063997749,0.0117811169,-0.0027524282,0.0157998353,-0.0004400748,-0.0127789667,0.0157391373,-0.0115900524,-0.0065924441,0.014522762,0.0061402814,0.0111090541,-0.00749618,-0.008092863,0.01539223,-0.010410941,-0.001633524,0.017352773,-0.013686627,-0.007612352,0.011964222,-0.007894115,-0.009472382,0.017265173,0.007889562,-0.004292015,0.006172818,-0.008740459,-0.013522264,-0.012216882,-0.009430917,-0.007098602,0.008754402,0.009782502,0.001373129,-0.001287975,0.007809722,0.015829505,-0.004678021,0.00940499,0.007706117,0.002679245,0.006643721,0.00805942994,0.0169986431,0.0075840489,0.00967644621,-0.0154161723,-0.00826241821,-0.0139456224,-0.00343763269,-0.0079395473,4.52300264e-05,-0.00224614143,0.0145582035,0.0151628805,0.00628099777,0.00774748763,0.00810612179,-0.0150317661,0.000226442367,-0.00774632161,-0.00556699699,-0.0106285876,-0.00451515988,0.0147112478,-0.0067458651,0.0153755629,-0.0136152515,-0.0108221965,0.0112003246,-0.0109063257,0.0162044112,0.0113723855
oxacillin,-0.006788989,-0.005332129,-0.003727591,-0.0007774087,0.003226725,4.217937e-05,-0.005406802,-0.005246193,-0.001986948,-0.005076047,0.005742726,0.0001463972,-2.386755e-05,0.002921148,-0.0004583353,0.004435928,0.007830792,0.002775276,-0.004193219,-0.007750168,-0.00381157,0.0007507672,-0.0001164492,-0.002860907,-0.00172272,0.00750231,-0.005023228,-0.001226167,-0.002212852,0.002189501,-0.001207818,-0.0036226977,-0.0067649996,0.0011996446,0.0074659484,-0.0028157451,-0.0021235386,0.0008987404,-0.004878548,0.0046148044,0.0006243244,0.003108355,-0.0064678071,0.0046813008,-0.0074265976,0.0039225416,0.0046169087,0.0008698168,0.0028706542,-0.0045645852,-0.0029252099,0.0053849202,-0.0012580818,0.0072217984,-0.0002011494,-0.0058410154,0.0071940548,-0.0052975854,-0.0030132756,0.0066380724,0.0028066034,0.0050777327,-0.0034263583,-0.0036990892,0.0070354887,-0.0047586346,-0.000746652,0.0079316068,-0.0062558879,-0.0034794563,0.0054686125,-0.0036082459,-0.0043296395,0.0078915684,0.0036061658,-0.0019617968,0.0028214729,-0.003995093,-0.0061807646,-0.0055840989,-0.0043106913,-0.0032446329,0.0040014666,0.004471391,0.0006276306,-0.0005887082,0.00356967,0.007235358,-0.0021382326,0.0042988388,0.0035223148,0.0012246306,0.0030367144,0.00368380523,0.00776974764,0.00346652069,0.00442291331,-0.00704643223,-0.00377658894,-0.00637427531,-0.0015712746,-0.00362901227,2.06737677e-05,-0.00102666742,0.00665427186,0.00693066092,0.00287092174,0.00354122487,0.00370515045,-0.00687072752,0.000103502396,-0.00354069145,-0.00254456582,-0.00485811476,-0.00206379197,0.0067242221,-0.00308340322,0.00702787284,-0.00622325949,-0.00494661322,0.00511944899,-0.00498506892,0.00740671717,0.00519809499
fusidic acid,-0.00706545,-0.005549264,-0.003879386,-0.0008090663,0.003358124,4.389699e-05,-0.005626977,-0.005459827,-0.00206786,-0.005282755,0.005976582,0.0001523588,-2.483948e-05,0.003040104,-0.0004769996,0.004616569,0.008149679,0.00288829,-0.004363976,-0.008065769,-0.003966785,0.0007813398,-0.0001211913,-0.002977409,-0.001792873,0.00780782,-0.005227784,-0.001276098,-0.002302964,0.002278663,-0.001257003,-0.0037702215,-0.0070404834,0.0012484971,0.0077699753,-0.0029304083,-0.0022100136,0.0009353388,-0.005077214,0.0048027271,0.0006497481,0.0032349324,-0.0067311893,0.0048719319,-0.0077290237,0.0040822751,0.0048049176,0.0009052374,0.0029875534,-0.0047504664,-0.0030443305,0.0056042043,-0.0013093129,0.0075158849,-0.0002093407,-0.0060788733,0.0074870116,-0.0055133128,-0.0031359817,0.0069083874,0.002920893,0.0052845078,-0.0035658863,-0.0038497236,0.0073219873,-0.0049524158,-0.000777057,0.008254597,-0.0065106386,-0.003621147,0.0056913057,-0.0037551802,-0.0045059519,0.0082129296,0.0037530158,-0.0020416847,0.0029363686,-0.0041577797,-0.0064324574,-0.0058114934,-0.0044862288,-0.0033767605,0.0041644154,0.0046534748,0.0006531892,-0.0006126814,0.0037150348,0.0075299968,-0.0022253064,0.0044738953,0.0036657508,0.0012744999,0.0031603749,0.0038338171,0.0080861477,0.0036076845,0.0046030236,-0.007333376,-0.0039303782,-0.006633848,-0.0016352601,-0.0037767936,2.151564e-05,-0.0010684755,0.0069252499,0.0072128894,0.0029878311,0.0036854311,0.0038560315,-0.0071505154,0.00010771719,-0.0036848758,-0.0026481857,-0.0050559472,-0.0021478331,0.0069980463,-0.0032089653,0.0073140613,-0.0064766849,-0.0051480494,0.00532792,-0.0051880721,0.0077083311,0.0054097734
fluconazole,-0.006723973,-0.005281066,-0.003691894,-0.0007699638,0.003195824,4.177544e-05,-0.005355025,-0.005195953,-0.00196792,-0.005027438,0.00568773,0.0001449952,-2.363898e-05,0.002893174,-0.000453946,0.004393448,0.007755801,0.002748698,-0.004153063,-0.007675949,-0.003775069,0.0007435775,-0.0001153341,-0.002833509,-0.001706223,0.007430465,-0.004975126,-0.001214424,-0.00219166,0.002168535,-0.001196252,-0.0035880045,-0.006700214,0.0011881564,0.0073944507,-0.0027887805,-0.002103202,0.0008901335,-0.0048318286,0.0045706104,0.0006183456,0.0030785878,-0.006405869,0.0046364707,-0.0073554772,0.0038849774,0.0045726942,0.0008614871,0.0028431634,-0.0045208745,-0.0028971969,0.0053333519,-0.0012460334,0.0071526379,-0.0001992232,-0.0057850783,0.0071251607,-0.005246853,-0.002984419,0.0065745022,0.0027797252,0.005029107,-0.0033935453,-0.0036636649,0.0069681127,-0.0047130636,-0.0007395016,0.00785565,-0.0061959787,-0.003446135,0.0054162433,-0.0035736912,-0.0042881756,0.0078159943,0.0035716316,-0.0019430093,0.0027944532,-0.0039568334,-0.0061215744,-0.0055306228,-0.0042694085,-0.0032135607,0.0039631464,0.0044285692,0.0006216203,-0.0005830703,0.0035354851,0.0071660681,-0.0021177568,0.0042576701,0.0034885833,0.0012129032,0.0030076324,0.003648527,0.007695341,0.0034333235,0.0043805572,-0.0069789533,-0.0037404224,-0.0063132327,-0.0015562276,-0.0035942597,2.047578e-05,-0.0010168354,0.0065905489,0.0068642893,0.0028434279,0.0035073129,0.003669668,-0.0068049291,0.00010251118,-0.0035067836,-0.0025201975,-0.0048115915,-0.0020440279,0.0066598258,-0.0030538752,0.0069605703,-0.0061636651,-0.0048992424,0.0050704223,-0.0049373307,0.0073357848,0.0051483153
posaconazole,-0.007500124,-0.00589066,-0.00411805,-0.0008588411,0.003564719,4.659758e-05,-0.005973156,-0.005795723,-0.002195078,-0.005607755,0.006344267,0.0001617321,-2.636763e-05,0.003227133,-0.0005063451,0.004900585,0.008651057,0.003065981,-0.004632451,-0.008561984,-0.004210825,0.0008294087,-0.0001286471,-0.003160582,-0.001903172,0.008288166,-0.005549405,-0.001354605,-0.002444644,0.002418849,-0.001334335,-0.0040021678,-0.0074736206,0.0013253057,0.0082479911,-0.00311069,-0.0023459759,0.0009928816,-0.0053895689,0.0050981962,0.0006897217,0.0034339493,-0.0071452991,0.0051716589,-0.0082045216,0.0043334216,0.0051005231,0.0009609286,0.0031713506,-0.0050427192,-0.0032316209,0.0059489827,-0.0013898633,0.007978267,-0.0002222195,-0.0064528515,0.00794762,-0.0058524963,-0.003328912,0.0073333979,0.0031005889,0.0056096152,-0.0037852628,-0.0040865629,0.0077724424,-0.0052570929,-0.0008248622,0.0087624313,-0.00691118,-0.0038439224,0.0060414416,-0.0039862022,-0.0047831628,0.0087181982,0.0039839055,-0.0021672905,0.0031170175,-0.0044135731,-0.0068281875,-0.006169023,-0.0047622276,-0.0035845016,0.0044206134,0.004939761,0.0006933741,-0.0006503743,0.0039435853,0.0079932464,-0.0023622098,0.0047491328,0.0038912706,0.0013529082,0.0033548044,0.00406967709,0.00858361553,0.00382963312,0.00488620298,-0.00778453331,-0.00417218078,-0.0070419698,-0.00173586304,-0.00400914578,2.28393092e-05,-0.0011342091,0.00735129695,0.00765663572,0.00317164534,0.0039121625,0.00409325818,-0.0075904238,0.000114344075,-0.00391157297,-0.00281110266,-0.00536699453,-0.00227996986,0.00742857251,-0.00340638496,0.00776403071,-0.00687513826,-0.00546476385,0.00565570081,-0.0055072438,0.0081825573,0.00574258715
moxifloxacin,-0.006974002,-0.00547744,-0.003829175,-0.0007985945,0.003314659,4.332883e-05,-0.005554149,-0.005389161,-0.002041095,-0.00521438,0.005899225,0.0001503868,-2.451799e-05,0.003000756,-0.0004708257,0.004556816,0.008044197,0.002850908,-0.004307494,-0.007961374,-0.003915443,0.000771227,-0.0001196227,-0.002938872,-0.001769668,0.007706765,-0.005160122,-0.001259582,-0.002273156,0.00224917,-0.001240733,-0.003721423,-0.0069493586,0.0012323376,0.0076694097,-0.00289248,-0.0021814092,0.0009232327,-0.0050114985,0.0047405665,0.0006413385,0.0031930637,-0.0066440683,0.0048088739,-0.0076289871,0.0040294374,0.0047427262,0.0008935208,0.0029488853,-0.0046889796,-0.0030049277,0.0055316701,-0.0012923665,0.007418606,-0.0002066312,-0.0060001938,0.007390107,-0.0054419558,-0.0030953933,0.0068189721,0.0028830881,0.0052161124,-0.0035197327,-0.0037998955,0.0072272178,-0.0048883157,-0.0007669996,0.0081477594,-0.006426373,-0.003574278,0.0056176437,-0.0037065775,-0.0044476306,0.0081066303,0.0037044401,-0.0020152589,0.0028983639,-0.0041039665,-0.0063492022,-0.0057362774,-0.004428165,-0.0033330554,0.0041105147,0.0045932438,0.0006447348,-0.0006047514,0.0036669502,0.0074325353,-0.0021965038,0.0044159899,0.0036183049,0.0012580041,0.0031194699,0.0037841953,0.0079814857,0.0035609899,0.0045434465,-0.0072384607,-0.003879508,-0.0065479875,-0.0016140947,-0.0037279101,2.1237161e-05,-0.0010546457,0.0068356143,0.0071195355,0.0029491591,0.0036377306,0.0038061228,-0.0070579676,0.000106323,-0.0036371814,-0.0026139098,-0.0049905092,-0.0021200338,0.0069074691,-0.0031674323,0.0072193965,-0.0063928575,-0.005081418,0.0052589634,-0.0051209205,0.0076085636,0.0053397529
clarithromycin,-0.008569769,-0.006730769,-0.004705356,-0.0009813263,0.00407311,5.324319e-05,-0.006825029,-0.006622292,-0.002508133,-0.006407517,0.007249069,0.0001847978,-3.01281e-05,0.003687376,-0.0005785585,0.00559949,0.009884839,0.003503241,-0.005293121,-0.00978307,-0.004811361,0.0009476964,-0.0001469943,-0.003611333,-0.002174597,0.009470202,-0.006340843,-0.001547795,-0.002793293,0.002763816,-0.001524634,-0.0045729442,-0.0085394867,0.0015143169,0.0094242943,-0.0035543265,-0.002680552,0.0011344835,-0.0061582145,0.0058252849,0.0007880871,0.0039236885,-0.0081643378,0.0059092245,-0.0093746241,0.0049514393,0.0058279387,0.0010979732,0.0036236392,-0.0057618967,-0.0036925043,0.0067974068,-0.0015880814,0.009116102,-0.0002539118,-0.0073731397,0.0090810889,-0.0066871657,-0.0038036702,0.0083792694,0.003542786,0.0064096432,-0.0043251072,-0.004669378,0.0088809291,-0.0060068415,-0.0009425017,0.0100121,-0.0078968331,-0.0043921336,0.0069030505,-0.0045547024,-0.0054653203,0.0099615604,0.004552078,-0.0024763835,0.0035615563,-0.0050430228,-0.0078020049,-0.0070488276,-0.0054414002,-0.0040957122,0.0050510685,0.0056442539,0.000792261,-0.0007431292,0.0045060087,0.0091332197,-0.0026991009,0.0054264413,0.0044462318,0.0015458562,0.0038332567,0.004650081,0.0098077804,0.0043758038,0.005583059,-0.0088947387,-0.0047672046,-0.0080462722,-0.001983426,-0.0045809187,2.6096575e-05,-0.001295966,0.0083997194,0.0087486021,0.0036239752,0.0044701053,0.0046770275,-0.0086729471,0.00013065146,-0.0044694305,-0.0032120149,-0.0061324174,-0.0026051318,0.0084880125,-0.0038921933,0.0088713095,-0.0078556472,-0.0062441323,0.0064623016,-0.0062926705,0.0093495259,0.006561575
anidulafungin,-0.01212117,-0.009520071,-0.006655305,-0.001387999,0.00576105,7.530775e-05,-0.009653391,-0.009366645,-0.003547532,-0.009062861,0.01025316,0.00026138,-4.261354e-05,0.005215464,-0.0008183189,0.007919981,0.01398123,0.004955025,-0.007486649,-0.01383728,-0.006805238,0.001340433,-0.0002079105,-0.005107912,-0.003075775,0.01339476,-0.008968559,-0.002189218,-0.003950862,0.003909172,-0.002156459,-0.0064680264,-0.0120783467,0.0021418668,0.0133298347,-0.0050272793,-0.0037914026,0.001604626,-0.0087102409,0.0082393521,0.0011146789,0.0055497056,-0.0115477322,0.0083580697,-0.0132595683,0.007003367,0.0082431035,0.0015529847,0.0051253126,-0.00814969,-0.0052227192,0.0096143261,-0.0022462008,0.0128939161,-0.0003591355,-0.0104286484,0.0128443865,-0.0094583985,-0.0053799539,0.0118517261,0.0050109541,0.0090658758,-0.006117479,-0.006604419,0.01256128,-0.008496143,-0.001333084,0.014161218,-0.011169363,-0.006212278,0.009763753,-0.006442225,-0.007730209,0.01408974,0.006438507,-0.003502626,0.005037503,-0.007132904,-0.011035237,-0.00996994,-0.00769638,-0.005793019,0.007144286,0.007983294,0.001120582,-0.001051089,0.006373353,0.012918127,-0.003817636,0.007675217,0.006288798,0.002186477,0.005421801,0.00657712668,0.013872236,0.00618918566,0.00789674278,-0.0125808204,-0.00674278429,-0.0113807376,-0.00280538248,-0.00647930196,3.69112822e-05,-0.00183302944,0.0118806493,0.012374117,0.0051257913,0.00632255664,0.0066152378,-0.0122671127,0.000184794873,-0.00632160809,-0.00454310467,-0.00867376011,-0.00368472957,0.0120055377,-0.00550516089,0.0125476858,-0.011111116,-0.0088317655,0.00914034713,-0.00890042447,0.0132240746,0.00928077102
clindamycin,-0.006902785,-0.005421505,-0.003790072,-0.0007904394,0.003280811,4.288636e-05,-0.005497429,-0.005334129,-0.002020253,-0.005161131,0.005838983,0.0001488511,-2.426762e-05,0.002970111,-0.0004660178,0.004510282,0.007962052,0.002821793,-0.004263504,-0.007880076,-0.003875458,0.0007633512,-0.0001184011,-0.00290886,-0.001751596,0.007628063,-0.005107428,-0.001246719,-0.002249944,0.002226202,-0.001228064,-0.0036834208,-0.0068783914,0.0012197529,0.0075910897,-0.0028629419,-0.0021591326,0.0009138046,-0.0049603223,0.0046921559,0.0006347892,0.0031604562,-0.0065762196,0.004759769,-0.0075510806,0.0039882911,0.0046942961,0.0008843964,0.0029187712,-0.0046410947,-0.0029742415,0.0054751807,-0.0012791688,0.0073428489,-0.0002045211,-0.0059389221,0.0073146392,-0.0053863823,-0.003063783,0.0067493371,0.0028536462,0.0051628449,-0.0034837893,-0.0037610913,0.007153416,-0.0048383963,-0.0007591669,0.0080645531,-0.0063607469,-0.003537778,0.005560277,-0.0036687257,-0.0044022133,0.0080238478,0.0036666109,-0.0019946797,0.0028687664,-0.0040620575,-0.006284365,-0.0056776991,-0.0043829428,-0.0032990181,0.0040685386,0.0045463392,0.0006381508,-0.000598576,0.003629504,0.0073566358,-0.0021740736,0.0043708938,0.0035813542,0.0012451573,0.0030876144,0.00374555285,0.00789998192,0.00352462567,0.00449704984,-0.0071645421,-0.00383989164,-0.00648112036,-0.00159761216,-0.00368984137,2.10202925e-05,-0.00104387617,0.0067658117,0.00704683084,0.00291904248,0.00360058225,0.00376725476,-0.00698589254,0.000105237246,-0.00360003975,-0.00258721691,-0.00493954681,-0.00209838455,0.00683693215,-0.00313508674,0.00714567117,-0.00632757414,-0.00502952747,0.00520525826,-0.00506862719,0.00753086666,0.00528522534
ertapenem,-0.006868001,-0.005394186,-0.003770974,-0.0007864563,0.003264279,4.267025e-05,-0.005469727,-0.005307251,-0.002010073,-0.005135125,0.00580956,0.000148101,-2.414533e-05,0.002955145,-0.0004636694,0.004487554,0.007921928,0.002807574,-0.004242022,-0.007840367,-0.003855929,0.0007595046,-0.0001178045,-0.002894202,-0.00174277,0.007589625,-0.00508169,-0.001240437,-0.002238605,0.002214984,-0.001221875,-0.0036648593,-0.0068437313,0.0012136066,0.007552838,-0.0028485158,-0.0021482531,0.0009091999,-0.0049353261,0.0046685119,0.0006315904,0.0031445301,-0.0065430794,0.0047357832,-0.0075130286,0.0039681927,0.00467064,0.0008799397,0.0029040626,-0.0046177097,-0.0029592535,0.0054475912,-0.0012727232,0.0073058461,-0.0002034905,-0.0059089949,0.0072777802,-0.0053592394,-0.0030483445,0.0067153275,0.0028392659,0.0051368284,-0.0034662343,-0.0037421398,0.0071173673,-0.0048140162,-0.0007553415,0.0080239158,-0.0063286945,-0.0035199507,0.0055322582,-0.0036502392,-0.0043800268,0.0079834107,0.0036481351,-0.0019846277,0.0028543093,-0.0040415884,-0.0062526977,-0.0056490875,-0.0043608588,-0.0032823945,0.0040480359,0.0045234282,0.0006349352,-0.0005955595,0.0036112142,0.0073195649,-0.0021631187,0.004348868,0.0035633072,0.0012388831,0.0030720548,0.0037266784,0.0078601716,0.0035068642,0.004474388,-0.0071284394,-0.0038205413,-0.0064484603,-0.0015895615,-0.0036712477,2.0914365e-05,-0.0010386155,0.0067317165,0.0070113195,0.0029043334,0.0035824394,0.0037482721,-0.0069506895,0.00010470694,-0.0035818983,-0.0025741793,-0.004914654,-0.0020878101,0.0068024797,-0.0031192889,0.0071096639,-0.0062956885,-0.0050041825,0.0051790318,-0.0050430857,0.0074929157,0.0052585918
chloramphenicol,-0.006649421,-0.005222512,-0.00365096,-0.0007614269,0.00316039,4.131224e-05,-0.00529565,-0.005138341,-0.0019461,-0.004971695,0.005624667,0.0001433876,-2.337688e-05,0.002861095,-0.0004489128,0.004344735,0.007669808,0.002718221,-0.004107016,-0.007590841,-0.003733212,0.000735333,-0.0001140553,-0.002802093,-0.001687305,0.00734808,-0.004919962,-0.001200959,-0.00216736,0.00214449,-0.001182988,-0.0035482224,-0.0066259243,0.0011749828,0.0073124631,-0.0027578599,-0.0020798831,0.000880264,-0.0047782557,0.0045199329,0.0006114895,0.0030444528,-0.0063348426,0.0045850631,-0.0072739217,0.0038419017,0.0045219935,0.0008519351,0.0028116393,-0.0044707474,-0.0028650735,0.005274218,-0.0012322178,0.0070733326,-0.0001970142,-0.0057209358,0.0070461584,-0.0051886779,-0.0029513284,0.0065016067,0.0027489043,0.0049733454,-0.0033559189,-0.0036230432,0.0068908534,-0.0046608066,-0.0007313021,0.00776855,-0.0061272793,-0.0034079254,0.0053561898,-0.0035340679,-0.0042406302,0.0077293338,0.0035320302,-0.0019214657,0.0027634688,-0.0039129611,-0.006053701,-0.0054693017,-0.0042220708,-0.0031779294,0.0039192047,0.0043794671,0.0006147279,-0.0005766055,0.0034962846,0.0070866141,-0.0020942756,0.0042104623,0.0034499029,0.0011994545,0.002974285,0.0036080731,0.007610017,0.0033952559,0.0043319874,-0.0069015715,-0.0036989502,-0.0062432336,-0.0015389727,-0.0035544075,2.0248752e-05,-0.0010055611,0.0065174755,0.0067881793,0.0028119008,0.0034684252,0.0036289794,-0.006729478,0.00010137457,-0.0034679021,-0.0024922539,-0.0047582421,-0.0020213644,0.0065859859,-0.0030200151,0.006883394,-0.0060953232,-0.0048449216,0.0050142035,-0.0048825867,0.0072544487,0.0050912327
cefixime,-0.006732505,-0.005287767,-0.003696578,-0.0007709407,0.003199879,4.182843e-05,-0.005361817,-0.005202545,-0.001970417,-0.005033817,0.005694947,0.0001451792,-2.366897e-05,0.002896844,-0.0004545219,0.004399021,0.00776564,0.002752185,-0.004158333,-0.007685687,-0.003779858,0.0007445207,-0.0001154804,-0.002837104,-0.001708387,0.007439892,-0.004981435,-0.001215965,-0.002194441,0.002171286,-0.001197769,-0.0035925563,-0.0067087146,0.0011896638,0.0074038315,-0.0027923186,-0.0021058707,0.0008912628,-0.00483796,0.0045764092,0.00061913,0.0030824933,-0.0064139958,0.0046423529,-0.0073648086,0.0038899062,0.0045784963,0.00086258,0.00284677,-0.0045266086,-0.0029008724,0.0053401184,-0.0012476142,0.0071617137,-0.0001994759,-0.0057924194,0.0071341996,-0.0052535105,-0.0029882051,0.0065828441,0.0027832524,0.0050354875,-0.0033978506,-0.0036683129,0.0069769532,-0.0047190436,-0.0007404397,0.0078656171,-0.0062038386,-0.003450508,0.0054231151,-0.0035782249,-0.004293615,0.007825911,0.0035761627,-0.0019454743,0.0027979985,-0.0039618537,-0.0061293412,-0.0055376394,-0.0042748251,-0.0032176378,0.0039681741,0.0044341888,0.000622409,-0.0005838101,0.0035399706,0.0071751601,-0.0021204429,0.0042630713,0.0034930089,0.0012144418,0.0030114485,0.0036531561,0.0077051027,0.003437679,0.0043861149,-0.0069878069,-0.0037451682,-0.0063212411,-0.0015582019,-0.0035988195,2.0501757e-05,-0.0010181252,0.0065989103,0.0068729967,0.0028470359,0.0035117622,0.0036743239,-0.0068135615,0.00010264125,-0.0035112326,-0.002523395,-0.0048176963,-0.0020466212,0.0066682766,-0.0030577495,0.0069694002,-0.0061714835,-0.0049054595,0.005076855,-0.0049435939,0.0073450916,0.0051548476
amphotericin b,-0.009545113,-0.007496814,-0.005240882,-0.001093013,0.00453668,5.930294e-05,-0.007601802,-0.007375989,-0.00279359,-0.007136771,0.008074103,0.0002058301,-3.355706e-05,0.004107048,-0.0006444055,0.006236783,0.01100986,0.003901954,-0.005895544,-0.01089651,-0.005358953,0.001055556,-0.0001637241,-0.004022349,-0.002422092,0.01054802,-0.007062511,-0.001723953,-0.003111204,0.003078375,-0.001698156,-0.0050934027,-0.0095113888,0.0016866648,0.0104969013,-0.003958852,-0.0029856311,0.0012636022,-0.006859092,0.0064882776,0.000877781,0.0043702545,-0.0090935398,0.0065817656,-0.0104415705,0.0055149752,0.0064912359,0.0012229362,0.004036054,-0.0064176726,-0.0041127587,0.007571036,-0.0017688241,0.0101536307,-0.0002828101,-0.0082122907,0.0101146214,-0.0074482453,-0.0042365743,0.0093329288,0.0039459993,0.0071391398,-0.0048173568,-0.0052008079,0.0098916851,-0.0066904957,-0.0010497695,0.0111516044,-0.0087955892,-0.0048920121,0.0076887053,-0.0050730859,-0.0060873427,0.0110953115,0.0050701592,-0.0027582264,0.003966908,-0.0056169797,-0.0086899726,-0.0078510791,-0.0060607009,-0.0045618541,0.0056259423,0.0062866379,0.0008824298,-0.0008277062,0.0050188499,0.0101726996,-0.0030062923,0.0060440404,0.0049522696,0.0017217933,0.0042695277,0.00517931813,0.010924031,0.0048738257,0.0062184846,-0.00990706775,-0.00530977175,-0.00896203797,-0.00220916583,-0.00510228425,2.90666849e-05,-0.00144346326,0.00935571175,0.00974430144,0.00403642887,0.00497885514,0.00520932954,-0.0096600363,0.000145521291,-0.00497810543,-0.00357758254,-0.00683036586,-0.00290162931,0.00945405103,-0.00433517108,0.00988097582,-0.00874971692,-0.00695479056,0.00719778799,-0.00700885803,0.0104136169,0.00730836578
teicoplanin,-0.01966845,-0.01544776,-0.01079924,-0.00225224,0.009348175,0.0001221983,-0.0156641,-0.01519879,-0.005756403,-0.01470587,0.01663731,0.0004241286,-6.914687e-05,0.008462889,-0.001327846,0.01285136,0.02268666,0.008040277,-0.01214822,-0.02245309,-0.01104253,0.002175054,-0.0003373662,-0.008288356,-0.00499091,0.02173501,-0.01455283,-0.003552336,-0.006410878,0.006343223,-0.00349918,-0.0104953507,-0.0195989441,0.0034755042,0.021629665,-0.0081575233,-0.0061521246,0.0026037477,-0.0141336955,0.0133695928,0.0018087364,0.009005242,-0.0187379457,0.0135622397,-0.0215156674,0.0113640241,0.0133756874,0.0025199535,0.0083166016,-0.0132241016,-0.0084746564,0.0156006925,-0.0036447975,0.0209223405,-0.0005827522,-0.0169220641,0.0208419673,-0.0153476847,-0.0087297903,0.0192312188,0.0081310375,0.0147107476,-0.009926528,-0.010716666,0.020382578,-0.013786278,-0.002163132,0.022978732,-0.018123988,-0.010080366,0.015843162,-0.010453482,-0.012543442,0.022862736,0.010447454,-0.005683537,0.008174112,-0.011574213,-0.017906338,-0.01617774,-0.012488525,-0.009400054,0.011592681,0.012954113,0.001818315,-0.001705553,0.010341728,0.020961611,-0.006194693,0.012454209,0.010204524,0.003547887,0.008797686,0.0106723839,0.022509804,0.0100428853,0.0128136612,-0.0204142798,-0.0109411869,-0.01846697,-0.00455215387,-0.0105136456,5.98941697e-05,-0.00297436607,0.0192781538,0.0200788639,0.00831736997,0.0102593228,0.0107342182,-0.0199052356,0.000299857697,-0.0102577731,-0.00737188617,-0.0140744876,-0.00597902946,0.0194808003,-0.00893295184,0.0203605033,-0.0180294719,-0.0143308705,0.014831597,-0.0144422958,0.0214580614,0.0150594506
gentamicin,-0.006984111,-0.00548538,-0.003834725,-0.0007997521,0.003319465,4.339164e-05,-0.005562198,-0.005396973,-0.002044055,-0.005221939,0.005907778,0.0001506048,-2.455352e-05,0.003005105,-0.0004715082,0.004563422,0.00805586,0.00285504,-0.004313737,-0.007972913,-0.003921119,0.0007723448,-0.0001197961,-0.002943131,-0.001772233,0.007717934,-0.005167601,-0.001261407,-0.002276452,0.00225243,-0.001242532,-0.003726817,-0.0069594313,0.0012341243,0.0076805246,-0.0028966723,-0.0021845717,0.0009245708,-0.0050187623,0.0047474392,0.0006422681,0.0031976921,-0.0066536982,0.0048158458,-0.0076400456,0.0040352806,0.0047496022,0.000894816,0.0029531599,-0.0046957755,-0.0030092834,0.0055396887,-0.0012942401,0.0074293613,-0.0002069307,-0.0060088928,0.0074008186,-0.0054498431,-0.0030998799,0.0068288576,0.0028872672,0.0052236714,-0.0035248348,-0.0038054048,0.0072376947,-0.0048954012,-0.0007681112,0.0081595741,-0.0064356877,-0.003579458,0.0056257881,-0.0037119503,-0.0044540763,0.0081183817,0.0037098101,-0.0020181807,0.0029025648,-0.0041099153,-0.006358406,-0.0057445923,-0.0044345818,-0.0033378867,0.0041164742,0.0045999018,0.0006456696,-0.0006056281,0.0036722647,0.0074433098,-0.002199688,0.0044223908,0.0036235503,0.0012598273,0.0031239926,0.0037896805,0.0079930536,0.003566151,0.0045500323,-0.0072489539,-0.0038851323,-0.0065574772,-0.0016164347,-0.0037333141,2.1267946e-05,-0.0010561744,0.0068455236,0.0071298541,0.0029534339,0.0036430035,0.0038116404,-0.0070681986,0.00010647712,-0.0036424543,-0.0026176982,-0.0049977428,-0.0021231077,0.0069174822,-0.0031720239,0.0072298609,-0.0064021228,-0.0050887857,0.0052665849,-0.005128345,0.0076195933,0.0053474917
5-fluorocytosine,-0.006641681,-0.005216432,-0.003646709,-0.0007605405,0.003156712,4.126415e-05,-0.005289485,-0.00513236,-0.001943835,-0.004965908,0.00561812,0.0001432207,-2.334967e-05,0.002857765,-0.0004483903,0.004339678,0.00766088,0.002715058,-0.004102235,-0.007582005,-0.003728866,0.0007344769,-0.0001139225,-0.002798831,-0.00168534,0.007339526,-0.004914234,-0.001199561,-0.002164837,0.002141994,-0.001181611,-0.0035440919,-0.006618212,0.0011736149,0.0073039513,-0.0027546491,-0.0020774622,0.0008792393,-0.0047726934,0.0045146709,0.0006107779,0.0030409098,-0.0063274689,0.0045797252,-0.0072654546,0.0038374299,0.0045167301,0.0008509436,0.0028083664,-0.0044655432,-0.0028617384,0.0052680778,-0.0012307835,0.0070650997,-0.0001967849,-0.0057142773,0.0070379572,-0.0051826374,-0.0029478937,0.0064940383,0.0027457047,0.0049675563,-0.0033520127,-0.0036188259,0.0068828319,-0.0046553817,-0.0007304509,0.0077595063,-0.0061201467,-0.0034039589,0.0053499551,-0.0035299535,-0.0042356947,0.0077203368,0.0035279193,-0.0019192293,0.0027602524,-0.0039084065,-0.0060466542,-0.0054629352,-0.0042171557,-0.0031742305,0.0039146426,0.00437437,0.0006140124,-0.0005759344,0.0034922152,0.007078364,-0.0020918373,0.0042055622,0.0034458872,0.0011980584,0.0029708231,0.0036038738,0.0076011587,0.0033913036,0.0043269447,-0.0068935384,-0.0036946442,-0.006235966,-0.0015371812,-0.0035502701,2.0225183e-05,-0.0010043905,0.0065098894,0.0067802784,0.0028086279,0.0034643877,0.0036247559,-0.0067216451,0.00010125657,-0.0034638653,-0.0024893533,-0.0047527035,-0.0020190114,0.0065783197,-0.0030164996,0.0068753813,-0.0060882289,-0.0048392825,0.0050083674,-0.0048769033,0.0072460053,0.0050853067
tetracycline,-0.006894982,-0.005415379,-0.003785788,-0.000789546,0.003277103,4.28379e-05,-0.005491216,-0.0053281,-0.002017969,-0.005155298,0.005832385,0.0001486829,-2.424018e-05,0.002966755,-0.000465491,0.004505186,0.007953052,0.002818605,-0.004258688,-0.007871169,-0.003871078,0.0007624886,-0.0001182673,-0.002905573,-0.001749616,0.007619441,-0.005101654,-0.00124531,-0.0022474,0.002223685,-0.001226676,-0.0036792574,-0.0068706186,0.0012183745,0.0075825104,-0.0028597061,-0.0021566916,0.0009127718,-0.0049547162,0.0046868529,0.0006340716,0.003156885,-0.0065687867,0.0047543868,-0.0075425464,0.0039837812,0.0046889884,0.0008833968,0.0029154725,-0.0046358514,-0.0029708794,0.0054689934,-0.0012777236,0.0073345499,-0.0002042899,-0.0059322086,0.0073063737,-0.0053802948,-0.0030603213,0.00674171,0.0028504212,0.0051570097,-0.0034798521,-0.0037568416,0.0071453303,-0.0048329285,-0.0007583088,0.0080554411,-0.0063535585,-0.0035337792,0.0055539911,-0.0036645799,-0.0043972367,0.0080147767,0.003662467,-0.001992425,0.0028655229,-0.004057467,-0.0062772632,-0.0056712818,-0.0043779896,-0.0032952896,0.0040639387,0.0045412006,0.0006374298,-0.0005978993,0.0036254018,0.0073483204,-0.0021716168,0.0043659541,0.0035773078,0.0012437501,0.0030841245,0.0037413181,0.0078910533,0.0035206422,0.0044919648,-0.0071564452,-0.0038355514,-0.0064737936,-0.0015958066,-0.0036856714,2.0996531e-05,-0.0010426959,0.0067581641,0.0070388657,0.002915744,0.0035965126,0.0037629979,-0.0069779963,0.00010511832,-0.0035959701,-0.0025842926,-0.004933964,-0.0020960129,0.0068292036,-0.0031315433,0.0071375961,-0.006320423,-0.0050238431,0.005199376,-0.0050628986,0.0075223534,0.0052792518
quinolones,-0.006681638,-0.005247815,-0.003668648,-0.000765116,0.003175702,4.151239e-05,-0.005321307,-0.005163237,-0.001955529,-0.004995783,0.00565192,0.0001440823,-2.349014e-05,0.002874957,-0.0004510878,0.004365786,0.007706969,0.002731391,-0.004126915,-0.007627619,-0.0037513,0.0007388956,-0.0001146079,-0.002815669,-0.00169548,0.007383681,-0.004943799,-0.001206778,-0.002177861,0.00215488,-0.001188719,-0.0035654134,-0.0066580279,0.0011806753,0.007347892,-0.0027712218,-0.0020899598,0.0008845288,-0.0048014056,0.004541832,0.0006144523,0.0030592035,-0.0063655344,0.0046072779,-0.0073091644,0.0038605165,0.0045439028,0.0008560627,0.0028252618,-0.0044924086,-0.0028789551,0.0052997703,-0.0012381878,0.0071076038,-0.0001979688,-0.0057486543,0.0070802984,-0.0052138167,-0.0029656279,0.0065331073,0.0027622234,0.004997442,-0.0033721784,-0.003640597,0.0069242395,-0.0046833898,-0.0007348454,0.0078061884,-0.0061569661,-0.003424437,0.0053821406,-0.00355119,-0.0042611775,0.0077667832,0.003549143,-0.0019307755,0.0027768582,-0.0039319205,-0.0060830321,-0.0054958006,-0.0042425268,-0.0031933265,0.0039381934,0.0044006859,0.0006177064,-0.0005793992,0.0035132244,0.0071209478,-0.0021044223,0.0042308629,0.0034666178,0.0012052661,0.0029886956,0.0036255552,0.007646888,0.0034117063,0.0043529756,-0.0069350097,-0.0037168714,-0.006273482,-0.0015464288,-0.0035716288,2.0346859e-05,-0.0010104331,0.0065490529,0.0068210689,0.0028255247,0.0034852298,0.0036465621,-0.0067620822,0.00010186576,-0.0034847041,-0.0025043294,-0.004781296,-0.0020311582,0.0066178944,-0.0030346466,0.0069167446,-0.006124855,-0.0048683956,0.0050384966,-0.0049062422,0.0072895973,0.0051159007
amoxicillin,-0.006707313,-0.00526798,-0.003682745,-0.0007680558,0.003187905,4.167192e-05,-0.005341754,-0.005183077,-0.001963043,-0.005014979,0.005673635,0.0001446359,-2.358041e-05,0.002886005,-0.0004528211,0.004382561,0.007736582,0.002741887,-0.004142773,-0.007656928,-0.003765714,0.0007417348,-0.0001150483,-0.002826488,-0.001701995,0.007412053,-0.004962795,-0.001211415,-0.00218623,0.00216316,-0.001193287,-0.0035791143,-0.0066836113,0.0011852125,0.0073761269,-0.0027818696,-0.0020979913,0.0008879277,-0.004819857,0.0045592841,0.0006168134,0.0030709594,-0.0063899937,0.004624981,-0.0073372507,0.0038753503,0.0045613632,0.0008593523,0.0028361182,-0.0045096716,-0.0028900171,0.0053201346,-0.0012429457,0.0071349139,-0.0001987295,-0.0057707448,0.0071075056,-0.0052338513,-0.0029770241,0.0065582101,0.0027728374,0.0050166431,-0.0033851359,-0.0036545861,0.0069508455,-0.0047013843,-0.0007376689,0.0078361826,-0.006180624,-0.0034375954,0.0054028211,-0.0035648351,-0.0042775506,0.0077966265,0.003562781,-0.0019381946,0.0027875279,-0.003947028,-0.0061064051,-0.0055169198,-0.0042588287,-0.0032055974,0.003953326,0.0044175954,0.0006200799,-0.0005816254,0.0035267242,0.0071483101,-0.0021125087,0.0042471196,0.003479938,0.0012098973,0.0030001798,0.00363948569,0.00767627172,0.00342481537,0.00436970266,-0.00696165767,-0.00373115367,-0.00629758742,-0.00155237108,-0.00358535326,2.04250464e-05,-0.00101431564,0.0065742177,0.00684727868,0.00283638155,0.00349862198,0.00366057409,-0.00678806659,0.000102257167,-0.00349809392,-0.00251395209,-0.00479966775,-0.00203896267,0.00664332462,-0.00304630748,0.00694332179,-0.00614839047,-0.00488710171,0.00505785877,-0.00492509501,0.00731760729,0.00513555808
doxycycline,-0.006883183,-0.005406111,-0.00377931,-0.0007881949,0.003271494,4.276458e-05,-0.005481818,-0.005318983,-0.002014516,-0.005146477,0.005822404,0.0001484284,-2.41987e-05,0.002961678,-0.0004646945,0.004497477,0.007939441,0.002813782,-0.0042514,-0.007857698,-0.003864454,0.0007611838,-0.0001180649,-0.002900601,-0.001746622,0.007606404,-0.005092923,-0.001243179,-0.002243554,0.00221988,-0.001224576,-0.0036729611,-0.0068588615,0.0012162899,0.0075695361,-0.0028548124,-0.0021530017,0.00091121,-0.0049462365,0.0046788328,0.0006329866,0.0031514817,-0.0065575456,0.0047462517,-0.0075296373,0.0039769653,0.004680966,0.000881885,0.0029104836,-0.0046279188,-0.0029657953,0.0054596332,-0.0012755365,0.0073219971,-0.0002039403,-0.0059220577,0.0072938693,-0.0053710882,-0.0030550843,0.0067301723,0.0028455437,0.005148184,-0.0034738979,-0.0037504125,0.0071331025,-0.0048246589,-0.0007570114,0.0080416575,-0.0063426862,-0.0035277321,0.0055444874,-0.0036583086,-0.0043897121,0.0080010593,0.0036562001,-0.0019890154,0.0028606202,-0.0040505235,-0.0062665199,-0.0056615761,-0.004370498,-0.0032896507,0.0040569841,0.0045334287,0.0006363389,-0.0005968764,0.0036191973,0.0073357457,-0.0021678996,0.0043584825,0.0035711851,0.0012416217,0.0030788472,0.0037349164,0.0078775473,0.0035146172,0.0044842777,-0.0071441983,-0.0038289879,-0.0064627156,-0.0015930757,-0.0036793638,2.0960606e-05,-0.0010409119,0.006746599,0.0070268204,0.0029107537,0.0035903584,0.0037565583,-0.0069660535,0.00010493844,-0.0035898164,-0.0025798699,-0.0049255192,-0.0020924257,0.0068175178,-0.0031261842,0.0071253809,-0.0063096066,-0.005015247,0.0051904786,-0.0050542355,0.0075094812,0.0052702161
cefepime,-0.006854415,-0.005383514,-0.003763515,-0.0007849007,0.003257821,4.258584e-05,-0.005458907,-0.00529675,-0.002006096,-0.005124966,0.005798067,0.000147808,-2.409757e-05,0.0029493,-0.0004627523,0.004478677,0.007906258,0.002802021,-0.00423363,-0.007824858,-0.003848302,0.0007580021,-0.0001175715,-0.002888477,-0.001739322,0.007574613,-0.005071638,-0.001237983,-0.002234178,0.002210602,-0.001219458,-0.0036576095,-0.006830194,0.0012112061,0.0075378977,-0.0028428815,-0.0021440035,0.0009074014,-0.0049255635,0.0046592769,0.000630341,0.0031383093,-0.0065301377,0.0047264141,-0.0074981693,0.0039603435,0.0046614008,0.0008781993,0.0028983187,-0.0046085767,-0.0029534006,0.0054368149,-0.0012702057,0.0072913952,-0.000203088,-0.0058973045,0.0072633834,-0.0053486396,-0.0030423142,0.0067020445,0.0028336502,0.0051266681,-0.0034593784,-0.0037347374,0.0071032885,-0.0048044929,-0.0007538474,0.0080080451,-0.0063161771,-0.0035129872,0.0055213147,-0.0036430182,-0.0043713627,0.0079676183,0.0036409185,-0.0019807017,0.0028486629,-0.004033593,-0.0062403311,-0.0056379139,-0.004352232,-0.0032759008,0.0040400298,0.0045144819,0.0006336793,-0.0005943816,0.0036040712,0.0073050847,-0.0021588386,0.0043402668,0.003556259,0.0012364323,0.0030659793,0.0037193059,0.007844625,0.0034999277,0.0044655367,-0.0071143382,-0.0038129839,-0.0064357049,-0.001586417,-0.0036639858,2.0873003e-05,-0.0010365616,0.0067184009,0.0069974512,0.0028985883,0.003575353,0.0037408569,-0.0069369394,0.00010449983,-0.0035748123,-0.0025690873,-0.0049049342,-0.0020836804,0.0067890235,-0.0031131178,0.0070956,-0.0062832348,-0.0049942853,0.0051687853,-0.0050331112,0.0074780942,0.005248189
cefazolin,-0.006725702,-0.005282424,-0.003692843,-0.0007701618,0.003196646,4.178617e-05,-0.005356399,-0.005197288,-0.001968426,-0.005028731,0.005689193,0.0001450325,-2.364506e-05,0.002893918,-0.0004540626,0.004394577,0.007757796,0.002749404,-0.004154131,-0.007677922,-0.003776038,0.0007437686,-0.0001153637,-0.002834237,-0.001706661,0.007432376,-0.004976403,-0.001214736,-0.002192224,0.002169091,-0.001196559,-0.0035889274,-0.0067019365,0.001188462,0.0073963516,-0.0027894974,-0.0021037431,0.0008903623,-0.004833072,0.0045717843,0.0006185045,0.003079379,-0.0064075142,0.0046376623,-0.0073573678,0.0038859763,0.0045738691,0.0008617085,0.0028438943,-0.0045220358,-0.0028979413,0.0053347237,-0.0012463536,0.0071544778,-0.0001992744,-0.0057865661,0.0071269926,-0.0052482025,-0.0029851866,0.0065761926,0.0027804396,0.0050303987,-0.0033944179,-0.0036646065,0.0069699055,-0.0047142757,-0.0007396915,0.007857671,-0.0061975708,-0.0034470209,0.0054176357,-0.00357461,-0.0042892774,0.0078180051,0.0035725501,-0.0019435089,0.0027951715,-0.0039578499,-0.0061231479,-0.0055320449,-0.0042705061,-0.0032143858,0.0039641648,0.0044297078,0.0006217801,-0.0005832203,0.0035363936,0.0071679107,-0.0021183004,0.0042587644,0.0034894801,0.0012132148,0.0030084057,0.00364946481,0.00769731868,0.00343420659,0.00438168272,-0.00698074698,-0.00374138379,-0.00631485553,-0.00155662757,-0.00359518384,2.04810476e-05,-0.0010170968,0.00659224251,0.00686605321,0.00284415809,0.00350821461,0.00367061095,-0.00680667767,0.000102537546,-0.00350768561,-0.00252084527,-0.00481282827,-0.0020445534,0.00666153897,-0.00305465981,0.00696235988,-0.00616524788,-0.00490050158,0.0050717257,-0.00493859965,0.00733767077,0.00514963921
azithromycin,-0.006781149,-0.005325974,-0.003723287,-0.0007765111,0.003222999,4.213067e-05,-0.00540056,-0.005240137,-0.001984654,-0.005070186,0.005736093,0.0001462282,-2.383999e-05,0.002917775,-0.000457806,0.004430806,0.007821751,0.002772072,-0.004188378,-0.007741219,-0.003807169,0.0007499004,-0.0001163148,-0.002857604,-0.001720731,0.00749365,-0.005017429,-0.00122475,-0.002210297,0.002186973,-0.001206424,-0.0036185146,-0.0067571877,0.00119826,0.0074573266,-0.0028124941,-0.0021210865,0.0008977025,-0.0048729149,0.0046094744,0.0006236035,0.0031047661,-0.0064603398,0.0046758954,-0.007418022,0.0039180117,0.0046115774,0.0008688125,0.0028673401,-0.0045593162,-0.002921832,0.0053787036,-0.0012566285,0.0072134589,-0.0002009172,-0.0058342717,0.0071857478,-0.0052914694,-0.0030097964,0.0066304076,0.0028033624,0.0050718705,-0.0034224018,-0.0036948177,0.0070273667,-0.0047531407,-0.0007457895,0.007922451,-0.0062486632,-0.0034754383,0.0054622991,-0.0036040787,-0.0043246401,0.0078824563,0.0036020018,-0.0019595313,0.0028182147,-0.0039904802,-0.0061736288,-0.0055776518,-0.0043057124,-0.0032408866,0.0039968463,0.0044662277,0.0006269063,-0.0005880284,0.0035655487,0.0072270031,-0.002135765,0.0042938744,0.0035182482,0.0012232164,0.0030332073,0.0036795519,0.0077607753,0.0034625176,0.0044178064,-0.0070382957,-0.003772228,-0.0063669146,-0.0015694605,-0.0036248229,2.0649893e-05,-0.0010254814,0.0066465908,0.0069226585,0.0028676065,0.0035371361,0.0037008713,-0.006862794,0.00010338286,-0.0035366034,-0.0025416275,-0.0048525054,-0.0020614087,0.0067164581,-0.0030798432,0.0070197582,-0.0062160757,-0.004940901,0.0051135365,-0.0049793124,0.0073981639,0.005192094
